{
  "layers": [
    {
      "name": "hidden_layer_1",
      "type": "dense",
      "input_size": 71,
      "output_size": 142,
      "activation": "silu",
      "weights": [
        [
          0.0010820407187566161,
          0.00015287610585801303,
          -0.000636118755210191,
          -0.0010956170735880733,
          -0.0037640349473804235,
          0.0012871435610577464,
          0.0034520956687629223,
          -0.0009247208945453167,
          0.17416320741176605,
          0.0006576626910828054,
          -0.0016404101625084877,
          0.0014896539505571127,
          -0.0018849563784897327,
          1.990741293411702e-05,
          0.0013454422587528825,
          -0.001081504742614925,
          6.455645052483305e-05,
          0.001007920945994556,
          -0.0010992989409714937,
          0.014797018840909004,
          -0.0023839829955250025,
          -0.0006857291446067393,
          -0.0035919409710913897,
          -0.001457447069697082,
          -0.0011855592019855976,
          -0.00033982290187850595,
          -0.0015139082679525018,
          -0.0013842189218848944,
          9.142181079369038e-05,
          -3.3073149097617716e-05,
          0.0003494718112051487,
          -0.0009524094639346004,
          0.00032692155218683183,
          0.0010381854372099042,
          -0.002313664648681879,
          0.0006800134433433414,
          -0.001492460840381682,
          4.968643406755291e-05,
          0.0015224616508930922,
          -0.002790369326248765,
          0.0015188133111223578,
          0.0016865191282704473,
          0.002196510322391987,
          -0.0004268367774784565,
          -0.0014158736448734999,
          -0.0016317381523549557,
          -0.19879558682441711,
          0.0016982912784442306,
          -0.001980074215680361,
          0.0010620533721521497,
          -0.0019379709847271442,
          -0.001653102459385991,
          -0.0015403965953737497,
          -0.0005753019358962774,
          0.0011364028323441744,
          0.0009764453861862421,
          -0.0023745489306747913,
          0.028424715623259544,
          -0.0013845240464434028,
          0.0017305396031588316,
          0.0003593291330616921,
          -0.000573056167922914,
          -0.0005040114629082382,
          -0.0036371154710650444,
          0.000339149177307263,
          0.001512757153250277,
          0.0010764151811599731,
          0.002136878203600645,
          -0.002201609080657363,
          0.0017088823951780796,
          -0.00020316829613875598,
          0.0012416322715580463,
          0.0016650942852720618,
          0.0012986354995518923,
          -0.0010749576613307,
          0.00023990683257579803,
          0.003176968777552247,
          0.0015202875947579741,
          -0.002306173322722316,
          0.011010981164872646,
          0.0013409566599875689,
          -0.003013520734384656,
          -0.0007282472215592861,
          0.0010670137125998735,
          -0.002543788403272629,
          -0.004136704374104738,
          0.0012849948834627867,
          0.0009422817965969443,
          -0.00012611887359526008,
          0.0009062469471246004,
          0.0008365033427253366,
          0.0016294975066557527,
          0.0008397666388191283,
          0.0013682395219802856,
          0.0013099766802042723,
          -0.00032549057505093515,
          -0.000982744270004332,
          -0.00019379706645850092,
          -0.0014746258966624737,
          -0.001665497082285583,
          -0.25952228903770447,
          -0.24500533938407898,
          -0.0011410530423745513,
          -0.002099426928907633,
          -0.0009110096143558621,
          0.0018058621790260077,
          -0.003093732288107276,
          -0.0027382830157876015,
          -0.00043694584746845067,
          -0.00033249627449549735,
          -0.00019629299640655518,
          0.019599976018071175,
          -0.00036636568256653845,
          0.0015738641377538443,
          0.0008210436208173633,
          -0.0019054996082559228,
          -0.000616973266005516,
          0.000584915978834033,
          0.000665975792799145,
          -0.0008832942694425583,
          -0.0010191065957769752,
          -0.0014588508056476712,
          -0.001676458166912198,
          -0.0018973337719216943,
          -0.0020403405651450157,
          -0.0009624732774682343,
          -0.0026720729656517506,
          0.000921692349947989,
          -0.0012259269133210182,
          -0.0006924723275005817,
          -0.0014079074608162045,
          -0.0017856380436569452,
          -0.0003697764768730849,
          -0.23892782628536224,
          0.0006279550725594163,
          -0.0013366690836846828,
          -0.0014309246325865388,
          0.002145635662600398,
          -0.0015554057899862528,
          0.030674081295728683,
          -9.995982691179961e-05,
          0.00026719787274487317
        ],
        [
          -0.011427614837884903,
          -0.07353844493627548,
          -0.04206620901823044,
          -0.03195684775710106,
          -0.0025394107215106487,
          -0.025168420746922493,
          0.000861487234942615,
          -0.03486574441194534,
          0.06892526894807816,
          -0.0071013448759913445,
          -0.0075344848446547985,
          -0.0178604107350111,
          0.22464868426322937,
          -0.026351025328040123,
          -0.01420658454298973,
          -0.027828626334667206,
          -0.05465863645076752,
          -0.029766302555799484,
          -0.02131887525320053,
          0.1639663130044937,
          -0.0096826096996665,
          -0.0633736103773117,
          0.04678930342197418,
          0.16809195280075073,
          -0.009422902017831802,
          0.004564490634948015,
          -0.02729557454586029,
          -0.009226374328136444,
          -0.02012317068874836,
          -0.0255377646535635,
          0.005782914813607931,
          -0.0593092143535614,
          0.07241347432136536,
          0.009781497530639172,
          0.015560840256512165,
          -0.36806994676589966,
          -0.00046979691251181066,
          -0.06687065958976746,
          -0.011945610865950584,
          -0.004114676732569933,
          -0.026341883465647697,
          -0.03196756914258003,
          0.0025779681745916605,
          -0.03688034042716026,
          -0.01508142240345478,
          -0.01340444851666689,
          0.06294713169336319,
          -0.021309133619070053,
          -0.016350310295820236,
          -0.030556103214621544,
          -0.048459142446517944,
          -0.008014661259949207,
          -0.01944674365222454,
          -0.01809554174542427,
          -0.03334590420126915,
          -0.01679743081331253,
          -0.0030598456505686045,
          -0.0025355659890919924,
          -0.02782292664051056,
          -0.012894674204289913,
          -0.0014029565500095487,
          -0.014244681224226952,
          -0.007250811904668808,
          -0.03800302371382713,
          -0.04768180474638939,
          -0.013931075111031532,
          0.007029446307569742,
          -0.02977054752409458,
          -0.020627761259675026,
          -0.0013098748167976737,
          -0.007088604848831892,
          -0.006688526365906,
          -0.035862118005752563,
          -0.0022062005009502172,
          -0.01103848498314619,
          0.0040962654165923595,
          0.0071074264124035835,
          -0.018699783831834793,
          -0.0172854196280241,
          0.00617337366566062,
          -0.013213948346674442,
          -0.05224098637700081,
          -0.1747867912054062,
          -0.010670999996364117,
          -0.022927813231945038,
          -0.024204794317483902,
          -0.04087204486131668,
          -0.010369382798671722,
          0.050066810101270676,
          -0.013914835639297962,
          0.03714286535978317,
          -0.026304708793759346,
          -0.08190435916185379,
          -0.02112957462668419,
          -0.023440588265657425,
          -0.05674755200743675,
          -0.009848907589912415,
          -0.029297340661287308,
          -0.06292517483234406,
          -0.020848963409662247,
          0.0440732017159462,
          0.057931385934352875,
          -0.02176153101027012,
          0.02379303053021431,
          -0.028920147567987442,
          -0.03892441838979721,
          0.008513330481946468,
          -0.030838051810860634,
          -0.15396398305892944,
          0.03932173550128937,
          -0.045620694756507874,
          0.038840822875499725,
          -0.018839139491319656,
          -0.03008430078625679,
          -0.015862207859754562,
          -0.01510426215827465,
          -0.017387263476848602,
          -0.012947024777531624,
          -0.013565367087721825,
          -0.02222329191863537,
          0.04496115818619728,
          -0.020654531195759773,
          -0.010802586562931538,
          -0.002773810410872102,
          -0.03897695243358612,
          -0.020465567708015442,
          0.004843621049076319,
          -0.014440968632698059,
          0.09970086812973022,
          -0.03779355809092522,
          -0.014498570002615452,
          0.04802257940173149,
          -0.025213291868567467,
          0.13067597150802612,
          -0.013151226565241814,
          -0.05875210091471672,
          -0.172750324010849,
          -0.018407316878437996,
          -0.010999650694429874,
          -0.1468263417482376,
          -0.010006815195083618,
          -0.09698515385389328
        ],
        [
          -0.015392339788377285,
          -0.04806133732199669,
          0.008529926650226116,
          -0.010301077738404274,
          0.0016554519534111023,
          -0.004778731614351273,
          0.10639884322881699,
          0.010450168512761593,
          -0.051321133971214294,
          -0.009902461431920528,
          -0.02183661423623562,
          -0.0266867782920599,
          -0.3500896692276001,
          0.0028016541618853807,
          -0.021102169528603554,
          -0.059319719672203064,
          -0.1252109259366989,
          -0.003111878875643015,
          -0.020530160516500473,
          0.047446005046367645,
          -0.033260248601436615,
          0.0007175134378485382,
          0.048532214015722275,
          -0.1776280552148819,
          -0.015178144909441471,
          -0.014502371661365032,
          -0.013863073661923409,
          -0.01050582341849804,
          -0.0075455293990671635,
          -0.01771601289510727,
          -0.024677466601133347,
          0.07541438192129135,
          0.05682628974318504,
          -0.05268269404768944,
          -0.024578819051384926,
          0.24553152918815613,
          -0.027562523260712624,
          -0.07667692005634308,
          -0.001238142722286284,
          -0.03639424219727516,
          -0.0008801274816505611,
          0.00546706048771739,
          -0.029970012605190277,
          -0.03276360407471657,
          -0.002376171760261059,
          -0.008483044803142548,
          -0.12185968458652496,
          7.68002646509558e-05,
          -0.017926357686519623,
          0.007684808224439621,
          0.03201143071055412,
          -0.01873953267931938,
          -0.022135717794299126,
          -0.0009489826043136418,
          0.005890616215765476,
          -0.017224078997969627,
          -0.01301127765327692,
          0.04465470090508461,
          -0.0003539102035574615,
          -0.029879087582230568,
          -0.01039155200123787,
          -0.008081370033323765,
          -0.00704227015376091,
          -0.048225097358226776,
          -0.04703221842646599,
          -0.005134422332048416,
          -0.049539901316165924,
          -0.01070792879909277,
          0.012206635437905788,
          -0.03589216247200966,
          -0.0006713343900628388,
          -0.030361393466591835,
          0.02693253383040428,
          -0.03813977539539337,
          -0.0170981977134943,
          -0.008668679744005203,
          0.06572692841291428,
          -0.014910084195435047,
          -0.03966778516769409,
          0.0410601869225502,
          -0.05307506024837494,
          0.05338329076766968,
          0.18761397898197174,
          -0.0357762947678566,
          -0.02350631169974804,
          -0.013333686627447605,
          -0.0010564648546278477,
          -0.017787901684641838,
          -0.022580498829483986,
          -0.014908944256603718,
          -0.04712678864598274,
          -0.009281659498810768,
          0.08595988154411316,
          -0.012496269308030605,
          -0.01700366847217083,
          -0.012090039439499378,
          -0.020762600004673004,
          -0.04695669934153557,
          -0.018526142463088036,
          -0.017295440658926964,
          0.0630355030298233,
          -0.055642034858465195,
          -0.07270023971796036,
          -0.01129185501486063,
          0.007084284909069538,
          0.002384020248427987,
          -0.007730839308351278,
          -0.027325818315148354,
          0.08808071166276932,
          -0.01586482860147953,
          -0.02442452684044838,
          -0.041659750044345856,
          -0.008144655264914036,
          0.003647017292678356,
          -0.004022517707198858,
          -0.022678760811686516,
          -0.003715317230671644,
          -0.014714796096086502,
          -0.011461110785603523,
          0.0355839841067791,
          -0.10639119148254395,
          -0.02689199335873127,
          -0.0177024956792593,
          -0.02237100899219513,
          -0.02267424203455448,
          -0.07645341753959656,
          -0.03787464275956154,
          -0.01163093838840723,
          -0.06564459204673767,
          0.020050350576639175,
          -0.014024143107235432,
          -0.08150351792573929,
          -0.00016931637946981937,
          0.16215749084949493,
          -0.003934547770768404,
          0.05591491982340813,
          0.08924637734889984,
          -0.02522139996290207,
          -0.019505595788359642,
          -0.09926547855138779,
          -0.0034755656961351633,
          0.014247271232306957
        ],
        [
          -0.0014528419123962522,
          0.03561665862798691,
          -0.012601010501384735,
          0.0007944157114252448,
          0.019050614908337593,
          0.02598157711327076,
          -0.1044224426150322,
          0.016134586185216904,
          0.11384911090135574,
          -0.0024996160063892603,
          -0.004967638291418552,
          -0.00990761537104845,
          -0.31318971514701843,
          0.004152785986661911,
          -0.002995971357449889,
          0.007474375888705254,
          -0.09441249817609787,
          0.015229698270559311,
          0.03594867140054703,
          0.1048353835940361,
          0.009562150575220585,
          -0.026138070970773697,
          0.0645880177617073,
          -0.15107278525829315,
          -0.0038411084096878767,
          -0.010630346834659576,
          0.005790336988866329,
          -0.01246765535324812,
          0.008409854955971241,
          -0.008510023355484009,
          -0.016021262854337692,
          0.05327596515417099,
          0.021581655368208885,
          -0.03337410092353821,
          0.012450424022972584,
          0.29333755373954773,
          -0.01362561248242855,
          0.004616724327206612,
          0.0074877492152154446,
          0.07151490449905396,
          0.010295542888343334,
          0.020029373466968536,
          -0.0176013745367527,
          0.01172150019556284,
          0.013189145363867283,
          0.002961287274956703,
          0.18992793560028076,
          0.014905554242432117,
          -0.006620286963880062,
          0.02075134590268135,
          0.04593723267316818,
          -0.0036057259421795607,
          -3.603203367674723e-05,
          0.010947668924927711,
          0.01948048546910286,
          -0.003762176726013422,
          -0.002169645857065916,
          -0.030026648193597794,
          0.00809644814580679,
          -0.006424197927117348,
          -0.004780490882694721,
          -0.001511955983005464,
          -2.4262415536213666e-05,
          -0.01063377596437931,
          -0.052201543003320694,
          0.003911198116838932,
          0.011999386362731457,
          0.002211080864071846,
          0.012973140925168991,
          -0.013063210062682629,
          0.0030573417898267508,
          -0.015156344510614872,
          0.012501955963671207,
          -0.00611413037404418,
          -0.0025513935834169388,
          -0.00630917027592659,
          -0.06617328524589539,
          -0.008856150321662426,
          -0.007086054887622595,
          -0.049615707248449326,
          -0.06637857854366302,
          0.11163590848445892,
          0.19359321892261505,
          0.06288488954305649,
          -0.004785509780049324,
          0.01093626581132412,
          0.012711161747574806,
          -0.005842048674821854,
          -0.07377536594867706,
          -0.000303352193441242,
          0.027851765975356102,
          0.015987858176231384,
          0.09146580100059509,
          -0.0047249458730220795,
          0.005926298908889294,
          0.06501851975917816,
          -0.003760341089218855,
          0.01574457623064518,
          -0.004412853624671698,
          -0.07278330624103546,
          -0.01627952605485916,
          0.11630783975124359,
          0.0570526048541069,
          -0.025833094492554665,
          0.015814390033483505,
          0.0148546127602458,
          -0.03722468763589859,
          -0.0077323331497609615,
          0.1285366714000702,
          -0.03371213749051094,
          0.01204923540353775,
          0.07245758175849915,
          0.006946286652237177,
          0.004452352412045002,
          0.009158116765320301,
          -0.01584099978208542,
          -0.0039035428781062365,
          0.0001641449925955385,
          0.0022537761833518744,
          -0.027048442512750626,
          -0.09035920351743698,
          -0.006787742953747511,
          -0.0033715390600264072,
          -0.009433222934603691,
          0.044767655432224274,
          -0.04383663460612297,
          -0.03348654881119728,
          -0.004512485582381487,
          -0.011204441078007221,
          0.04213007539510727,
          0.00528403464704752,
          0.12692853808403015,
          0.013110507279634476,
          -0.02826729044318199,
          0.005142236594110727,
          -0.03588457033038139,
          0.12436335533857346,
          -0.006941583007574081,
          -0.0013464575167745352,
          -0.03464671969413757,
          0.0024645566008985043,
          0.06581111997365952
        ],
        [
          -0.006389092653989792,
          -0.02238284982740879,
          -0.0037278439849615097,
          -0.0014936504885554314,
          -0.013227450661361217,
          0.0008252548868767917,
          0.04693978279829025,
          0.01326565258204937,
          3.85422682762146,
          0.0013229278847575188,
          6.278490036493167e-05,
          0.0035192028153687716,
          -0.07269730418920517,
          -0.006588079500943422,
          -0.0037088857498019934,
          -0.056912876665592194,
          -0.07360783964395523,
          -0.0020828598644584417,
          -0.0004956127377226949,
          0.3107112646102905,
          -0.02165866829454899,
          -0.01421800721436739,
          -0.04913381487131119,
          -0.04412749782204628,
          -0.0026990019250661135,
          -0.002527030650526285,
          0.0013516673352569342,
          -0.008103610947728157,
          0.002559836721047759,
          -0.005792276468127966,
          -0.0005185517948120832,
          -0.024100549519062042,
          0.02086188644170761,
          -0.009563854895532131,
          -0.05353609099984169,
          -0.07464509457349777,
          -0.005811321549117565,
          -0.054109394550323486,
          0.0013875828590244055,
          -0.06076956167817116,
          0.0034403237514197826,
          0.00612963130697608,
          -0.005978848785161972,
          0.001869175466708839,
          -0.003917096648365259,
          -0.023369917646050453,
          -3.0335495471954346,
          0.0004920443170703948,
          -0.008492819033563137,
          0.009161601774394512,
          -0.03802156075835228,
          -0.0025182461831718683,
          0.00017728892271406949,
          0.00794326514005661,
          0.009809673763811588,
          -0.0054664649069309235,
          -0.012673890218138695,
          -0.10085844993591309,
          -0.001362163806334138,
          -0.0022404452320188284,
          -0.0008585439063608646,
          0.004431175533682108,
          0.0009734324994497001,
          0.06358669698238373,
          -0.04134794697165489,
          -0.01766226440668106,
          -0.021742908284068108,
          -0.008208462968468666,
          0.005763253662735224,
          -0.004758245311677456,
          -0.00047603296115994453,
          -0.013892127200961113,
          0.000938136363402009,
          -0.010825494304299355,
          -0.0012163451174274087,
          0.00035968716838397086,
          0.01756599359214306,
          -0.012543875724077225,
          -0.0072138127870857716,
          0.1626589298248291,
          -0.018449924886226654,
          -0.04511570930480957,
          -0.03720054030418396,
          0.0004247381875757128,
          -0.012408232316374779,
          -0.0077345771715044975,
          -0.013974289409816265,
          0.003746974980458617,
          -0.06668126583099365,
          -0.004157912917435169,
          -0.03265102207660675,
          -0.0026640985161066055,
          -0.008363484404981136,
          -0.002319157822057605,
          -0.0032162917777895927,
          -0.036748383194208145,
          -0.0012095003621652722,
          -0.011680719442665577,
          0.008040772750973701,
          -0.005359102506190538,
          -3.3521950244903564,
          -3.3633930683135986,
          -0.04403580352663994,
          -0.0215145256370306,
          0.0023583383299410343,
          -0.011283681727945805,
          -0.017923418432474136,
          -0.006298811640590429,
          -0.07955261319875717,
          -0.03093281388282776,
          -0.017173197120428085,
          0.25254616141319275,
          0.003928357269614935,
          -0.0034108818508684635,
          0.006559859495609999,
          -0.009038345888257027,
          -0.017461184412240982,
          -0.010931819677352905,
          -0.004539547488093376,
          -0.03565505892038345,
          -0.05336606130003929,
          -0.006741082761436701,
          -0.004032372031360865,
          -0.010453004390001297,
          -0.012513590045273304,
          -0.06141399219632149,
          -0.049449339509010315,
          -0.0014624159084632993,
          -0.06759008765220642,
          -0.014441952109336853,
          0.002272259211167693,
          0.11516939103603363,
          0.0018093838589265943,
          -3.3198657035827637,
          0.0018306648125872016,
          -0.013232043944299221,
          -0.06211201846599579,
          -0.009693721309304237,
          -0.0017830156721174717,
          -0.13606306910514832,
          0.003819612553343177,
          -0.034140318632125854
        ],
        [
          -0.005253880750387907,
          -0.044829126447439194,
          0.006084374617785215,
          0.003532024100422859,
          -0.0044663832522928715,
          -0.01207814272493124,
          -0.030075328424572945,
          -2.584229332569521e-05,
          -0.6464993357658386,
          0.00118982361163944,
          -0.0025673210620880127,
          -0.0013141895178705454,
          -0.014852086082100868,
          -0.003339395858347416,
          -0.00467006117105484,
          -0.04782778024673462,
          0.0005820680526085198,
          -0.005074355285614729,
          -0.01196338888257742,
          -0.058670464903116226,
          -0.014608181081712246,
          -0.06308621913194656,
          -0.011762773618102074,
          -0.06252076476812363,
          0.0019483892247080803,
          0.0020235348492860794,
          -0.0015896233962848783,
          -0.009502368979156017,
          0.0014631246449425817,
          -0.003513780189678073,
          0.0020761562045663595,
          -0.036173015832901,
          -0.02026497572660446,
          -0.004305328708142042,
          -0.01570292003452778,
          -0.11737793684005737,
          0.001581069896928966,
          -0.054342951625585556,
          -0.006242295261472464,
          -0.018551720306277275,
          -0.0019884840585291386,
          -0.003115644445642829,
          -0.010839231312274933,
          -0.009300373494625092,
          0.005545012652873993,
          -0.03014395758509636,
          0.7758822441101074,
          -0.004408636130392551,
          -0.0008980975835584104,
          -0.0007211276097223163,
          -0.029468268156051636,
          0.003481644671410322,
          -0.0026671001687645912,
          0.0017131544882431626,
          0.0005855011404491961,
          -0.009546910412609577,
          -0.005048111546784639,
          0.046275053173303604,
          -0.005157546605914831,
          0.00014497553638648242,
          0.0017635223921388388,
          0.0002068752219201997,
          0.0016439876053482294,
          -0.013265901245176792,
          -0.04770727455615997,
          -0.020469099283218384,
          -0.018909206613898277,
          -0.007181175518780947,
          -0.00011870512389577925,
          -0.0020932068582624197,
          -5.8398174587637186e-05,
          -0.0042630513198673725,
          -0.007320130709558725,
          -0.002861883258447051,
          0.0019323023734614253,
          -1.2838099792134017e-05,
          -0.02950434386730194,
          -0.012215123511850834,
          -2.1099567959481647e-07,
          -0.025619689375162125,
          -0.02566007897257805,
          -0.05506722256541252,
          -0.03829995542764664,
          -0.024707188829779625,
          0.0014398180646821856,
          0.0020221394952386618,
          -0.015442381612956524,
          0.00035432196455076337,
          -0.02801508828997612,
          -0.00217939424328506,
          -0.011900002136826515,
          -0.007899931631982327,
          -0.053959257900714874,
          -0.006110618356615305,
          -0.00768936425447464,
          -0.03753292188048363,
          -0.001872063847258687,
          -0.03282716125249863,
          -0.0023548908066004515,
          -0.03747115656733513,
          1.0448472499847412,
          1.0522006750106812,
          -0.008039179258048534,
          -0.011848787777125835,
          -0.004703959450125694,
          -0.019273731857538223,
          -0.0012204698286950588,
          -0.004479958210140467,
          -0.041844047605991364,
          -0.015967732295393944,
          -0.053249768912792206,
          -0.03694427013397217,
          -0.0002453629276715219,
          -0.008460051380097866,
          0.0011670882813632488,
          -0.010337512008845806,
          -0.0350613035261631,
          -2.5969899070332758e-05,
          -0.003222932107746601,
          -0.08498719334602356,
          -0.04006950557231903,
          -0.0017783022485673428,
          0.0019117790507152677,
          -0.008030389435589314,
          -0.013567251153290272,
          -0.07216618210077286,
          -0.017632801085710526,
          -0.0017871578456833959,
          -0.008805586956441402,
          -0.03259827196598053,
          0.005534935276955366,
          -0.032424215227365494,
          0.00030385085847228765,
          0.9814839363098145,
          0.00031563625088892877,
          -0.04579529911279678,
          -0.04315599054098129,
          -0.00847545638680458,
          -0.0007767712231725454,
          0.029004715383052826,
          -0.00016729676281102002,
          -0.044381532818078995
        ],
        [
          -0.004686078056693077,
          -0.03845770284533501,
          0.007039586082100868,
          0.0016918842447921634,
          -0.006235485430806875,
          -0.010892719030380249,
          -0.03377018868923187,
          0.0017423324752599,
          -0.5832231640815735,
          0.0011085809674113989,
          -0.0025477015879005194,
          0.0006710328161716461,
          -0.01702854223549366,
          -0.0021055222023278475,
          -0.003464966546744108,
          -0.06088981032371521,
          -0.012021028436720371,
          -0.0037931448314338923,
          -0.011494978331029415,
          -0.04689333587884903,
          -0.01747123710811138,
          -0.05862105265259743,
          -0.019790418446063995,
          -0.05044048652052879,
          0.00036032983916811645,
          0.0017512183403596282,
          -0.0017980055417865515,
          -0.01078488677740097,
          0.0016959671629592776,
          -0.0065711261704564095,
          0.0020575327798724174,
          -0.04065486788749695,
          -0.01614406704902649,
          -0.004666327498853207,
          -0.02035115286707878,
          -0.10031156986951828,
          -0.0002645807689987123,
          -0.04720142483711243,
          -0.00502415094524622,
          -0.020185701549053192,
          -0.0016518678748980165,
          -0.0014155429089441895,
          -0.011024951003491879,
          -0.00728257792070508,
          0.004858594387769699,
          -0.023906942456960678,
          0.7462967038154602,
          -0.002987450221553445,
          -0.003056709887459874,
          0.00018738243670668453,
          -0.02434949204325676,
          0.002437373623251915,
          -0.003904456738382578,
          0.003486426780000329,
          0.001653148327022791,
          -0.008624590933322906,
          -0.0058457013219594955,
          0.04731970280408859,
          -0.006443805526942015,
          0.00020699987362604588,
          0.0017066169530153275,
          0.0008544604061171412,
          0.0013703590957447886,
          -0.01570594683289528,
          -0.04731201380491257,
          -0.0191586185246706,
          -0.019120564684271812,
          -0.006716778501868248,
          0.001236919779330492,
          -0.0024380898103117943,
          7.725628165644594e-06,
          -0.004975477233529091,
          -0.00759501289576292,
          -0.0031503294594585896,
          0.0014485031133517623,
          -9.136727749137208e-05,
          -0.02525772526860237,
          -0.010841435752809048,
          -0.002962085884064436,
          -0.008653773926198483,
          -0.026135047897696495,
          -0.09372424334287643,
          -0.047074493020772934,
          -0.025002015754580498,
          -0.00033121288288384676,
          -0.0005763961817137897,
          -0.01362193375825882,
          0.0009839131962507963,
          -0.053538933396339417,
          -0.0013929574051871896,
          -0.015926362946629524,
          -0.00607893755659461,
          -0.021587593480944633,
          -0.005058240611106157,
          -0.006108831148594618,
          -0.05027923360466957,
          -0.004382142797112465,
          -0.03608313947916031,
          -0.0009157481254078448,
          -0.03648493438959122,
          1.0328714847564697,
          1.0195069313049316,
          -0.013035427778959274,
          -0.014477986842393875,
          -0.004982789512723684,
          -0.017744043841958046,
          -0.003070838050916791,
          -0.006244930438697338,
          -0.02893952839076519,
          -0.016802821308374405,
          -0.0558197945356369,
          -0.044152919203042984,
          7.363674376392737e-05,
          -0.006112593691796064,
          0.0012415972305461764,
          -0.010919537395238876,
          -0.03762010112404823,
          -0.00016821805911604315,
          -0.002591693541035056,
          -0.03209822624921799,
          -0.030522983521223068,
          -0.003816651413217187,
          0.000689105479978025,
          -0.009772814810276031,
          -0.014979436993598938,
          -0.06638024747371674,
          -0.017669424414634705,
          -0.0004601595865096897,
          -0.03462836518883705,
          -0.030537964776158333,
          0.005100759211927652,
          -0.02153986133635044,
          -0.00011635995906544849,
          0.8773314356803894,
          0.0012028879718855023,
          -0.04542618244886398,
          -0.075995534658432,
          -0.007966618984937668,
          -0.0016539624193683267,
          0.052892379462718964,
          5.324676021700725e-05,
          -0.03386726602911949
        ],
        [
          -0.004467114340513945,
          -0.0371432900428772,
          0.006014369428157806,
          0.0036154855042696,
          -0.005394844803959131,
          -0.012116281315684319,
          -0.021832531318068504,
          0.00014819524949416518,
          -0.608227550983429,
          0.0010846719378605485,
          -0.0036062696017324924,
          0.0011379140196368098,
          -0.018222708255052567,
          -0.004824396688491106,
          -0.003830122062936425,
          -0.04508255049586296,
          -0.0940956249833107,
          -0.004101730417460203,
          -0.013490679673850536,
          -0.03968163952231407,
          -0.013580016791820526,
          -0.0724385678768158,
          -0.0063674189150333405,
          -0.04581057280302048,
          0.0011384005192667246,
          0.0018904968164861202,
          -0.0025187272112816572,
          -0.009045571088790894,
          0.0007954995962791145,
          -0.0014505403814837337,
          0.00220418069511652,
          -0.03644884005188942,
          -0.019981462508440018,
          -0.0024276520125567913,
          -0.015025819651782513,
          -0.10872083157300949,
          0.0009867232292890549,
          -0.05034599080681801,
          -0.0051492732018232346,
          -0.009423426352441311,
          -0.0008998244302347302,
          -0.0014431617455556989,
          -0.009796252474188805,
          -0.008274752646684647,
          0.004688927438110113,
          -0.0317658893764019,
          0.79702228307724,
          -0.003400710877031088,
          -0.0009099470917135477,
          4.151148095843382e-05,
          -0.020885806530714035,
          0.002248339354991913,
          -0.003172973869368434,
          0.0019828523509204388,
          0.0016103688394650817,
          -0.00991393718868494,
          -0.004716317169368267,
          0.05953488498926163,
          -0.005867402534931898,
          0.0011695572175085545,
          0.001760631101205945,
          0.00039553962415084243,
          0.0019567240960896015,
          -0.01721745729446411,
          -0.04798533767461777,
          -0.02011370286345482,
          -0.016691308468580246,
          -0.006870841607451439,
          -0.0015397275565192103,
          -0.0007504686363972723,
          -0.00019140559015795588,
          -0.0031518384348601103,
          -0.007369440980255604,
          -0.002429115818813443,
          0.0016108722193166614,
          0.00012875375978183,
          -0.025683831423521042,
          -0.011966829188168049,
          -0.0006770324544049799,
          -0.02379528619349003,
          -0.038613464683294296,
          -0.08384670317173004,
          -0.037876807153224945,
          -0.0276597011834383,
          0.00037801306461915374,
          0.0003375357191544026,
          -0.01505789440125227,
          0.00029091566102579236,
          -0.09573252499103546,
          -0.0023754986468702555,
          -0.010284802876412868,
          -0.006942377425730228,
          -0.06450731307268143,
          -0.006054489407688379,
          -0.007401364389806986,
          -0.03633781895041466,
          -0.002267266158014536,
          -0.030270956456661224,
          -0.0033482129219919443,
          -0.03507218137383461,
          1.0043530464172363,
          1.023318886756897,
          -0.008494041860103607,
          -0.012512315064668655,
          -0.005300669465214014,
          -0.01890319399535656,
          -0.0035333645064383745,
          -0.004633518401533365,
          -0.03550371155142784,
          -0.014301825314760208,
          -0.037494126707315445,
          -0.02512606605887413,
          -0.0002516032545827329,
          -0.007207229733467102,
          0.0024424793664366007,
          -0.00969869364053011,
          -0.03619138523936272,
          0.00013832427794113755,
          -0.002964160405099392,
          -0.07310914248228073,
          -0.015266296453773975,
          -0.0012712683528661728,
          0.0012274354230612516,
          -0.007691786624491215,
          -0.016315732151269913,
          -0.0599953792989254,
          -0.02367602102458477,
          -0.0012450284557417035,
          -0.007702426984906197,
          -0.0322796106338501,
          0.005043828394263983,
          -0.031338054686784744,
          0.0005946563323959708,
          0.8967867493629456,
          0.00020268239313736558,
          -0.039362695068120956,
          -0.058603864163160324,
          -0.007062929682433605,
          -0.0019067979883402586,
          0.04911733418703079,
          0.00018298113718628883,
          -0.02202618308365345
        ],
        [
          -0.004913021344691515,
          -0.04547605291008949,
          0.008445343002676964,
          0.0025363261811435223,
          -0.006858332082629204,
          -0.010741244070231915,
          -0.02430686540901661,
          0.002110513160005212,
          -0.6795653104782104,
          0.0012652567820623517,
          -0.003217712976038456,
          0.00040163641097024083,
          -0.07965455949306488,
          -0.0021734866313636303,
          -0.0037978789769113064,
          -0.009419016540050507,
          -0.03668228164315224,
          -0.0034480197355151176,
          -0.0116682518273592,
          -0.03906852751970291,
          -0.01617732271552086,
          -0.04596163332462311,
          -0.01505355630069971,
          -0.07662412524223328,
          0.0013133238535374403,
          0.0018197071040049195,
          -0.0027350166346877813,
          -0.01084683183580637,
          0.0013685609446838498,
          -0.004401227459311485,
          0.001996501348912716,
          -0.04018600657582283,
          -0.01701759360730648,
          -0.003985363990068436,
          -0.0196803268045187,
          -0.07691262662410736,
          -0.0004144315025769174,
          -0.050284527242183685,
          -0.00557135371491313,
          -0.019045446068048477,
          -0.0014867855934426188,
          -0.0018518943106755614,
          -0.010582300834357738,
          -0.007121883798390627,
          0.004714535549283028,
          -0.023286176845431328,
          0.825232982635498,
          -0.0027736308984458447,
          -0.002702455734834075,
          0.0003886572376359254,
          -0.023213054984807968,
          0.0019767095800489187,
          -0.0037213070318102837,
          0.0024031263310462236,
          0.0031643128022551537,
          -0.009124690666794777,
          -0.006986181251704693,
          0.09382487088441849,
          -0.006158796139061451,
          0.0013776557752862573,
          0.0018693649908527732,
          0.001409608405083418,
          0.0019290238851681352,
          -0.023175129666924477,
          -0.049173418432474136,
          -0.019414687529206276,
          -0.02193041332066059,
          -0.006231160834431648,
          0.0009247464477084577,
          -0.0020501306280493736,
          0.00020001785014756024,
          -0.0041645970195531845,
          -0.007022252306342125,
          -0.0030253648292273283,
          0.001508583896793425,
          6.882597517687827e-05,
          -0.023238368332386017,
          -0.011904202401638031,
          -0.0028599309735000134,
          -0.011419360525906086,
          -0.009597145020961761,
          -0.06115838140249252,
          -0.0394483283162117,
          -0.025141971185803413,
          -0.0009040585136972368,
          -0.0009232546435669065,
          -0.014150499366223812,
          0.000557537714485079,
          -0.05654150992631912,
          -0.0017080235993489623,
          -0.011908925138413906,
          -0.005561348982155323,
          -0.06200038269162178,
          -0.005498918704688549,
          -0.006859673652797937,
          -0.038568977266550064,
          -0.003458726219832897,
          -0.037145622074604034,
          -0.0013914856826886535,
          -0.03205040842294693,
          1.106870174407959,
          1.1090929508209229,
          -0.011132748797535896,
          -0.014720557257533073,
          -0.004789434839040041,
          -0.01648077555000782,
          -0.004193420521914959,
          -0.00641412939876318,
          -0.030230291187763214,
          -0.01846788264811039,
          -0.040149152278900146,
          -0.033569104969501495,
          0.0006366011803038418,
          -0.006669372320175171,
          0.0022577685303986073,
          -0.009656329639256,
          -0.036742985248565674,
          0.0007697935216128826,
          -0.0026959397364407778,
          -0.07493478804826736,
          -0.019649425521492958,
          -0.004133766982704401,
          0.0010088805574923754,
          -0.009617517702281475,
          -0.01735403947532177,
          0.02495666593313217,
          -0.027431312948465347,
          -0.00031470548128709197,
          -0.011767636984586716,
          -0.02902492694556713,
          0.0058107743971049786,
          -0.03799383342266083,
          0.0007724857423454523,
          0.9984741806983948,
          0.0006664817337878048,
          -0.04066627472639084,
          -0.07438509166240692,
          -0.007386000826954842,
          -0.002554949140176177,
          0.1417713463306427,
          0.0004264521412551403,
          -0.010446317493915558
        ],
        [
          -0.006657968740910292,
          -0.04135047271847725,
          0.007041521370410919,
          0.0046875071711838245,
          -0.00048091181088238955,
          -0.012231515720486641,
          -0.034403324127197266,
          0.003913631197065115,
          -0.7578701972961426,
          0.00018032678053714335,
          0.0002209698286605999,
          -0.0018566589569672942,
          -0.05525326356291771,
          -0.0014331411803141236,
          -0.0061646923422813416,
          -0.01976010948419571,
          -0.02179459109902382,
          -0.005394307430833578,
          -0.009439973160624504,
          -0.06365352123975754,
          -0.01308220811188221,
          -0.0706143006682396,
          -0.006199296563863754,
          -0.041010089218616486,
          0.0025915366131812334,
          0.0020173590164631605,
          0.00024900524294935167,
          -0.00888174306601286,
          0.0023644783068448305,
          -0.003952349536120892,
          0.0016544221434742212,
          -0.0391983725130558,
          -0.01983475126326084,
          -0.0044331979006528854,
          -0.015034522861242294,
          -0.01847202144563198,
          0.002483647083863616,
          -0.049299489706754684,
          -0.006057612597942352,
          -0.020316733047366142,
          -0.002724472898989916,
          -0.003837889526039362,
          -0.012615847401320934,
          -0.00966075249016285,
          0.007108604069799185,
          -0.024064036086201668,
          0.8414316773414612,
          -0.004565690644085407,
          -0.0006623527151532471,
          -0.0007874224102124572,
          -0.022910377010703087,
          0.005933013278990984,
          -0.0002503636642359197,
          0.004129268229007721,
          0.0010772220557555556,
          -0.009535911493003368,
          -0.0020164786837995052,
          -0.014046384021639824,
          -0.0027082604356110096,
          -0.001227675937116146,
          0.0006899261497892439,
          0.0018300671363249421,
          0.0023832041770219803,
          0.0004938733181916177,
          -0.04815864935517311,
          -0.02122865989804268,
          -0.01682490110397339,
          -0.008508517406880856,
          0.004016387742012739,
          -0.004243531264364719,
          0.0001633464271435514,
          -0.005597083363682032,
          -0.007217340636998415,
          -0.004082287661731243,
          0.0023930459283292294,
          -0.0003658728383015841,
          -0.032220903784036636,
          -0.0138010885566473,
          0.0014983710134401917,
          -0.02937494032084942,
          -0.0357469767332077,
          -0.07799525558948517,
          -0.055282432585954666,
          -0.029426859691739082,
          0.0021847004536539316,
          0.0057847448624670506,
          -0.015770185738801956,
          0.00027976915589533746,
          0.03885652497410774,
          -0.0034881720785051584,
          -0.013748906552791595,
          -0.00970709789544344,
          -0.06340941786766052,
          -0.0070025743916630745,
          -0.008455522358417511,
          -0.04163099825382233,
          -0.0009599813492968678,
          -0.028114119544625282,
          -0.00012181485362816602,
          -0.02731802687048912,
          1.185953974723816,
          1.1906815767288208,
          -0.01011001318693161,
          -0.010161112993955612,
          -0.0029191416688263416,
          -0.020632725208997726,
          0.00020817843324039131,
          -0.0022164364345371723,
          -0.020119691267609596,
          -0.014861615374684334,
          -0.05220114067196846,
          -0.052800025790929794,
          0.0009861714206635952,
          -0.009226393885910511,
          -3.961573384003714e-05,
          -0.010129502043128014,
          -0.03396176919341087,
          -0.0007995004416443408,
          -0.00401644129306078,
          -0.04882455989718437,
          -0.029439980164170265,
          -0.0008429273730143905,
          0.0031579784117639065,
          -0.006685983389616013,
          -0.011537432670593262,
          -0.07105686515569687,
          -0.027096277102828026,
          -0.0030499338172376156,
          -0.0026142916176468134,
          -0.028963038697838783,
          0.007225692737847567,
          -0.007940137758851051,
          0.0009450837387703359,
          1.0166573524475098,
          0.00012253531895112246,
          -0.041598979383707047,
          -0.0739833414554596,
          -0.010904592461884022,
          0.00158794189337641,
          -0.0751967653632164,
          0.000504636496771127,
          -0.028822265565395355
        ],
        [
          -0.005251327063888311,
          -0.036242417991161346,
          0.005757821723818779,
          0.0024260880891233683,
          -0.004384587984532118,
          -0.011688362807035446,
          -0.024748941883444786,
          0.002746212761849165,
          -0.7590337991714478,
          0.0015047136694192886,
          -0.0023742562625557184,
          -0.0013761322479695082,
          -0.023153040558099747,
          -0.002768761245533824,
          -0.004000972956418991,
          -0.0027570209931582212,
          -0.09368285536766052,
          -0.00398772768676281,
          -0.00967809371650219,
          -0.03195563703775406,
          -0.014762555249035358,
          -0.05116845667362213,
          -0.0069540124386549,
          -0.0232599638402462,
          0.000636386510450393,
          0.0013662772253155708,
          -0.001674174447543919,
          -0.009934879839420319,
          0.002309619216248393,
          -0.004774082452058792,
          0.0019301007268950343,
          -0.033526305109262466,
          -0.015495866537094116,
          -0.0036576492711901665,
          -0.017772063612937927,
          -0.02258458361029625,
          0.00013237573148217052,
          -0.04517938196659088,
          -0.005147307179868221,
          -0.011006088927388191,
          -0.000510525656864047,
          -0.0024548631627112627,
          -0.011189976707100868,
          -0.0078513752669096,
          0.004356968216598034,
          -0.024064049124717712,
          0.8875037431716919,
          -0.0028200175147503614,
          -0.003151649609208107,
          0.0006910469965077937,
          -0.028243819251656532,
          0.0030016035307198763,
          -0.002292150631546974,
          0.0022801870945841074,
          0.0031315397936850786,
          -0.009092983789741993,
          -0.006438795011490583,
          0.004818023182451725,
          -0.0048212651163339615,
          -0.000679873744957149,
          0.0014382732333615422,
          0.00072367989923805,
          0.0013782609021291137,
          -0.010627740062773228,
          -0.047325167804956436,
          -0.020511861890554428,
          -0.02448953501880169,
          -0.00695272209122777,
          0.0018379405373707414,
          -0.0032695576082915068,
          -5.7921108236769214e-05,
          -0.006183919962495565,
          -0.0054548135958611965,
          -0.0032368218526244164,
          0.0012249404098838568,
          1.7100114746426698e-06,
          -0.025484802201390266,
          -0.013541498221457005,
          -0.002684962470084429,
          -0.01694016344845295,
          -0.013430840335786343,
          -0.06504642963409424,
          0.004794261418282986,
          -0.02400336042046547,
          -2.1222399482212495e-06,
          0.00037547637475654483,
          -0.015525908209383488,
          0.0009384381119161844,
          0.01682540588080883,
          -0.0024186100345104933,
          -0.01416902057826519,
          -0.007666190154850483,
          -0.00879115890711546,
          -0.004753729794174433,
          -0.0077721960842609406,
          -0.04152693971991539,
          -0.002850193064659834,
          -0.03556954860687256,
          -0.0011503307614475489,
          -0.021122349426150322,
          1.189261794090271,
          1.1603232622146606,
          -0.009799722582101822,
          -0.013295842334628105,
          -0.004153552930802107,
          -0.016953693702816963,
          -0.002228548750281334,
          -0.004734310321509838,
          -0.03439072147011757,
          -0.0193263478577137,
          -0.02592306211590767,
          -0.02837490104138851,
          0.00026203948073089123,
          -0.007197180762887001,
          0.002348162466660142,
          -0.010107619687914848,
          -0.03720786049962044,
          -0.001316199661232531,
          -0.0034876985009759665,
          -0.03222072124481201,
          -0.045613013207912445,
          -0.0030677448958158493,
          0.001071662874892354,
          -0.008108504116535187,
          -0.01172893587499857,
          -0.01670125313103199,
          -0.0237114280462265,
          -0.0010823860066011548,
          -0.06500442326068878,
          -0.02631252259016037,
          0.004682277794927359,
          -0.03153085336089134,
          0.0005834535695612431,
          1.0344575643539429,
          0.000884577922988683,
          -0.04000494256615639,
          -0.0760427936911583,
          -0.008666330948472023,
          -0.0016486570239067078,
          0.029815029352903366,
          0.00037642568349838257,
          -0.032958172261714935
        ],
        [
          -0.005170933902263641,
          -0.04266153275966644,
          0.007221986074000597,
          0.0028139546047896147,
          -0.006012964062392712,
          -0.01007892657071352,
          -0.032041847705841064,
          0.0027888333424925804,
          -0.6566580533981323,
          0.0010913400910794735,
          -0.002084266860038042,
          0.0010911703575402498,
          -0.03088672272861004,
          -0.0009973411215469241,
          -0.004840397275984287,
          -0.04340175539255142,
          -0.06563806533813477,
          -0.003975801169872284,
          -0.01198178343474865,
          -0.0362921804189682,
          -0.01539728231728077,
          -0.03268636018037796,
          -0.02089495211839676,
          -0.06962494552135468,
          0.0012147369561716914,
          0.0017487028380855918,
          -0.000588035851251334,
          -0.009367359802126884,
          0.001206051092594862,
          -0.005355298984795809,
          0.0017434697365388274,
          -0.039245232939720154,
          -0.016197003424167633,
          -0.004760276526212692,
          -0.02052980102598667,
          -0.1084892600774765,
          0.0001736460399115458,
          -0.057465922087430954,
          -0.005090754479169846,
          -0.017881635576486588,
          -0.0018051612423732877,
          -0.0007806989015080035,
          -0.009796309284865856,
          -0.00669517507776618,
          0.005756258033216,
          -0.02181302011013031,
          0.8123513460159302,
          -0.0025660048704594374,
          -0.0019003779161721468,
          0.0008689461392350495,
          -0.031118711456656456,
          0.002995390212163329,
          -0.0025213395711034536,
          0.004478635266423225,
          0.0021415739320218563,
          -0.008745469152927399,
          -0.004478669259697199,
          0.0322449617087841,
          -0.005302800796926022,
          3.427914998610504e-05,
          0.0014764784136787057,
          0.0020821518264710903,
          0.0018878374248743057,
          -0.010916980914771557,
          -0.044928260147571564,
          -0.01953786052763462,
          -0.01710464246571064,
          -0.007603434380143881,
          0.002716668415814638,
          -0.002387491287663579,
          0.00025463587371632457,
          -0.005172784440219402,
          -0.007416844833642244,
          -0.003905480494722724,
          0.0017420619260519743,
          -0.0001999265659833327,
          -0.02397828735411167,
          -0.011819714680314064,
          -0.0019070737762376666,
          -0.009704097174108028,
          -0.026985617354512215,
          -0.09820814430713654,
          -0.037234093993902206,
          -0.02681158296763897,
          -0.00014202874444890767,
          0.00020217160636093467,
          -0.014065475203096867,
          0.0004632954951375723,
          -0.006913354154676199,
          -0.002060262020677328,
          -0.01492814440280199,
          -0.006568868178874254,
          -0.054896071553230286,
          -0.005413644015789032,
          -0.006279287859797478,
          -0.038029078394174576,
          -0.0029629941564053297,
          -0.02774028293788433,
          -0.0004753044340759516,
          -0.02935316599905491,
          1.0722211599349976,
          1.090344786643982,
          -0.013208851218223572,
          -0.01314850989729166,
          -0.00416490389034152,
          -0.01814417354762554,
          -0.003488825634121895,
          -0.005167186260223389,
          -0.04046354070305824,
          -0.019555892795324326,
          -0.022072885185480118,
          -0.025847705081105232,
          0.0010555016342550516,
          -0.006201109383255243,
          0.0009161087218672037,
          -0.010691206902265549,
          -0.03630504757165909,
          -0.0005550631321966648,
          -0.0031396972481161356,
          -0.03356040641665459,
          -0.022335110232234,
          -0.0026680538430809975,
          0.0014997118851169944,
          -0.008681907318532467,
          -0.012243018485605717,
          -0.04911788925528526,
          -0.02475822903215885,
          -0.000956206233240664,
          0.0026515964418649673,
          -0.027148159220814705,
          0.0064692422747612,
          -0.0111018605530262,
          0.0011167548364028335,
          0.9685818552970886,
          0.0007488291594199836,
          -0.03693437948822975,
          -0.03185591101646423,
          -0.008359381929039955,
          -0.0006701096426695585,
          -0.0030781610403209925,
          0.0006437764968723059,
          -0.023618685081601143
        ],
        [
          -0.006068723741918802,
          -0.0403759740293026,
          0.00878108013421297,
          0.0033526464831084013,
          -0.0036413618363440037,
          -0.01094389334321022,
          -0.030252298340201378,
          0.005943355616182089,
          -0.5763190388679504,
          0.0003393934457562864,
          -0.000906758476048708,
          0.0002010023163165897,
          -0.05525125190615654,
          -0.0009466421906836331,
          -0.005098878405988216,
          -0.036507606506347656,
          -0.01781928911805153,
          -0.004266813863068819,
          -0.00973722618073225,
          -0.03237302973866463,
          -0.01684506982564926,
          -0.05863717943429947,
          -0.019663387909531593,
          -0.02600129507482052,
          0.0019493548898026347,
          0.0017841651570051908,
          0.00015154873835854232,
          -0.009147469885647297,
          0.0012962798355147243,
          -0.005791820120066404,
          0.0010107847629114985,
          -0.03265856206417084,
          -0.014854694716632366,
          -0.005639220122247934,
          -0.020298294723033905,
          -0.03336367756128311,
          0.0006030877120792866,
          -0.05477539449930191,
          -0.0057820407673716545,
          -0.01443268172442913,
          -0.002450785133987665,
          -0.0020716446451842785,
          -0.010862932540476322,
          -0.004638496320694685,
          0.00645154993981123,
          -0.026935573667287827,
          0.7559062242507935,
          -0.003498623613268137,
          -0.0016490960260853171,
          0.001093108206987381,
          -0.030699022114276886,
          0.003580041928216815,
          -0.0018883279990404844,
          0.005604651290923357,
          0.002905928995460272,
          -0.009603424929082394,
          -0.005800215527415276,
          0.03690950199961662,
          -0.0039880769327282906,
          -0.0014887707075104117,
          0.001066872850060463,
          0.003324914490804076,
          0.00239353789947927,
          -0.011325829662382603,
          -0.045575134456157684,
          -0.0199436005204916,
          -0.02063753642141819,
          -0.008436608128249645,
          0.005243185441941023,
          -0.004038630519062281,
          0.0006708881119266152,
          -0.0063487510196864605,
          -0.008069153875112534,
          -0.005352303385734558,
          0.0024409624747931957,
          -0.00035584892611950636,
          -0.024831824004650116,
          -0.012248791754245758,
          -0.0013454279396682978,
          -0.010145649313926697,
          -0.03680282458662987,
          -0.06878267973661423,
          -0.05956427752971649,
          -0.025128602981567383,
          -0.0004004694928880781,
          0.002404246712103486,
          -0.014729147776961327,
          -0.0003611983556766063,
          -0.08634652942419052,
          -0.0028161462396383286,
          -0.015134328976273537,
          -0.00718504237011075,
          -0.053095631301403046,
          -0.006356475409120321,
          -0.007124121300876141,
          -0.04072458669543266,
          -0.0022315874230116606,
          -0.03688618540763855,
          0.0008826848934404552,
          -0.029657548293471336,
          0.9592140316963196,
          0.9955897331237793,
          -0.013812858611345291,
          -0.013700505718588829,
          -0.00289827398955822,
          -0.018005365505814552,
          -0.002871339675039053,
          -0.004664107691496611,
          -0.038395050913095474,
          -0.02002796158194542,
          -0.023410987108945847,
          -0.03370031341910362,
          0.0019552898593246937,
          -0.0070484899915754795,
          0.0014034672640264034,
          -0.008554184809327126,
          -0.03597728908061981,
          -0.0004320252046454698,
          -0.0032974842470139265,
          -0.07575403898954391,
          -0.046255383640527725,
          -0.0034442825708538294,
          0.002164804143831134,
          -0.008309432305395603,
          -0.014472903683781624,
          -0.020434290170669556,
          -0.020419547334313393,
          -0.0018428737530484796,
          -0.011231333948671818,
          -0.02666684240102768,
          0.007741076406091452,
          -0.020889056846499443,
          0.0020577143877744675,
          0.9065433144569397,
          0.0006052608950994909,
          -0.03898860886693001,
          -0.061965737491846085,
          -0.009606276638805866,
          0.0004662131250370294,
          0.029202226549386978,
          0.0010355237172916532,
          -0.043296489864587784
        ],
        [
          -0.004476137459278107,
          -0.030671317130327225,
          0.00698370486497879,
          0.0021833213977515697,
          -0.010389805771410465,
          -0.010911406949162483,
          -0.019443802535533905,
          0.003057501744478941,
          -0.4465537667274475,
          0.0006016671541146934,
          -0.0031916641164571047,
          0.0016807032516226172,
          -0.01784258522093296,
          -0.003988980781286955,
          -0.0034871504176408052,
          -0.03553583472967148,
          -0.014127307571470737,
          -0.003501992207020521,
          -0.014599276706576347,
          0.00013370845408644527,
          -0.019499722868204117,
          -0.06943918764591217,
          -0.030164295807480812,
          -0.045601438730955124,
          0.001119245309382677,
          0.0012762881815433502,
          -0.00244694110006094,
          -0.010450395755469799,
          -0.00021451644715853035,
          -0.004479910247027874,
          0.0013068122789263725,
          -0.038585301488637924,
          -0.011506199836730957,
          -0.0033541221637278795,
          -0.024427667260169983,
          -0.0733962208032608,
          -0.0013386541977524757,
          -0.043176621198654175,
          -0.005891665816307068,
          -0.02953622117638588,
          -0.00034389959182590246,
          0.0002184596669394523,
          -0.008298279717564583,
          -0.002697570715099573,
          0.003504321211948991,
          -0.03195080906152725,
          0.5827402472496033,
          -0.0022288288455456495,
          -0.0028739185072481632,
          0.0006370836053974926,
          -0.03305516764521599,
          0.00018273276509717107,
          -0.004076514858752489,
          0.0020165243186056614,
          0.004358341451734304,
          -0.008896063081920147,
          -0.009920340031385422,
          0.13871395587921143,
          -0.00726614985615015,
          0.0014285689685493708,
          0.0014694698620587587,
          0.002137653762474656,
          0.0018603055505082011,
          -0.033187419176101685,
          -0.0436941459774971,
          -0.018839972093701363,
          -0.021150628104805946,
          -0.006956231314688921,
          4.22772100137081e-05,
          -0.0025159127544611692,
          0.0006438969867303967,
          -0.004438058938831091,
          -0.00793216098099947,
          -0.0035067815333604813,
          0.0016602473333477974,
          -0.00010153195034945384,
          -0.01326461136341095,
          -0.010081191547214985,
          -0.004628792405128479,
          0.005195616278797388,
          -0.035031601786613464,
          -0.04822686314582825,
          -0.031671471893787384,
          -0.019733967259526253,
          -0.002896346151828766,
          -0.0026492688339203596,
          -0.012845209799706936,
          -0.00015286309644579887,
          0.010535847395658493,
          -0.0018479411955922842,
          -0.01222829520702362,
          -0.003579429816454649,
          -0.0185070987790823,
          -0.005658825393766165,
          -0.005530086345970631,
          -0.04329454526305199,
          -0.0037287636660039425,
          -0.03491577133536339,
          -0.0002470659965183586,
          -0.03961211442947388,
          0.8252639174461365,
          0.8688337206840515,
          -0.014016523957252502,
          -0.015858961269259453,
          -0.005868431646376848,
          -0.014454716816544533,
          -0.0075968531891703606,
          -0.007792475633323193,
          -0.04331672191619873,
          -0.021241240203380585,
          -0.04215210676193237,
          0.006285469513386488,
          0.001785686006769538,
          -0.005828501656651497,
          0.003758052596822381,
          -0.010597368702292442,
          -0.03370611369609833,
          0.0006416116957552731,
          -0.002433993387967348,
          -0.042300745844841,
          -0.04686615616083145,
          -0.005689231213182211,
          -3.6099211229156936e-06,
          -0.010707524605095387,
          -0.020685315132141113,
          -0.04412364214658737,
          -0.02247639000415802,
          -0.0004424804646987468,
          -0.015027814544737339,
          -0.027240848168730736,
          0.005112060345709324,
          -0.046122003346681595,
          0.0018792339833453298,
          0.7378332018852234,
          0.0006011002697050571,
          -0.04603499174118042,
          -0.06517402082681656,
          -0.00697347754612565,
          -0.0029299145098775625,
          0.20038500428199768,
          0.0009096986032091081,
          -0.026791544631123543
        ],
        [
          -0.005426434800028801,
          -0.037503864616155624,
          0.005485531408339739,
          0.002509420271962881,
          -0.006426283624023199,
          -0.01080005057156086,
          -0.02105756662786007,
          0.002522354247048497,
          -0.47951820492744446,
          0.0009056507842615247,
          -0.0019606284331530333,
          -0.0012092712568119168,
          -0.026236271485686302,
          -0.00381539692170918,
          -0.003956056199967861,
          -0.0072907558642327785,
          0.01205118466168642,
          -0.003925120923668146,
          -0.012759856879711151,
          -0.02012430876493454,
          -0.01574021764099598,
          -0.04760246351361275,
          -0.016867348924279213,
          -0.016283532604575157,
          0.0009168532560579479,
          0.0010208423482254148,
          -0.0021259081549942493,
          -0.008983628824353218,
          0.0014539804542437196,
          -0.00337613676674664,
          0.002012556651607156,
          -0.04022984951734543,
          -0.016053855419158936,
          -0.003854891052469611,
          -0.020060814917087555,
          -0.06459783762693405,
          -0.00028041863697580993,
          -0.05039937421679497,
          -0.0047739106230437756,
          -0.017896583303809166,
          -0.0005260476027615368,
          -0.0015941738383844495,
          -0.010636337101459503,
          -0.007230502087622881,
          0.0038289374206215143,
          -0.030299188569188118,
          0.6218762397766113,
          -0.002953760791569948,
          -0.002292426535859704,
          0.00039046729216352105,
          -0.027441054582595825,
          0.0025625587441027164,
          -0.0024913810193538666,
          0.0015318251680582762,
          0.0032892802264541388,
          -0.008846296928822994,
          -0.006713660433888435,
          0.05966411903500557,
          -0.004794727545231581,
          0.0003318272647447884,
          0.0013661162229254842,
          0.000571990676689893,
          0.0014787866966798902,
          -0.01173852663487196,
          -0.046005282551050186,
          -0.019962774589657784,
          -0.019805703312158585,
          -0.007471479009836912,
          0.0009116235305555165,
          -0.0028961969073861837,
          -2.168735591112636e-05,
          -0.004861006047576666,
          -0.005542915314435959,
          -0.003342621959745884,
          0.001038610702380538,
          -4.471337524591945e-05,
          -0.017301034182310104,
          -0.012407965026795864,
          -0.0018979941960424185,
          -0.005899214651435614,
          -0.027514224871993065,
          -0.04693274199962616,
          -0.03605547547340393,
          -0.020998142659664154,
          -0.0008372531156055629,
          0.0010068383999168873,
          -0.014405832625925541,
          0.0013726938050240278,
          -0.10958602279424667,
          -0.0024352106265723705,
          -0.013033460825681686,
          -0.006705516949295998,
          -0.07180414348840714,
          -0.005031304899603128,
          -0.0073343259282410145,
          -0.04025223106145859,
          -0.002414874965324998,
          -0.030562693253159523,
          -0.00045125390170142055,
          -0.03679874911904335,
          0.8067442178726196,
          0.7880322933197021,
          -0.010800114832818508,
          -0.012442952021956444,
          -0.004511367529630661,
          -0.01642286404967308,
          -0.004640120547264814,
          -0.005021300632506609,
          -0.05564481392502785,
          -0.017275003716349602,
          -0.04205895960330963,
          0.0004151156754232943,
          0.0004834171268157661,
          -0.007573720999062061,
          0.0021697916090488434,
          -0.008955649100244045,
          -0.035557739436626434,
          -0.0008485192665830255,
          -0.0030859108082950115,
          -0.05184280499815941,
          -0.023482292890548706,
          -0.0027317707426846027,
          0.0006473521934822202,
          -0.00817161239683628,
          -0.016496798023581505,
          0.014946559444069862,
          -0.02814377285540104,
          -0.001340032322332263,
          -0.03758293762803078,
          -0.02740991860628128,
          0.00392255699262023,
          -0.028856055811047554,
          0.0006816855166107416,
          0.7641966938972473,
          0.0006065305205993354,
          -0.04482044279575348,
          -0.07467567175626755,
          -0.00889524258673191,
          -0.0016719925915822387,
          0.06687920540571213,
          0.000532557547558099,
          -0.016374975442886353
        ],
        [
          -0.005620698910206556,
          -0.047917019575834274,
          0.006995415315032005,
          0.0028288671746850014,
          -0.0038264743052423,
          -0.010197966359555721,
          -0.027901092544198036,
          0.0024090129882097244,
          -0.2612956166267395,
          0.0014492010232061148,
          -0.0015333882765844464,
          -0.0013044221559539437,
          -0.08931221812963486,
          -0.0011299385223537683,
          -0.0036729793064296246,
          -0.010790596716105938,
          -0.05135137960314751,
          -0.0037004791665822268,
          -0.00912714283913374,
          -0.029799606651067734,
          -0.0166911780834198,
          -0.05720766633749008,
          -0.01511911116540432,
          -0.07084095478057861,
          -0.00013385362399276346,
          0.0009275867487303913,
          -0.0020270540844649076,
          -0.01078138966113329,
          0.0032254578545689583,
          -0.0062480890192091465,
          0.0021565603092312813,
          -0.03746841475367546,
          -0.015332243405282497,
          -0.0037749281618744135,
          -0.019620615988969803,
          -0.00925360806286335,
          0.0006966690416447818,
          -0.05401130020618439,
          -0.003657890483736992,
          -0.02345435507595539,
          -0.0005897563532926142,
          -0.0011149074416607618,
          -0.012021403759717941,
          -0.010187947191298008,
          0.004929166752845049,
          -0.020987626165151596,
          0.4888073801994324,
          -0.002319512888789177,
          -0.0027614368591457605,
          0.0008994132513180375,
          -0.02549949660897255,
          0.004007911309599876,
          -0.002519656205549836,
          0.0040569244883954525,
          0.002603906439617276,
          -0.00811261311173439,
          -0.0060175685212016106,
          -0.011378797702491283,
          -0.004612746648490429,
          -0.0006832958315499127,
          0.0011421216186136007,
          0.0004865069058723748,
          0.0009907570201903582,
          -9.241072257282212e-05,
          -0.048142436891794205,
          -0.019987208768725395,
          -0.019132519140839577,
          -0.007494024001061916,
          0.001965391682460904,
          -0.0036146878264844418,
          -0.0004348104994278401,
          -0.00531385000795126,
          -0.0041249822825193405,
          -0.0035004541277885437,
          0.001318886992521584,
          -2.940984268207103e-05,
          -0.030428754165768623,
          -0.012083814479410648,
          -0.0016021827468648553,
          -2.311790558451321e-05,
          -0.03763800859451294,
          -0.08190123736858368,
          -0.07252907007932663,
          -0.023180169984698296,
          -0.0005082292482256889,
          0.0017554669175297022,
          -0.014530749060213566,
          0.0022860870230942965,
          -0.0644247904419899,
          -0.002350808819755912,
          -0.016550784930586815,
          -0.00769109558314085,
          -0.03692545369267464,
          -0.004120969213545322,
          -0.006937903817743063,
          -0.04799995571374893,
          -0.003349642502143979,
          -0.034011077135801315,
          -0.0001665519375819713,
          -0.029803847894072533,
          0.7019661664962769,
          0.6835208535194397,
          -0.013928046450018883,
          -0.013250605203211308,
          -0.003344649448990822,
          -0.017696790397167206,
          -0.0023039288353174925,
          -0.004659291356801987,
          -0.03715290129184723,
          -0.014913015067577362,
          -0.04250788316130638,
          -0.013532500714063644,
          2.4916134861996397e-05,
          -0.006474640220403671,
          0.00021622925123665482,
          -0.009247402660548687,
          -0.03044593520462513,
          -0.0013757445849478245,
          -0.0027765941340476274,
          -0.025226004421710968,
          -0.02441142499446869,
          -0.003095621708780527,
          0.0011069533647969365,
          -0.00806045439094305,
          -0.013251065276563168,
          -0.08180417865514755,
          -0.02817012183368206,
          -0.0009194064768962562,
          -0.05137762799859047,
          -0.02925719879567623,
          0.0038874938618391752,
          0.006790356244891882,
          -0.00017846425180323422,
          0.6340340971946716,
          0.0016211200272664428,
          -0.0396764799952507,
          -0.052946411073207855,
          -0.009384505450725555,
          -0.0007146589923650026,
          -0.0719599723815918,
          0.000250725046498701,
          -0.01131504401564598
        ],
        [
          -0.0050411829724907875,
          -0.03294682502746582,
          0.006328016985207796,
          0.002168758772313595,
          -0.00759121123701334,
          -0.00994150061160326,
          -0.02423940971493721,
          0.002649039961397648,
          -0.35645076632499695,
          0.0008894852362573147,
          -0.00250541721470654,
          0.00047375677968375385,
          -0.07941803336143494,
          -0.0020137145183980465,
          -0.003429440315812826,
          -0.019127672538161278,
          -0.06591996550559998,
          -0.0031456470023840666,
          -0.012437142431735992,
          -0.010915948078036308,
          -0.017287518829107285,
          -0.05705551430583,
          -0.02206066995859146,
          -0.07809031754732132,
          0.0005199702573008835,
          0.00123053346760571,
          -0.0027342275716364384,
          -0.010996943339705467,
          0.001439422252587974,
          -0.005565281957387924,
          0.0018806760199368,
          -0.039342544972896576,
          -0.014257596805691719,
          -0.0032270504161715508,
          -0.023037321865558624,
          -0.056961748749017715,
          -0.000501900736708194,
          -0.05877288803458214,
          -0.004712276626378298,
          -0.016251318156719208,
          -0.00042431714246049523,
          -0.0005031997570767999,
          -0.009574152529239655,
          -0.00731655303388834,
          0.004129461012780666,
          -0.023518485948443413,
          0.5062875151634216,
          -0.002398707903921604,
          -0.0032992486376315355,
          0.0007548117428086698,
          -0.031135940924286842,
          0.0018494867254048586,
          -0.003591470420360565,
          0.003182828426361084,
          0.0033590870443731546,
          -0.007623868063092232,
          -0.00781110767275095,
          0.07331634312868118,
          -0.00588420033454895,
          0.0010856681037694216,
          0.0012509289663285017,
          0.0014857439091429114,
          0.001527851214632392,
          -0.015210998244583607,
          -0.04431883990764618,
          -0.018832461908459663,
          -0.018872853368520737,
          -0.006359731778502464,
          0.0014227567007765174,
          -0.002482975833117962,
          0.00012624914234038442,
          -0.004236376378685236,
          -0.005553511902689934,
          -0.00324592599645257,
          0.001057700952515006,
          -0.0001487819681642577,
          -0.020663980394601822,
          -0.01020815409719944,
          -0.0036957126576453447,
          -0.005538114346563816,
          -0.041189614683389664,
          -0.09135529398918152,
          0.01618843339383602,
          -0.023821532726287842,
          -0.002491904655471444,
          -0.0005849481094628572,
          -0.012698468752205372,
          0.0012823896249756217,
          -0.0082298144698143,
          -0.0015818984247744083,
          -0.012956468388438225,
          -0.005207746289670467,
          -0.014519892632961273,
          -0.004704304505139589,
          -0.00572919100522995,
          -0.036803193390369415,
          -0.004214669577777386,
          -0.028930848464369774,
          -0.00037895399145781994,
          -0.028847966343164444,
          0.696180522441864,
          0.6511222720146179,
          -0.0135210445150733,
          -0.014268958941102028,
          -0.005197091959416866,
          -0.016425400972366333,
          -0.005776499398052692,
          -0.006790348328649998,
          -0.023306703194975853,
          -0.01855078712105751,
          -0.05521092191338539,
          -0.005932371597737074,
          0.0008895464125089347,
          -0.0060701328329741955,
          0.001514319097623229,
          -0.0088577289134264,
          -0.0334261879324913,
          0.0002669592504389584,
          -0.0022317650727927685,
          -0.04071880877017975,
          -0.044793978333473206,
          -0.004609402269124985,
          -2.5320970962638967e-05,
          -0.010711749084293842,
          -0.017357060685753822,
          -0.046108949929475784,
          -0.03047262318432331,
          -0.0007883243379183114,
          -0.05764860287308693,
          -0.02940881811082363,
          0.004987804684787989,
          -0.023657644167542458,
          0.0005956221139058471,
          0.6277679800987244,
          0.0009460659930482507,
          -0.03998303413391113,
          -0.07853685319423676,
          -0.007713801227509975,
          -0.0017839149804785848,
          0.07424428313970566,
          0.0005359693896025419,
          -0.02553652785718441
        ],
        [
          -0.005871077999472618,
          -0.046688999980688095,
          0.00891400407999754,
          0.0022585976403206587,
          -0.0054357824847102165,
          -0.00936408992856741,
          -0.02384333126246929,
          0.005144310183823109,
          -0.1633002609014511,
          0.0007422416238114238,
          -0.0018855424132198095,
          0.0008926212321966887,
          -0.028368614614009857,
          -0.0008281432674266398,
          -0.00484731188043952,
          -0.042437899857759476,
          -0.05477629601955414,
          -0.003713379381224513,
          -0.010738383047282696,
          -0.015902027487754822,
          -0.016327541321516037,
          -0.02912455052137375,
          -0.02644255757331848,
          -0.0181129090487957,
          0.0015257741324603558,
          0.001737645361572504,
          -0.0003060663875658065,
          -0.009957235306501389,
          0.0014669664669781923,
          -0.00566908810287714,
          0.0013129712315276265,
          -0.042642638087272644,
          -0.011834605596959591,
          -0.005332259926944971,
          -0.024043194949626923,
          -0.11128772795200348,
          9.576374577591196e-05,
          -0.058204375207424164,
          -0.005099602974951267,
          -0.01979438215494156,
          -0.0019887846428900957,
          -0.0007387358346022666,
          -0.010081890970468521,
          -0.005119060631841421,
          0.005836058408021927,
          -0.020372049883008003,
          0.357093870639801,
          -0.0031179357320070267,
          -0.002646450884640217,
          0.0011823998065665364,
          -0.02360980585217476,
          0.0029588087927550077,
          -0.0020069419406354427,
          0.0059411125257611275,
          0.003412319114431739,
          -0.008873769082129002,
          -0.005924666300415993,
          0.04460243135690689,
          -0.004396270960569382,
          -6.680328078800812e-05,
          0.0012099671876057982,
          0.002891110023483634,
          0.0019092463189736009,
          -0.01575615629553795,
          -0.04547452554106712,
          -0.01914115808904171,
          -0.017275912687182426,
          -0.007441595662385225,
          0.004559890832751989,
          -0.003619373543187976,
          0.0003685190749820322,
          -0.006276574917137623,
          -0.00681232800707221,
          -0.005150565877556801,
          0.0021739997901022434,
          -0.00023463423713110387,
          -0.022840240970253944,
          -0.011663543060421944,
          -0.0022048545069992542,
          0.0026247429195791483,
          -0.03844637796282768,
          -0.07296129316091537,
          0.0005573767703026533,
          -0.025532785803079605,
          -0.0009404312586411834,
          0.0012025145115330815,
          -0.014066575095057487,
          0.0005713158752769232,
          -0.10858425498008728,
          -0.0023883250541985035,
          -0.016899893060326576,
          -0.006225196644663811,
          -0.00916551984846592,
          -0.005203295033425093,
          -0.006221948191523552,
          -0.042970143258571625,
          -0.0026671956293284893,
          -0.027897503226995468,
          0.001181296189315617,
          -0.03335188329219818,
          0.4739009439945221,
          0.4755672216415405,
          -0.015889938920736313,
          -0.013387087732553482,
          -0.003450764575973153,
          -0.016505377367138863,
          -0.004945577587932348,
          -0.005405481439083815,
          -0.01982073485851288,
          -0.02192630060017109,
          -0.05062852427363396,
          -0.018083075061440468,
          0.0015811944613233209,
          -0.00589117081835866,
          0.0013524413807317615,
          -0.009600991383194923,
          -0.035325318574905396,
          -0.0004735200491268188,
          -0.0029155947268009186,
          -0.0626956894993782,
          -0.02897585555911064,
          -0.0038708143401890993,
          0.0011879964731633663,
          -0.009469362907111645,
          -0.013528430834412575,
          -0.015893757343292236,
          -0.02591281570494175,
          -0.000727950013242662,
          -0.04126948118209839,
          -0.028214363381266594,
          0.007211236283183098,
          -0.006406838074326515,
          0.0013925182865932584,
          0.4659832715988159,
          0.0007470668060705066,
          -0.03887384012341499,
          -0.033887509256601334,
          -0.008955149911344051,
          -0.0003376081585884094,
          0.039203889667987823,
          0.0009484371403232217,
          -0.01998821087181568
        ],
        [
          -0.008326291106641293,
          -0.03972918540239334,
          0.00812474824488163,
          0.005639124196022749,
          0.0008737760363146663,
          -0.011427056975662708,
          -0.029240066185593605,
          0.005046588834375143,
          -0.0989481508731842,
          -0.00044941442320123315,
          0.002434946596622467,
          -0.00335063599050045,
          -0.016600700095295906,
          -0.002319549908861518,
          -0.006966643966734409,
          -0.027004145085811615,
          -0.029807614162564278,
          -0.00607035867869854,
          -0.009798533283174038,
          -0.027960702776908875,
          -0.011823926120996475,
          -0.05959348753094673,
          -0.008635113947093487,
          -0.025087589398026466,
          0.0029454196337610483,
          0.0017918820958584547,
          0.0021223535295575857,
          -0.006743301171809435,
          0.0017513928469270468,
          -0.0031475943978875875,
          0.0012150023831054568,
          -0.03252081573009491,
          -0.016521289944648743,
          -0.007410147693008184,
          -0.017224576324224472,
          -0.06175250932574272,
          0.0037245946004986763,
          -0.049978096038103104,
          -0.006742450408637524,
          -0.017794404178857803,
          -0.003101927228271961,
          -0.003729392308741808,
          -0.011556691490113735,
          -0.0075248717330396175,
          0.0069337282329797745,
          -0.026783959940075874,
          0.28483566641807556,
          -0.004931154195219278,
          0.0011538488324731588,
          -0.00021601626940537244,
          -0.02180713415145874,
          0.007397518027573824,
          0.001079606474377215,
          0.004355948884040117,
          0.0017761823255568743,
          -0.010140671394765377,
          0.0009953492553904653,
          -0.02360444888472557,
          -0.0005863667465746403,
          -0.0036125851329416037,
          6.642892549280077e-05,
          0.002921890700235963,
          0.0026490509044378996,
          1.8194223230239004e-05,
          -0.04396173357963562,
          -0.021887168288230896,
          -0.014154423028230667,
          -0.010794675908982754,
          0.006210985127836466,
          -0.0054855444468557835,
          0.00042266922537237406,
          -0.007238783407956362,
          -0.00776387844234705,
          -0.00630478048697114,
          0.0034875052515417337,
          -0.0007098147179931402,
          -0.030652504414319992,
          -0.01495166216045618,
          0.0031376073602586985,
          -0.008326317183673382,
          -0.008103022351861,
          -0.06411033123731613,
          -0.03690231218934059,
          -0.028824320062994957,
          0.002697473159059882,
          0.009187404997646809,
          -0.01636657863855362,
          -5.1195002015447244e-05,
          -0.10849910974502563,
          -0.004637252073734999,
          -0.01578928343951702,
          -0.010870469734072685,
          6.951707291591447e-06,
          -0.008095765486359596,
          -0.00896125566214323,
          -0.04070611670613289,
          0.0006805774755775928,
          -0.036287616938352585,
          0.002663214225322008,
          -0.023280588909983635,
          0.37531527876853943,
          0.37804532051086426,
          -0.011377849616110325,
          -0.008263250812888145,
          -0.0006147177191451192,
          -0.02049274742603302,
          5.169435826246627e-05,
          0.00012330347090028226,
          -0.03602229803800583,
          -0.01910880021750927,
          -0.04074572026729584,
          -0.025004461407661438,
          0.0020810782443732023,
          -0.01033866684883833,
          -0.0007939997012726963,
          -0.008396802470088005,
          -0.035108763724565506,
          -0.002671249443665147,
          -0.004533185623586178,
          -0.07118688523769379,
          -0.01953720487654209,
          0.0005329684936441481,
          0.003968068398535252,
          -0.003401278518140316,
          -0.008203457109630108,
          0.01751677691936493,
          -0.023679638281464577,
          -0.00415936391800642,
          -0.060034506022930145,
          -0.027648944407701492,
          0.00748505350202322,
          0.008226296864449978,
          0.0018425247399136424,
          0.3867511451244354,
          8.419641380896792e-05,
          -0.0331394262611866,
          -0.0684235692024231,
          -0.012975911609828472,
          0.0033523791935294867,
          -0.11598517745733261,
          0.0012722861720249057,
          -0.011897302232682705
        ],
        [
          0.0023272749967873096,
          0.08306635916233063,
          -0.008046547882258892,
          0.0034330831840634346,
          -0.006818991620093584,
          -0.00037141144275665283,
          -0.015417017973959446,
          0.008134872652590275,
          0.1296084076166153,
          -0.005363583564758301,
          -0.009865360334515572,
          0.00812547467648983,
          0.03542850539088249,
          -0.013301795348525047,
          0.0018124227644875646,
          0.08171243220567703,
          -0.10435999929904938,
          -0.004685502033680677,
          -0.014507361687719822,
          -0.11802399903535843,
          0.01264225970953703,
          -0.02350863255560398,
          -0.017156388610601425,
          0.1298443078994751,
          0.0033337052445858717,
          0.0019126288825646043,
          -0.013977045193314552,
          -0.0057177417911589146,
          -0.011538879945874214,
          0.02149827778339386,
          -0.009380011819303036,
          -0.10006485134363174,
          0.04545692354440689,
          -0.0017667192732915282,
          -0.0337069034576416,
          -0.0034910165704786777,
          -0.00739217409864068,
          0.1264229416847229,
          -0.002403121441602707,
          -0.04903089627623558,
          0.009211329743266106,
          0.011502368375658989,
          0.025766931474208832,
          0.03516261279582977,
          -0.004751540720462799,
          -0.053930506110191345,
          -0.17743748426437378,
          0.0042202044278383255,
          0.0048963758163154125,
          -0.009872374124825,
          -0.002541016787290573,
          -0.02069696970283985,
          0.004710452631115913,
          -0.0125448452308774,
          0.01399313472211361,
          -0.017873113974928856,
          -0.01612100563943386,
          -0.04624747857451439,
          0.0021309477742761374,
          0.005219137761741877,
          -0.0007472753059118986,
          -0.0022411118261516094,
          0.008233956061303616,
          -0.03278582915663719,
          0.09155544638633728,
          -0.008489427156746387,
          0.011290818452835083,
          -0.020416168496012688,
          -0.009713866747915745,
          -0.002591273980215192,
          0.0005201558815315366,
          -0.01331829559057951,
          0.00048161926679313183,
          -0.00943676382303238,
          0.007871618494391441,
          -0.0002833849284797907,
          0.006911266595125198,
          0.012239966541528702,
          -0.012005941942334175,
          0.06131802871823311,
          -0.08982553333044052,
          0.08047010749578476,
          0.047295942902565,
          0.02883085422217846,
          -0.027016732841730118,
          -0.020135782659053802,
          -0.0242222398519516,
          -0.014408225193619728,
          -0.18010137975215912,
          -0.016960782930254936,
          -0.07445038855075836,
          -0.003493556985631585,
          -0.16741175949573517,
          -0.00707252649590373,
          -0.020546510815620422,
          0.045911647379398346,
          -0.0011884007835760713,
          0.016713913530111313,
          0.0034879054874181747,
          0.017298905178904533,
          0.0781082808971405,
          -0.005177661310881376,
          0.0298426765948534,
          -0.011075196787714958,
          -0.02733021229505539,
          0.021512622013688087,
          -0.03289850801229477,
          0.0031546875834465027,
          -0.1367180198431015,
          0.001343489158898592,
          -0.03084005042910576,
          -0.0009870792273432016,
          0.0006905884947627783,
          -0.015927566215395927,
          0.01866183802485466,
          -0.013978172093629837,
          -0.07039282470941544,
          -0.005127596203237772,
          -0.014630946330726147,
          -0.10053859651088715,
          0.007548212539404631,
          -0.0003543809871189296,
          0.00040837342385202646,
          -0.007827991619706154,
          -0.027340706437826157,
          0.015516340732574463,
          0.0006127242813818157,
          0.005978223867714405,
          -0.05193691328167915,
          0.06743723154067993,
          -0.010888414457440376,
          -0.02213432639837265,
          0.002421498764306307,
          0.0857866108417511,
          -0.02121499553322792,
          -0.03245997056365013,
          -0.0998125672340393,
          -0.004748769104480743,
          -0.003646960249170661,
          0.0128480214625597,
          0.002299397485330701,
          -0.03326611593365669
        ],
        [
          -0.00029872209415771067,
          0.048978291451931,
          0.010468976572155952,
          -0.012770270928740501,
          -0.0003984645882155746,
          -0.03137461468577385,
          0.019016599282622337,
          -0.0038471173029392958,
          0.0025454366113990545,
          -0.003595125861465931,
          -0.01677108183503151,
          -0.009157356806099415,
          0.041711561381816864,
          -0.015013819560408592,
          0.00459704315289855,
          0.0003483495966065675,
          0.0924774631857872,
          -0.011181598529219627,
          0.0018795233918353915,
          0.0287418644875288,
          -0.04000159353017807,
          0.031110847368836403,
          -0.06402978301048279,
          0.008047961629927158,
          -0.0032936125062406063,
          0.002093543065711856,
          -0.004376866389065981,
          -0.026109257712960243,
          -0.0017891281750053167,
          -1.4493888556899037e-05,
          0.005485731642693281,
          -0.01221635565161705,
          0.013323395512998104,
          0.003706307616084814,
          0.023587211966514587,
          -0.05532358959317207,
          -0.01633744314312935,
          0.09293638914823532,
          -0.011744523420929909,
          0.03916696459054947,
          -0.0075247096829116344,
          -0.03424546867609024,
          -0.013254511170089245,
          -0.0024292729794979095,
          -0.009029610082507133,
          -0.0064246924594044685,
          0.07275378704071045,
          0.0015968990046530962,
          -0.01465623825788498,
          -0.014888990670442581,
          -0.006195683032274246,
          -0.020243974402546883,
          -0.009286469779908657,
          -0.033451106399297714,
          -0.00550865288823843,
          -0.010686779394745827,
          -0.033330049365758896,
          -0.018843986093997955,
          -0.016441145911812782,
          -0.0013602508697658777,
          0.004766696132719517,
          -0.005617515649646521,
          -0.005908885505050421,
          -0.06469611823558807,
          -0.04485739395022392,
          -0.005494175013154745,
          -0.12067413330078125,
          -0.001665673335082829,
          -0.01403781771659851,
          0.00023200354189611971,
          -0.0023669267538934946,
          -0.010613396763801575,
          -0.0344700887799263,
          0.012604101561009884,
          -0.002699134172871709,
          0.003769676899537444,
          0.09956961125135422,
          0.004037478473037481,
          -0.0062336428090929985,
          -0.004369743634015322,
          -0.25327393412590027,
          0.22138716280460358,
          -0.0887870118021965,
          0.03769273683428764,
          -0.010053561069071293,
          -0.011194305494427681,
          -0.0010568058351054788,
          -0.009971333667635918,
          0.07480423152446747,
          0.010995178483426571,
          0.022508401423692703,
          -0.0002067334862658754,
          0.0496823750436306,
          0.008115850389003754,
          0.0048429099842906,
          0.1581690013408661,
          0.0048385243862867355,
          0.052260179072618484,
          0.0075150043703615665,
          0.015334295108914375,
          -0.084539994597435,
          -0.05538535863161087,
          0.01634146086871624,
          -0.014366736635565758,
          -0.03592238202691078,
          -0.002746448153629899,
          0.009240977466106415,
          -0.02884676121175289,
          -0.0321539044380188,
          0.00027584185590967536,
          0.0770886093378067,
          -0.022608453407883644,
          -0.0030348910950124264,
          -0.016827430576086044,
          0.0017479097004979849,
          -0.039264481514692307,
          -0.014495943672955036,
          0.00881156139075756,
          -0.007377957925200462,
          -0.03605317696928978,
          0.027006234973669052,
          -0.010369526222348213,
          -0.007668548729270697,
          -0.023581339046359062,
          -0.01289406605064869,
          -0.09315993636846542,
          -0.051730141043663025,
          0.005513112526386976,
          -0.22958746552467346,
          0.0485437735915184,
          -0.0057007987052202225,
          -0.08384226262569427,
          0.004939709324389696,
          -0.1103484258055687,
          0.0024493837263435125,
          -0.051526520401239395,
          -0.08875397592782974,
          -1.5827188690309413e-05,
          -0.018905317410826683,
          0.0863489955663681,
          -0.010618802160024643,
          -0.13756278157234192
        ],
        [
          -0.010261967778205872,
          -0.08998856693506241,
          -0.007212650030851364,
          -0.003460600506514311,
          0.002732077846303582,
          -0.012442206032574177,
          -0.10894979536533356,
          -0.017977086827158928,
          -0.10301543772220612,
          -0.00034101129858754575,
          -0.009044132195413113,
          -0.011927017942070961,
          -0.09092559665441513,
          -0.007830404676496983,
          -0.004464515019208193,
          -0.06866681575775146,
          0.09648304432630539,
          -0.014333993196487427,
          -0.011374036781489849,
          -0.2796734869480133,
          -0.005048643797636032,
          -0.004695320036262274,
          0.02870016358792782,
          -0.11774035543203354,
          -0.005042003467679024,
          0.00272417813539505,
          -0.01440753135830164,
          -0.020264936611056328,
          0.004000298213213682,
          -0.020979464054107666,
          0.00528368353843689,
          -0.04044105485081673,
          -0.09268146008253098,
          -0.004058345686644316,
          0.05616535246372223,
          0.0512879341840744,
          0.0018667865078896284,
          -0.06013406813144684,
          -0.006850207224488258,
          0.054680660367012024,
          -0.00694448035210371,
          -0.0146738076582551,
          -0.03553289547562599,
          -0.02900419384241104,
          -0.0075379922054708,
          -0.010375630110502243,
          0.08327094465494156,
          -0.01890895888209343,
          -0.012816915288567543,
          -0.007117967586964369,
          -0.022471236065030098,
          0.005936779081821442,
          -0.021305250003933907,
          -0.01207736786454916,
          -0.020650845021009445,
          -0.01770397089421749,
          0.011648130603134632,
          0.07192829996347427,
          -0.01046187523752451,
          -0.009444211609661579,
          0.002227813471108675,
          -0.01094279158860445,
          -0.011470064520835876,
          -0.10157214105129242,
