{
  "layers": [
    {
      "name": "hidden_layer_1",
      "type": "dense",
      "input_size": 71,
      "output_size": 142,
      "activation": "silu",
      "weights": [
        [
          -0.0011041135294362903,
          0.002096195938065648,
          -0.0016474520089104772,
          0.006084142718464136,
          -0.015530642122030258,
          0.22508233785629272,
          -0.0017382486257702112,
          -0.002831285586580634,
          0.0016790761146694422,
          -0.0036235761363059282,
          -0.0001531183224869892,
          0.029754038900136948,
          0.0007281217840500176,
          -0.007173147983849049,
          0.0040988922119140625,
          -0.0029087357688695192,
          -0.0018692155135795474,
          0.0021864571608603,
          -0.004239009693264961,
          0.0020656841807067394,
          0.009014744311571121,
          0.005755885038524866,
          0.0009334865026175976,
          -0.3137989044189453,
          -0.0066390992142260075,
          -0.011171153746545315,
          -0.009325357154011726,
          -0.003188729751855135,
          -0.0063617113046348095,
          0.0018186317756772041,
          -0.0024463178124278784,
          0.008734386414289474,
          0.005458084866404533,
          -0.13598497211933136,
          -0.007929968647658825,
          -0.010955994948744774,
          0.010829386301338673,
          -0.0500020831823349,
          0.002738126553595066,
          0.0017618448473513126,
          0.004429088905453682,
          0.0030446709133684635,
          0.00914188101887703,
          -0.08260302990674973,
          0.005388322286307812,
          0.00421866262331605,
          -0.0024904387537389994,
          -0.12059557437896729,
          -0.002783054020255804,
          -0.005824820604175329,
          0.005576394964009523,
          -0.0054671368561685085,
          -0.002921497682109475,
          -0.00543204415589571,
          -0.010392307303845882,
          0.011395332403481007,
          -0.003949119709432125,
          0.0036755732726305723,
          -0.0006091716350056231,
          -0.0008865300333127379,
          -0.006690741050988436,
          0.009385935962200165,
          -0.0018037237459793687,
          -0.003249220782890916,
          0.004758929368108511,
          -0.01421924214810133,
          0.002803536131978035,
          0.003897765651345253,
          -0.08456716686487198,
          -0.005548750516027212,
          -0.004151849076151848,
          -0.0030343937687575817,
          0.002664303407073021,
          0.0002794655738398433,
          -0.0004484553064685315,
          -0.002595821861177683,
          -0.003868840867653489,
          0.005102761555463076,
          -0.011602373793721199,
          0.0101805180311203,
          0.0792047381401062,
          0.005444335285574198,
          -0.00012859850539825857,
          -0.365590363740921,
          0.020293844863772392,
          -0.00019784460891969502,
          0.004943519830703735,
          0.010426977649331093,
          0.0011893914779648185,
          -0.0036307591944932938,
          -0.0018108958611264825,
          0.0035402574576437473,
          0.06689553707838058,
          -0.003026772290468216,
          0.02071407437324524,
          0.16736125946044922,
          0.00022507882385980338,
          -0.003299215342849493,
          0.00296550034545362,
          -0.0033158203586935997,
          -0.0018309218576177955,
          -0.003446550341323018,
          -0.0070107197389006615,
          -0.3503899574279785,
          -0.004378798883408308,
          0.0037060712929815054,
          -0.005859567783772945,
          0.05545409023761749,
          0.0050610932521522045,
          0.005117300432175398,
          -0.0016902072820812464,
          0.0018024309538304806,
          -0.0034639229997992516,
          0.008139810524880886,
          -0.0024405468720942736,
          -0.00842884462326765,
          0.001696532010100782,
          -0.00031914273859001696,
          -0.00486518070101738,
          -0.0054280501790344715,
          0.006190199870616198,
          0.0007470478885807097,
          -0.00019304626039229333,
          -0.0015949599910527468,
          0.005067841615527868,
          -0.0011054710485041142,
          -0.009195209480822086,
          6.7833734647138044e-06,
          -0.00015055529365781695,
          0.007405146025121212,
          0.20339341461658478,
          0.007342414930462837,
          -0.007701114751398563,
          0.0033592148683965206,
          0.002407603897154331,
          -0.012306012213230133,
          0.078800730407238,
          0.005071727558970451,
          -0.012405474670231342,
          0.002076336881145835,
          0.005484205670654774,
          -0.0006605408852919936
        ],
        [
          -0.02093645930290222,
          0.03929891064763069,
          -0.06783299893140793,
          0.002864774549379945,
          0.050289131700992584,
          0.05648939311504364,
          0.02331162430346012,
          0.04947846755385399,
          -0.22708874940872192,
          -0.04331817850470543,
          0.008906605653464794,
          0.06231125444173813,
          -0.07956257462501526,
          -0.002441761316731572,
          -0.0009898465359583497,
          -0.032622963190078735,
          0.10382620990276337,
          -0.04389075189828873,
          0.010715161450207233,
          -0.1825798749923706,
          0.0330466702580452,
          0.021536435931921005,
          0.12603946030139923,
          -0.015212390571832657,
          -0.01040609460324049,
          -0.05347864329814911,
          -0.02234570123255253,
          0.04051842913031578,
          -0.03513108566403389,
          0.17382703721523285,
          -0.0024766286369413137,
          0.02266734279692173,
          -0.004775103181600571,
          0.08329331129789352,
          -0.0013690084451809525,
          0.021343421190977097,
          0.04895125329494476,
          0.0500638522207737,
          -0.021276406943798065,
          0.057569973170757294,
          0.0019592868629842997,
          -0.006995863746851683,
          -0.02749410830438137,
          0.05295392498373985,
          -0.011670430190861225,
          0.00353339035063982,
          0.012256422080099583,
          0.0022196576464921236,
          -0.009825235232710838,
          -0.04456831514835358,
          -0.003740654094144702,
          0.08855937421321869,
          -0.03459666296839714,
          0.0008937556995078921,
          0.0013357133138924837,
          0.0063520753756165504,
          -0.01425147894769907,
          -0.022597456350922585,
          0.2634693384170532,
          0.1507788449525833,
          0.009091227315366268,
          -0.024394303560256958,
          0.04438924416899681,
          0.037064943462610245,
          0.05135372281074524,
          -0.020898818969726562,
          0.018650509417057037,
          -0.017870798707008362,
          -0.00692414166405797,
          0.0366380400955677,
          -0.00894719548523426,
          -0.11952784657478333,
          0.024490224197506905,
          -0.13855479657649994,
          -0.04002607986330986,
          -0.019541965797543526,
          0.010291794314980507,
          0.016986757516860962,
          -0.010413545183837414,
          0.047042734920978546,
          0.10078413039445877,
          -0.005235442891716957,
          0.13085141777992249,
          -0.0436495766043663,
          0.05551746115088463,
          -0.17366959154605865,
          -0.018329283222556114,
          0.026645496487617493,
          0.10157554596662521,
          -0.01015594881027937,
          -0.05419492721557617,
          -0.012818899005651474,
          0.042338866740465164,
          0.0020090038888156414,
          -0.020729942247271538,
          0.011089409701526165,
          -0.013419538736343384,
          0.027758242562413216,
          -0.04174488037824631,
          -0.13909223675727844,
          0.10419439524412155,
          0.034514520317316055,
          0.0016344410832971334,
          -0.1491994857788086,
          -0.17632229626178741,
          -0.09465163201093674,
          -0.03944483399391174,
          0.10229558497667313,
          -0.0529906190931797,
          -0.0007462220382876694,
          -0.01112343929708004,
          0.02204909548163414,
          -0.02221405692398548,
          -0.0018643912626430392,
          -0.030057625845074654,
          0.005568866617977619,
          -0.012012168765068054,
          -0.037035129964351654,
          0.04948558285832405,
          0.0045440359972417355,
          0.044631227850914,
          0.056250229477882385,
          0.03465970233082771,
          -0.0012551209656521678,
          -0.00920387264341116,
          0.014549768529832363,
          0.007666303310543299,
          -0.09345756471157074,
          0.00010449586261529475,
          -0.02127983421087265,
          -0.15711690485477448,
          -0.011639030650258064,
          0.02518385276198387,
          -0.047918714582920074,
          0.04750676825642586,
          0.018883079290390015,
          0.07329271733760834,
          0.011241752654314041,
          0.027126194909214973,
          0.05856664478778839,
          -0.016640692949295044,
          0.0339505635201931
        ],
        [
          0.025530992075800896,
          -0.031783610582351685,
          0.07266131043434143,
          -0.024204127490520477,
          0.03193322569131851,
          0.07954131811857224,
          -0.001819013268686831,
          -0.038332611322402954,
          0.15628692507743835,
          0.012281136587262154,
          -0.012438047677278519,
          0.02500387281179428,
          0.006868442520499229,
          0.0473790168762207,
          -0.0014548107283189893,
          -0.03834211826324463,
          -0.1550547033548355,
          -0.0716303214430809,
          -0.02610485628247261,
          0.16206875443458557,
          0.004691732116043568,
          -0.03307345509529114,
          -0.1118679940700531,
          -0.0053510647267103195,
          -0.00037488905945792794,
          0.07365252822637558,
          -0.03363260626792908,
          -0.04271548241376877,
          0.021570401266217232,
          -0.20859043300151825,
          0.006861785892397165,
          -0.01708560809493065,
          -0.013518139719963074,
          0.14959080517292023,
          -0.008021627552807331,
          -0.015490560792386532,
          0.023608477786183357,
          -0.03903505578637123,
          0.009432627819478512,
          -0.0627606213092804,
          -0.04934866726398468,
          0.02015163190662861,
          -0.006380077451467514,
          0.04426964744925499,
          -0.00612133601680398,
          -0.01755380444228649,
          -0.02592374011874199,
          -0.09626831859350204,
          0.013373596593737602,
          0.07059992849826813,
          -0.018386732786893845,
          -0.17762403190135956,
          0.027578288689255714,
          -0.021115893498063087,
          -0.0002583512687124312,
          0.02961907349526882,
          0.008283938281238079,
          0.007023264653980732,
          -0.3715246021747589,
          -0.19565270841121674,
          -0.03116927295923233,
          0.06772714108228683,
          -0.06054452434182167,
          -0.05256995931267738,
          0.0270236749202013,
          -0.05572573468089104,
          -0.022012606263160706,
          0.0016062407521530986,
          -0.019787868484854698,
          -0.04567926004528999,
          -0.011302197352051735,
          0.06784987449645996,
          -0.047473788261413574,
          0.09954696148633957,
          0.020006410777568817,
          0.038765452802181244,
          -0.002264739479869604,
          -0.06577572226524353,
          0.044908538460731506,
          0.007896899245679379,
          -0.04598470404744148,
          0.0007965036784298718,
          -0.14738862216472626,
          -0.06466711312532425,
          -0.040137968957424164,
          0.1010543555021286,
          0.0007577199139632285,
          0.020141208544373512,
          -0.22678326070308685,
          -0.0005902514676563442,
          0.023680098354816437,
          0.013316599652171135,
          -0.027669768780469894,
          -0.09123508632183075,
          -0.0911296159029007,
          -0.004033160395920277,
          -0.03968039155006409,
          -0.03958595171570778,
          -0.01756133884191513,
          0.10646364837884903,
          -0.18852876126766205,
          -0.010807203128933907,
          -0.02357136830687523,
          -0.1677110195159912,
          -0.0030503617599606514,
          0.06511574983596802,
          0.05267195403575897,
          0.16965657472610474,
          0.06622002273797989,
          -0.012636790983378887,
          0.004503068048506975,
          -0.043926823884248734,
          0.023444002494215965,
          -0.025728393346071243,
          0.018472833558917046,
          -0.017095942050218582,
          -0.04318809509277344,
          0.03741241618990898,
          0.010950163006782532,
          -0.01652240939438343,
          -0.060561735183000565,
          -0.11040268838405609,
          -0.02894267812371254,
          -0.03517322987318039,
          -0.019185110926628113,
          -0.01527817826718092,
          -0.04394618794322014,
          0.11667817831039429,
          -0.00010909035336226225,
          0.014451245777308941,
          -0.05838603526353836,
          0.005438089836388826,
          -0.04017757624387741,
          0.01303063239902258,
          -0.02483987994492054,
          0.01777767948806286,
          -0.06275589019060135,
          -0.02367662452161312,
          0.04923417419195175,
          -0.03892834112048149,
          0.011946510523557663,
          -0.027171824127435684
        ],
        [
          0.020430216565728188,
          0.0014225218910723925,
          0.09512718766927719,
          -0.017147129401564598,
          0.01771867647767067,
          -0.0347043015062809,
          0.03981012478470802,
          -0.08019179850816727,
          0.25314971804618835,
          0.03893886134028435,
          -0.015022723004221916,
          0.03126268833875656,
          0.08050462603569031,
          0.029916567727923393,
          0.0015610066475346684,
          0.008425728417932987,
          -0.13107432425022125,
          -0.0021325438283383846,
          -0.017265383154153824,
          0.2197781503200531,
          0.010901074856519699,
          -0.024860598146915436,
          -0.10681197792291641,
          -0.012319902889430523,
          0.011113266460597515,
          0.05141563341021538,
          -0.019292650744318962,
          -0.041983578354120255,
          0.03526461869478226,
          -0.13318392634391785,
          0.005368937272578478,
          0.0085903974249959,
          -0.006449812091886997,
          -0.0733402892947197,
          -0.006050840485841036,
          0.01282878965139389,
          -0.0038975898642092943,
          0.09861674159765244,
          0.005720337852835655,
          -0.06919726729393005,
          -0.044419582933187485,
          -0.006730867549777031,
          0.050154149532318115,
          0.00481770746409893,
          0.0022978538181632757,
          -0.010976145975291729,
          -0.019118279218673706,
          0.07643565535545349,
          0.037058863788843155,
          0.0969274640083313,
          -0.009928773157298565,
          -0.17031407356262207,
          0.03191787376999855,
          -0.03880218416452408,
          -0.008226762525737286,
          -0.030093608424067497,
          0.01130629237741232,
          0.015502004884183407,
          -0.3598407208919525,
          -0.1867714673280716,
          -0.014309706166386604,
          -0.033650416880846024,
          -0.04728348180651665,
          -0.06472885608673096,
          1.0828649465111084e-05,
          0.016070852056145668,
          -0.02179141342639923,
          0.01061716303229332,
          0.027457546442747116,
          0.025615788996219635,
          0.005739119835197926,
          0.1293313354253769,
          0.05565997213125229,
          0.1614757776260376,
          0.024328941479325294,
          0.01727377064526081,
          -0.006201820448040962,
          -0.03421730548143387,
          0.04747239872813225,
          0.04117986187338829,
          0.15765534341335297,
          0.0029878339264541864,
          -0.1142314225435257,
          0.01822718232870102,
          0.0988338440656662,
          0.18739666044712067,
          0.016807468608021736,
          -0.048395417630672455,
          -0.1648494303226471,
          0.005366849713027477,
          -0.0012398607796058059,
          0.012657362967729568,
          0.08005542308092117,
          -0.09452372789382935,
          0.06320177763700485,
          0.0012995096622034907,
          -0.020387740805745125,
          0.0029461588710546494,
          -0.013486022129654884,
          0.12204106897115707,
          -0.1692827194929123,
          0.01553482934832573,
          -0.010605918243527412,
          0.018437542021274567,
          0.15999214351177216,
          0.09650059044361115,
          0.029362404718995094,
          -0.04484228417277336,
          0.03209221735596657,
          -0.006740810349583626,
          0.007917826995253563,
          -0.02964797057211399,
          0.04162345081567764,
          -0.01345575787127018,
          -0.029521415010094643,
          0.026732129976153374,
          0.018734686076641083,
          0.07046277076005936,
          0.01710709184408188,
          -0.012366089969873428,
          -0.030083881691098213,
          -0.06646953523159027,
          -0.014667934738099575,
          -0.10859706252813339,
          -0.005255971569567919,
          -0.015155467204749584,
          0.05257401615381241,
          0.14474372565746307,
          -0.00010568737343419343,
          0.016481878235936165,
          -0.11268749088048935,
          0.00043366255704313517,
          -0.03391992673277855,
          -0.00950282346457243,
          -0.03100539930164814,
          0.002681249286979437,
          0.11253846436738968,
          -0.017415033653378487,
          0.0025561153888702393,
          -0.029925018548965454,
          0.015513190999627113,
          -0.04491237923502922
        ],
        [
          0.01608741655945778,
          0.0638715922832489,
          -0.01660933718085289,
          0.008236164227128029,
          -0.01352733839303255,
          1.2968485355377197,
          -0.03499940037727356,
          -0.021813077852129936,
          -0.035858239978551865,
          -0.016610076650977135,
          -0.03434983268380165,
          0.14649468660354614,
          -0.03979920223355293,
          -0.019804449751973152,
          0.006025281269103289,
          0.00017860867956187576,
          -0.023900026455521584,
          0.21830777823925018,
          0.0264327060431242,
          -0.06857814639806747,
          0.05086187645792961,
          -0.012945227324962616,
          0.0029449486173689365,
          -0.33602094650268555,
          -8.554692612960935e-05,
          -0.01733035035431385,
          0.040533971041440964,
          0.002628269139677286,
          -0.011726039461791515,
          -0.030196981504559517,
          0.007016999181360006,
          0.026612859219312668,
          0.009911325760185719,
          -0.44209524989128113,
          0.017825119197368622,
          0.012012678198516369,
          0.083602175116539,
          -0.030731644481420517,
          -0.004533544648438692,
          -0.0007440437329933047,
          -0.02234620228409767,
          0.008109950460493565,
          0.03539281710982323,
          -0.10234744846820831,
          0.0026944796554744244,
          0.007164912763983011,
          0.0016837185248732567,
          0.29169243574142456,
          -0.01406717300415039,
          -0.04385633021593094,
          -0.003992382902652025,
          -0.036850444972515106,
          0.006804210599511862,
          0.000780385744292289,
          -0.015826022252440453,
          0.019318653270602226,
          0.0047955685295164585,
          0.004274770151823759,
          -0.04664856195449829,
          -0.04201710969209671,
          -0.0023373619187623262,
          -0.0012023641029372811,
          0.0040792436338961124,
          -0.06008591875433922,
          0.17190729081630707,
          0.0402267687022686,
          0.004281466826796532,
          0.010628833435475826,
          -0.305672287940979,
          0.030769001692533493,
          -0.02170102670788765,
          -0.030806927010416985,
          0.05023273453116417,
          -0.039064645767211914,
          0.0024411180056631565,
          -0.035096436738967896,
          0.0061086490750312805,
          -0.026253489777445793,
          -0.04972135275602341,
          0.007365817669779062,
          -0.07155904918909073,
          0.00908375158905983,
          -0.05682573467493057,
          -0.24832524359226227,
          0.012515430338680744,
          -0.0542946457862854,
          0.003544160397723317,
          0.031352169811725616,
          -0.06233764812350273,
          0.0057799252681434155,
          -0.029438896104693413,
          -0.005766359623521566,
          0.06446129083633423,
          -0.0034497547894716263,
          -0.01538433413952589,
          1.1330586671829224,
          -0.04692664369940758,
          -0.04052620381116867,
          -0.27360808849334717,
          -0.014964049682021141,
          -0.05372219532728195,
          0.05034404620528221,
          0.012584890238940716,
          -0.4648825526237488,
          -0.011844835244119167,
          -0.060108643025159836,
          -0.028647709637880325,
          -0.21422040462493896,
          -0.02809450402855873,
          0.006252189166843891,
          0.0004254385712556541,
          -0.008279319852590561,
          -0.011300312355160713,
          -0.008365815505385399,
          -0.0028737292159348726,
          0.0022290267515927553,
          0.04173271730542183,
          -0.03236333280801773,
          0.0965408906340599,
          0.0010542660020291805,
          0.0067829410545527935,
          -0.023452479392290115,
          -0.018586814403533936,
          -0.02634761482477188,
          -0.0027188051026314497,
          0.0015404251171275973,
          -0.04578515514731407,
          -0.026173919439315796,
          -5.647144644171931e-05,
          -0.0015634606825187802,
          1.216120719909668,
          0.026078572496771812,
          0.008330832235515118,
          -0.035926997661590576,
          -0.01912570558488369,
          0.02068101055920124,
          0.24570444226264954,
          0.015431306324899197,
          -0.08550232648849487,
          0.000373573275282979,
          0.006411660462617874,
          -0.022500120103359222
        ],
        [
          0.009380416013300419,
          -0.03335564583539963,
          -0.024354642257094383,
          -0.01465125847607851,
          -0.008890963159501553,
          -0.7788722515106201,
          -0.023030169308185577,
          -0.04065399244427681,
          -0.051013655960559845,
          0.011178121902048588,
          -0.014319383539259434,
          0.23376838862895966,
          -0.036578599363565445,
          -0.0011181250447407365,
          0.009813115000724792,
          -0.0030048848129808903,
          -0.01198278646916151,
          -0.02803814224898815,
          -0.007492627948522568,
          -0.019010096788406372,
          -0.009045806713402271,
          0.0031109729316085577,
          -0.022484013810753822,
          1.3160451650619507,
          -0.005481716711074114,
          0.02818618156015873,
          -0.018909750506281853,
          0.010854028165340424,
          0.020684864372015,
          -0.02295856922864914,
          0.005947768222540617,
          0.011627985164523125,
          0.012138505466282368,
          0.40075525641441345,
          -0.014021702110767365,
          -0.007926837541162968,
          0.05512309446930885,
          -0.024480771273374557,
          -0.003355851396918297,
          -0.0009086090140044689,
          0.006059614475816488,
          -0.014345546253025532,
          -0.0015760159585624933,
          -0.08297275006771088,
          0.0020456176716834307,
          0.006117074750363827,
          0.0013536048354580998,
          -0.20977257192134857,
          -0.019258471205830574,
          -0.016637243330478668,
          -7.078716589603573e-05,
          -0.019610093906521797,
          0.0016128874849528074,
          0.01931564137339592,
          0.017026429995894432,
          -0.010911277495324612,
          0.009523557499051094,
          -0.0017575466772541404,
          -0.02683146484196186,
          -0.03905976936221123,
          -1.6869222235982306e-05,
          0.030303465202450752,
          0.02703024260699749,
          -0.01726365275681019,
          -0.030234109610319138,
          -0.02528746798634529,
          0.006567163858562708,
          0.0023446357809007168,
          0.2778717279434204,
          -0.011095992289483547,
          -0.00044056487968191504,
          -0.019676901400089264,
          0.035812776535749435,
          -0.04297365993261337,
          -0.013424049131572247,
          -0.01800577901303768,
          0.00879809819161892,
          -0.003060400951653719,
          -0.004259445704519749,
          0.08921884745359421,
          0.10414056479930878,
          0.012192115187644958,
          -0.03389168903231621,
          1.2836334705352783,
          0.07058422267436981,
          -0.04617131128907204,
          0.00022739511041436344,
          -0.005200526211410761,
          -0.0513605922460556,
          -0.0028562897350639105,
          -0.04077531024813652,
          0.006377359386533499,
          0.008580057881772518,
          -0.01898517645895481,
          0.030971648171544075,
          -0.6664981245994568,
          -0.05414959043264389,
          -0.039457183331251144,
          0.32936787605285645,
          -0.03501861169934273,
          -0.03345770761370659,
          -0.02815396524965763,
          0.016302863135933876,
          1.2180020809173584,
          -0.05916585773229599,
          -0.03622836619615555,
          -0.02162887156009674,
          0.2836194932460785,
          -0.00016233175119850785,
          0.00982494093477726,
          0.0026683583855628967,
          -0.01039784774184227,
          0.01127561368048191,
          0.009630256332457066,
          -0.009970816783607006,
          0.013805065304040909,
          -0.038579847663640976,
          -0.02745187282562256,
          0.0032711350359022617,
          0.010556262917816639,
          0.0037290125619620085,
          -0.034400083124637604,
          -0.023452578112483025,
          -0.06172049045562744,
          -0.00882877130061388,
          0.0018662837101146579,
          0.018930763006210327,
          -0.012755380012094975,
          0.00021192492567934096,
          0.01260568667203188,
          -0.6823397874832153,
          -0.01388708595186472,
          0.01742631196975708,
          -0.05262285843491554,
          -0.015958445146679878,
          0.021134918555617332,
          -0.06388290971517563,
          0.0018074208637699485,
          0.06589509546756744,
          -0.010166356340050697,
          0.0019920803606510162,
          -0.04191809147596359
        ],
        [
          0.019782550632953644,
          -0.0260451752692461,
          -0.02080410346388817,
          -0.014217267744243145,
          0.02150324359536171,
          -0.6981273889541626,
          -0.012969575822353363,
          -0.03404730558395386,
          -0.0555230975151062,
          0.009739499539136887,
          -0.023249218240380287,
          -0.014541596174240112,
          -0.02722528763115406,
          0.004118977580219507,
          0.007046764250844717,
          -0.007899174466729164,
          -0.010428586043417454,
          -0.022387223318219185,
          -0.001792044029571116,
          -0.0439193956553936,
          -0.02497555874288082,
          0.0007291068322956562,
          -0.015275893732905388,
          1.1187258958816528,
          -0.0016999451909214258,
          0.03380231931805611,
          -0.0008088458562269807,
          0.00763316173106432,
          0.01802966557443142,
          -0.012154357507824898,
          0.007398110348731279,
          0.008537227287888527,
          0.01737268827855587,
          0.17457960546016693,
          -0.0027186465449631214,
          0.0031206717249006033,
          0.02789182960987091,
          0.05683698505163193,
          -0.0069701108150184155,
          -0.003260743571445346,
          0.023908186703920364,
          -0.014344681985676289,
          -0.013315229676663876,
          0.08085832744836807,
          0.004959795158356428,
          0.010511333122849464,
          -0.000998711446300149,
          -0.11987459659576416,
          -0.015529944561421871,
          -0.005429116077721119,
          0.0002765542012639344,
          -0.015943385660648346,
          0.0013579836813732982,
          0.016516461968421936,
          0.01500291470438242,
          -0.02205006033182144,
          0.004393786657601595,
          -0.0002910017210524529,
          -0.0428769625723362,
          -0.03493502736091614,
          -0.0027195806615054607,
          0.023682303726673126,
          0.01472377683967352,
          0.0018165718065574765,
          -0.014066232368350029,
          -0.013455119915306568,
          0.001234375056810677,
          0.006655189674347639,
          0.2227899730205536,
          -0.005889891646802425,
          -0.0058244396932423115,
          -0.016585176810622215,
          0.0006500100716948509,
          -0.019019149243831635,
          -0.00845540501177311,
          -0.017650175839662552,
          0.004951471462845802,
          -0.005629742052406073,
          0.019414545968174934,
          0.02555152215063572,
          0.0868121013045311,
          0.014754727482795715,
          -0.03872556984424591,
          1.1139554977416992,
          0.026376081630587578,
          -0.04031981900334358,
          -0.003578310599550605,
          -0.019482675939798355,
          -0.054203350096940994,
          -0.002313040429726243,
          -0.025608807802200317,
          0.004783783107995987,
          0.028186429291963577,
          -0.025005437433719635,
          0.0310386810451746,
          -0.5845763683319092,
          -0.05139857530593872,
          -0.0355263352394104,
          0.15436138212680817,
          -0.0006549885147251189,
          -0.0316874124109745,
          -0.016327284276485443,
          0.008722497150301933,
          1.0792702436447144,
          -0.029536675661802292,
          -0.037461403757333755,
          -0.016016418114304543,
          0.19808347523212433,
          -0.012147950939834118,
          0.012608352117240429,
          0.0013175326166674495,
          -0.005914231762290001,
          0.01584598235785961,
          0.009517398662865162,
          -0.010091251693665981,
          0.007648657076060772,
          -0.028735090047121048,
          -0.019651027396321297,
          0.016130128875374794,
          0.006108944769948721,
          0.001394769293256104,
          -0.03129143640398979,
          -0.02482007071375847,
          -0.0691571906208992,
          -0.007170065771788359,
          0.0004969856236129999,
          0.07096296548843384,
          -0.02001374401152134,
          -1.0530495273997076e-05,
          0.015071000903844833,
          -0.6748524308204651,
          -0.015014677308499813,
          0.01268175058066845,
          -0.07611776143312454,
          -0.017312949523329735,
          0.058840420097112656,
          -0.11207397282123566,
          0.007570219226181507,
          0.07440118491649628,
          -0.01380824949592352,
          0.004534295294433832,
          -0.03226345404982567
        ],
        [
          0.007421153597533703,
          -0.0651852935552597,
          -0.022748811170458794,
          -0.017998158931732178,
          0.018321670591831207,
          -0.5992642045021057,
          -0.019546348601579666,
          -0.030337946489453316,
          -0.0151327820494771,
          0.01984039880335331,
          -0.03143489733338356,
          -0.0361068919301033,
          -0.03078065998852253,
          0.0063680680468678474,
          0.008213161490857601,
          -0.01268264651298523,
          -0.021330904215574265,
          -0.0010301190195605159,
          -0.006606065668165684,
          -0.002321824664250016,
          -0.030281376093626022,
          -0.010449044406414032,
          -0.02851036563515663,
          1.1726598739624023,
          -0.0012366952141746879,
          0.054915901273489,
          -0.006926123518496752,
          0.008589454926550388,
          0.017048945650458336,
          -0.053540587425231934,
          0.004050551913678646,
          -0.01664324291050434,
          0.012828774750232697,
          0.46679478883743286,
          0.002843122696503997,
          0.005576613359153271,
          -0.06842551380395889,
          0.25455212593078613,
          -0.004777539521455765,
          -0.005590763408690691,
          0.013325270265340805,
          -0.02617068402469158,
          -0.016974730417132378,
          0.10092570632696152,
          0.003492786083370447,
          0.007799272425472736,
          -0.0005363824893720448,
          -0.1809466928243637,
          -0.016880732029676437,
          -0.005753466859459877,
          -0.0014654810074716806,
          -0.02517048455774784,
          0.004936614539474249,
          0.003752076532691717,
          0.008993500843644142,
          -0.03334764763712883,
          0.008044833317399025,
          -0.0007810184033587575,
          -0.030577532947063446,
          -0.035634323954582214,
          0.0028831958770751953,
          -0.01591443084180355,
          0.005520157516002655,
          -0.004921928979456425,
          -0.13721932470798492,
          -0.024402035400271416,
          -0.002137973206117749,
          0.004978720564395189,
          0.29136374592781067,
          -0.015306400135159492,
          -0.003881712444126606,
          -0.01938508078455925,
          -0.02357308380305767,
          -0.026061413809657097,
          -0.015121986158192158,
          -0.016062244772911072,
          0.009950229898095131,
          -0.017504455521702766,
          -0.0034343316219747066,
          -0.004137195646762848,
          0.27599290013313293,
          0.015286320820450783,
          -0.03097105398774147,
          1.1093039512634277,
          0.013435649685561657,
          -0.04477839916944504,
          -0.004479113034904003,
          -0.011008245870471,
          -0.05315695330500603,
          -0.0015530128730461001,
          -0.007367625832557678,
          0.0070052738301455975,
          -0.06884337216615677,
          -0.015921054407954216,
          0.056830015033483505,
          -0.5219486355781555,
          -0.049123503267765045,
          -0.037382110953330994,
          0.21984624862670898,
          -0.007140105590224266,
          -0.030617976561188698,
          -0.034798018634319305,
          0.009884805418550968,
          1.0937141180038452,
          -0.01920839585363865,
          -0.04401858523488045,
          -0.020722337067127228,
          -0.013873019255697727,
          -0.03031504526734352,
          0.00770556041970849,
          0.0028810289222747087,
          -0.008952992036938667,
          0.009585173800587654,
          0.0018200179329141974,
          -0.009672930464148521,
          0.029664255678653717,
          -0.02472934126853943,
          -0.013985231518745422,
          -0.049091313034296036,
          0.0072797853499650955,
          0.0032263314351439476,
          -0.032119154930114746,
          -0.025200821459293365,
          -0.05997496843338013,
          -0.008100568316876888,
          0.0012173663126304746,
          0.05861661955714226,
          -0.008894785307347775,
          0.00031284260330721736,
          0.012492475099861622,
          -0.5743162631988525,
          -0.01616421714425087,
          0.009561408311128616,
          -0.0678391084074974,
          -0.014997552148997784,
          0.06101307272911072,
          0.09011191129684448,
          0.00047012933646328747,
          0.07819314301013947,
          -0.020207243040204048,
          0.003695820225402713,
          -0.034395311027765274
        ],
        [
          0.021169031038880348,
          -0.023649392649531364,
          -0.026913871988654137,
          -0.006191855762153864,
          0.005405773408710957,
          -0.5190981030464172,
          -0.022756412625312805,
          -0.031361207365989685,
          -0.03031061962246895,
          0.002220519119873643,
          -0.01780473068356514,
          -0.004779041279107332,
          -0.027787314727902412,
          -0.007553468458354473,
          0.006608921568840742,
          -0.027997292578220367,
          -0.017603512853384018,
          -0.01865452155470848,
          0.002225021366029978,
          -0.047232188284397125,
          -0.006358162499964237,
          -0.005489390343427658,
          -0.015700919553637505,
          0.9935083389282227,
          0.0004335815319791436,
          0.03233771398663521,
          -0.012649420648813248,
          0.00892106257379055,
          0.016700483858585358,
          -0.05210994929075241,
          0.012073852121829987,
          0.0022040654439479113,
          0.011226924136281013,
          0.04809509590268135,
          -0.002377018565312028,
          0.010529153980314732,
          0.006247036624699831,
          0.18474583327770233,
          -0.0032034588512033224,
          0.000706745486240834,
          -0.00561530189588666,
          -0.004671216942369938,
          -0.0004416448646225035,
          0.0884876698255539,
          0.0014156983233988285,
          0.008436111733317375,
          0.001105280127376318,
          -0.1355360746383667,
          -0.01114670280367136,
          -0.009412134997546673,
          -0.0040748231112957,
          -0.029391245916485786,
          0.0029514716006815434,
          0.01444324478507042,
          0.014732773415744305,
          -0.009481651708483696,
          0.008208167739212513,
          0.0004335875855758786,
          -0.03927551582455635,
          -0.03767971694469452,
          -0.0009037342970259488,
          0.016404878348112106,
          0.01650414429605007,
          -0.03437228128314018,
          -0.0012552924454212189,
          -0.008463471196591854,
          0.002187317470088601,
          0.004670316353440285,
          0.0019277897663414478,
          -0.01178370788693428,
          -0.015825286507606506,
          -0.023882141336798668,
          0.004045114386826754,
          -0.017789606004953384,
          -0.003486932022497058,
          -0.023349978029727936,
          0.005416264291852713,
          -0.020455757156014442,
          0.0010075438767671585,
          0.04993528872728348,
          0.044819243252277374,
          0.010177685879170895,
          -0.039794597774744034,
          1.0448330640792847,
          0.05911395698785782,
          -0.03871997818350792,
          -0.0007501537329517305,
          -0.0025540438946336508,
          -0.06364823132753372,
          0.0007050309213809669,
          -0.0401652567088604,
          0.004573830869048834,
          0.008365747518837452,
          -0.012469377368688583,
          0.03403906524181366,
          -0.5026355981826782,
          -0.046577077358961105,
          -0.045435670763254166,
          0.046024955809116364,
          -0.006550774909555912,
          -0.03828607127070427,
          -0.016211409121751785,
          0.01281188428401947,
          0.9218323826789856,
          -0.041446834802627563,
          -0.04839044064283371,
          -0.02501477114856243,
          0.18280214071273804,
          -0.011729137971997261,
          0.008321966975927353,
          0.0022929746191948652,
          -0.0038222812581807375,
          0.009756703861057758,
          -0.0019606102723628283,
          -0.004237529821693897,
          0.016278164461255074,
          -0.011787010356783867,
          -0.01728958822786808,
          -0.010200604796409607,
          0.008906562812626362,
          0.0011942187556996942,
          -0.02882510796189308,
          -0.017837362363934517,
          -0.04171901196241379,
          -0.006211817730218172,
          0.0013409070670604706,
          0.022161787375807762,
          -0.0186902042478323,
          0.0001335277484031394,
          0.013943306170403957,
          -0.48396965861320496,
          -0.0017405743710696697,
          0.013364985585212708,
          -0.06691338866949081,
          -0.010653890669345856,
          0.04398692026734352,
          0.0032296087592840195,
          0.0070090582594275475,
          0.08311430364847183,
          -0.011724616400897503,
          0.005583512596786022,
          -0.030966751277446747
        ],
        [
          0.005995767191052437,
          0.007320360746234655,
          -0.025437813252210617,
          -0.005392882041633129,
          -0.00485629215836525,
          -0.3556053340435028,
          -0.026399783790111542,
          -0.027416201308369637,
          -0.04131282866001129,
          -0.0042482297867536545,
          -0.028392033651471138,
          0.02268158458173275,
          -0.03188372403383255,
          -0.013702594675123692,
          0.003386532189324498,
          -0.029407843947410583,
          -0.02236236073076725,
          0.12428919225931168,
          0.005950398277491331,
          -0.02213381603360176,
          0.008756278082728386,
          -0.009353998117148876,
          -0.009971542283892632,
          0.8368276953697205,
          0.007295218296349049,
          0.014810483902692795,
          -0.0026158904656767845,
          0.005714342463761568,
          0.016328414902091026,
          -0.05981544032692909,
          0.006322839297354221,
          0.001406208612024784,
          0.009237118996679783,
          -0.12762893736362457,
          0.003181654727086425,
          0.014954520389437675,
          0.023213349282741547,
          0.19781935214996338,
          -0.008436025120317936,
          0.0018152003176510334,
          -0.000272452540230006,
          -0.010916084051132202,
          -0.0020258063450455666,
          0.09494147449731827,
          8.980249549495056e-05,
          0.008138800039887428,
          0.001274891197681427,
          -0.2025185376405716,
          -0.016885945573449135,
          -0.019269375130534172,
          -0.005665254779160023,
          -0.03734675049781799,
          0.0016679662512615323,
          -0.0018249867716804147,
          0.008519076742231846,
          -0.01283558364957571,
          0.0049776481464505196,
          -0.0016732141375541687,
          -0.02548801526427269,
          -0.03927817568182945,
          -0.00029531706240959466,
          -0.00667964993044734,
          0.008207293227314949,
          -0.02099023573100567,
          0.03705788776278496,
          -0.006470630411058664,
          -0.0021310336887836456,
          0.007847738452255726,
          0.015921438112854958,
          0.01165616512298584,
          -0.01863059774041176,
          -0.02617715112864971,
          0.014482309110462666,
          -0.01607366092503071,
          -0.014901502057909966,
          -0.030102888122200966,
          0.0066572860814630985,
          -0.02226809784770012,
          -0.022681333124637604,
          -0.012311328202486038,
          0.11502134054899216,
          0.011084690690040588,
          -0.035913921892642975,
          0.9013547301292419,
          0.020870769396424294,
          -0.04052231088280678,
          -0.002452622400596738,
          -0.009200919419527054,
          -0.06254047155380249,
          5.125273673911579e-05,
          -0.0153324780985713,
          0.001267104409635067,
          -0.03214952349662781,
          -0.022887317463755608,
          0.023348089307546616,
          -0.31409069895744324,
          -0.05367078632116318,
          -0.03968636691570282,
          -0.017618536949157715,
          -0.011689443141222,
          -0.04142724350094795,
          -0.005138862878084183,
          0.008058741688728333,
          0.7862437963485718,
          -0.037288226187229156,
          -0.05758073925971985,
          -0.03523809462785721,
          0.13714219629764557,
          -0.02389586716890335,
          0.008527079597115517,
          0.0013643429847434163,
          -0.003064406104385853,
          -0.010249011218547821,
          -0.0022926207166165113,
          -0.01024826243519783,
          0.016386523842811584,
          -0.008752832189202309,
          -0.012258229777216911,
          0.027927426621317863,
          0.002181772841140628,
          0.004529906436800957,
          -0.02735406532883644,
          -0.01573491469025612,
          -0.005096731707453728,
          -0.008498764596879482,
          0.00131118088029325,
          0.020744262263178825,
          -0.022952523082494736,
          0.0001411623234162107,
          0.00572978937998414,
          -0.37423598766326904,
          -0.006832850631326437,
          0.01214789878576994,
          -0.03859420493245125,
          -0.00959761068224907,
          0.03938516229391098,
          0.05633840709924698,
          0.00855349376797676,
          -0.01818167418241501,
          -0.014684941619634628,
          0.00128372258041054,
          -0.03133411332964897
        ],
        [
          -0.0002527591132093221,
          -0.0033733095042407513,
          -0.02636055089533329,
          -0.014573000371456146,
          0.0668191984295845,
          -0.3310401439666748,
          -0.017268093302845955,
          -0.02913380227982998,
          -0.022719232365489006,
          0.008045957423746586,
          -0.029771838337183,
          0.06356728076934814,
          -0.03033936768770218,
          -0.002361688297241926,
          0.0010517099872231483,
          -0.04711911454796791,
          -0.026740724220871925,
          0.02123461849987507,
          0.00048536949907429516,
          -0.013758240267634392,
          -0.016419142484664917,
          -0.014302369207143784,
          -0.02119836024940014,
          0.874376654624939,
          0.007059710565954447,
          0.040346454828977585,
          0.008944254368543625,
          0.006864613853394985,
          0.02253371849656105,
          -0.07400422543287277,
          0.005286748055368662,
          0.013699809089303017,
          0.006462383549660444,
          0.17973078787326813,
          0.0012446003966033459,
          0.01128244586288929,
          0.01977331005036831,
          0.023005619645118713,
          -0.015120693482458591,
          -0.007351044565439224,
          0.0026069742161780596,
          -0.004947705194354057,
          -0.022272853180766106,
          0.12432359158992767,
          -0.0027163419872522354,
          0.0033055434469133615,
          0.003097034525126219,
          -0.03323286399245262,
          -0.01498206052929163,
          -0.017845625057816505,
          -0.007799185812473297,
          -0.039021335542201996,
          0.005523191764950752,
          -0.00419596116989851,
          0.002294005826115608,
          -0.01828722469508648,
          0.009050450287759304,
          -0.004840964451432228,
          -0.02882353402674198,
          -0.04330844432115555,
          0.00241668988019228,
          0.021208304911851883,
          0.004485070239752531,
          -0.004600580781698227,
          0.003972461447119713,
          -0.004706560168415308,
          -0.008389868773519993,
          0.002427628031000495,
          0.16141928732395172,
          0.030288785696029663,
          -0.013987502083182335,
          -0.01814473792910576,
          -0.0020622345618903637,
          -0.019566886126995087,
          -0.01044743973761797,
          -0.026276396587491035,
          0.010840273462235928,
          -0.02228589728474617,
          0.023682404309511185,
          0.08760295063257217,
          0.006192638073116541,
          0.009541994892060757,
          -0.03620646521449089,
          0.9159789681434631,
          0.030426397919654846,
          -0.04783785343170166,
          -0.00741975475102663,
          -0.015100428834557533,
          -0.06384512782096863,
          0.0031064595095813274,
          -0.02064279466867447,
          -0.008532481268048286,
          0.08040100336074829,
          -0.021908516064286232,
          0.056381672620773315,
          -0.27817028760910034,
          -0.056291934102773666,
          -0.035883549600839615,
          0.05280819535255432,
          -0.02650897018611431,
          -0.04308953136205673,
          0.011273994110524654,
          0.009935136884450912,
          0.8343315124511719,
          -0.0260419100522995,
          -0.04277564957737923,
          -0.02850157395005226,
          0.23384307324886322,
          -0.004756531678140163,
          0.0032322576735168695,
          0.0034288326278328896,
          -0.012192178517580032,
          -0.0008750604465603828,
          -0.005869243294000626,
          -0.008581637404859066,
          0.07810107618570328,
          -0.022261491045355797,
          -0.0184334609657526,
          0.03111487254500389,
          0.005501879379153252,
          -0.009099318645894527,
          -0.03611191734671593,
          -0.025028027594089508,
          -0.06720275431871414,
          -0.011262443847954273,
          0.0024296282790601254,
          0.05738792195916176,
          -0.021891653537750244,
          0.00027907980256713927,
          -0.0012143985368311405,
          -0.28358328342437744,
          -0.013241786509752274,
          0.01327421423047781,
          -0.05715358257293701,
          -0.02294175699353218,
          0.05474618449807167,
          -0.06997187435626984,
          0.0015110857784748077,
          0.0736941397190094,
          -0.01507619209587574,
          -0.001895056921057403,
          -0.03310149163007736
        ],
        [
          -0.004471678286790848,
          0.00024459752603434026,
          -0.029652651399374008,
          -0.010471085086464882,
          0.07757719606161118,
          -0.29160767793655396,
          -0.007834982126951218,
          -0.020756835117936134,
          -0.036279477179050446,
          0.0012142348568886518,
          -0.019352808594703674,
          -0.18354564905166626,
          -0.031018666923046112,
          0.007951892912387848,
          -0.0014058074448257685,
          -0.04244082793593407,
          -0.01801903359591961,
          0.026912083849310875,
          0.017053237184882164,
          -0.044900067150592804,
          -0.02712121792137623,
          -0.01267462968826294,
          -0.017803743481636047,
          0.7426531910896301,
          0.009411661885678768,
          0.04020632058382034,
          0.056734293699264526,
          0.011163572780787945,
          0.03208233043551445,
          -0.013566803187131882,
          0.003443670691922307,
          -0.014912074431777,
          0.0039827097207307816,
          0.1855250895023346,
          0.010983866639435291,
          0.04492854326963425,
          0.023531589657068253,
          0.19093985855579376,
          -0.018482506275177002,
          -0.01770554669201374,
          -0.0006263437098823488,
          -0.007272259332239628,
          -0.03362759202718735,
          0.1261797845363617,
          -0.0048755500465631485,
          0.0032728032674640417,
          0.0021830883342772722,
          -0.03598465770483017,
          -0.005308995023369789,
          -0.01831243187189102,
          -0.010960306040942669,
          -0.023569999262690544,
          0.009233145043253899,
          0.01674223691225052,
          0.030042367056012154,
          -0.02415667660534382,
          0.011041309684515,
          -0.00456943130120635,
          -0.03298069164156914,
          -0.043640878051519394,
          0.007739565335214138,
          0.006467323750257492,
          0.013763785362243652,
          -0.016573797911405563,
          0.010007278993725777,
          0.0015233411686494946,
          -0.013719772920012474,
          0.0016423335764557123,
          0.1102805808186531,
          0.04527580738067627,
          -0.014728647656738758,
          -0.02425977773964405,
          0.010343651287257671,
          -0.015564225614070892,
          -0.007429301273077726,
          -0.026594797149300575,
          0.008160987868905067,
          -0.02533634565770626,
          0.04871419444680214,
          0.119154192507267,
          0.12813018262386322,
          0.00746782636269927,
          -0.04142298176884651,
          0.7702694535255432,
          -0.019348472356796265,
          -0.03804151341319084,
          -0.011268767528235912,
          -0.018005656078457832,
          -0.06515105068683624,
          0.00398001354187727,
          -0.00888136774301529,
          -0.011626544408500195,
          0.03474598005414009,
          -0.00960930809378624,
          0.04765183851122856,
          -0.2826699912548065,
          -0.04493207857012749,
          -0.03903617337346077,
          -0.01991218328475952,
          -0.02574719861149788,
          -0.04610038921236992,
          0.026431068778038025,
          0.015916375443339348,
          0.7226060628890991,
          -0.05169590935111046,
          -0.04298558458685875,
          -0.02323216013610363,
          0.06676944345235825,
          -0.009524472057819366,
          0.003998639527708292,
          0.004113413393497467,
          -0.018133487552404404,
          0.01131514087319374,
          -0.008066405542194843,
          0.003732495941221714,
          0.06859932094812393,
          -0.003447679802775383,
          -0.018675899133086205,
          0.02951751835644245,
          0.011777148582041264,
          -0.014576392248272896,
          -0.034247025847435,
          -0.034745194017887115,
          -0.043412186205387115,
          -0.010921069420874119,
          0.002347079571336508,
          0.061049338430166245,
          -0.016221195459365845,
          0.0005150085198692977,
          -0.004042680375277996,
          -0.2929188907146454,
          -0.008720546029508114,
          0.013853076845407486,
          -0.04424513503909111,
          -0.03459816798567772,
          0.12244734913110733,
          -0.017417587339878082,
          -0.003210176480934024,
          0.06629794090986252,
          -0.021578561514616013,
          -0.002189106773585081,
          -0.024102162569761276
        ],
        [
          0.018574729561805725,
          -0.00916487630456686,
          -0.026832295581698418,
          -0.011452317237854004,
          -0.029840150848031044,
          -0.19457300007343292,
          -0.01752217672765255,
          -0.034852880984544754,
          -0.05208386853337288,
          -0.0026805622037500143,
          -0.011254777200520039,
          -0.07209064066410065,
          -0.027438992634415627,
          -0.003504350548610091,
          0.004852943122386932,
          -0.025898443534970284,
          -0.01396195963025093,
          0.00022737683320883662,
          0.0020472563337534666,
          -0.06424477696418762,
          -0.0011517067905515432,
          -0.001173610333353281,
          -0.02158493734896183,
          0.6842981576919556,
          0.00147769704926759,
          0.029016343876719475,
          -0.005232558585703373,
          0.012888183817267418,
          0.021401438862085342,
          -0.05687456578016281,
          0.01135498657822609,
          -0.00040113856084644794,
          0.0059292311780154705,
          0.021133851259946823,
          -0.006245914380997419,
          0.005035963375121355,
          0.022887444123625755,
          0.041657429188489914,
          -0.00031300101545639336,
          -0.0007311639492399991,
          -0.022319620475172997,
          -0.013726122677326202,
          0.006470088846981525,
          0.08607611805200577,
          0.0018420479027554393,
          0.0051231300458312035,
          0.003666843054816127,
          -0.023147961124777794,
          -0.01645630970597267,
          -0.012332459911704063,
          -0.006928096059709787,
          -0.026525115594267845,
          0.004825086798518896,
          0.02174014039337635,
          0.02279660664498806,
          -0.010844257660210133,
          0.010117723606526852,
          -0.0026593031361699104,
          -0.027292070910334587,
          -0.035204630345106125,
          0.004318442195653915,
          0.020654071122407913,
          0.020956555381417274,
          -0.02510685659945011,
          0.056383196264505386,
          -0.0007726463954895735,
          0.0008570244535803795,
          0.0019800467416644096,
          -0.022524714469909668,
          -0.00841254461556673,
          -0.01896369829773903,
          -0.02188229002058506,
          0.04283691570162773,
          -0.024034807458519936,
          -0.01278404425829649,
          -0.03472968935966492,
          0.009010903537273407,
          -0.02354559488594532,
          -0.0091751953586936,
          0.045047905296087265,
          0.13246150314807892,
          0.00964463222771883,
          -0.04529983177781105,
          0.7343865633010864,
          0.06664220243692398,
          -0.036602411419153214,
          -0.007202992681413889,
          -0.006330716889351606,
          -0.05913126841187477,
          0.0013967060949653387,
          -0.01202731765806675,
          0.007859284989535809,
          0.03358682617545128,
          -0.032064665108919144,
          0.017844796180725098,
          -0.15809591114521027,
          -0.05563126131892204,
          -0.04401832073926926,
          0.05766453593969345,
          -0.015828030183911324,
          -0.041991226375103,
          -0.013467490673065186,
          0.018679890781641006,
          0.6308637261390686,
          -0.020353015512228012,
          -0.05286462977528572,
          -0.03128138557076454,
          0.11761753261089325,
          -0.011130842380225658,
          0.006530129816383123,
          0.0032817742321640253,
          -0.0054829600267112255,
          0.009857031516730785,
          0.0018669149139896035,
          -0.0078072925098240376,
          -0.0094063188880682,
          -0.0076772007159888744,
          -0.013973444700241089,
          -0.0007553909090347588,
          0.013374313712120056,
          0.003425406292080879,
          -0.03095804527401924,
          -0.021725377067923546,
          -0.0044908905401825905,
          -0.010464316233992577,
          0.0025198415387421846,
          -0.0018015968380495906,
          -0.01583387516438961,
          0.0003880869480781257,
          0.015486354008316994,
          -0.15262772142887115,
          -0.007391392719000578,
          0.02220762148499489,
          -0.04633476212620735,
          -0.009058714844286442,
          0.06000073254108429,
          0.028540970757603645,
          0.0024925607722252607,
          0.02297360822558403,
          -0.014353642240166664,
          0.0005386629491113126,
          -0.03743933513760567
        ],
        [
          0.02116839401423931,
          -0.03972266614437103,
          -0.02689901739358902,
          -0.012958499602973461,
          0.0445953831076622,
          -0.02196558192372322,
          -0.022311775013804436,
          -0.03768615797162056,
          -0.024708060547709465,
          0.017132507637143135,
          -0.02773291803896427,
          0.10265438258647919,
          -0.02419428713619709,
          0.0026956459041684866,
          0.008920500054955482,
          -0.03109646588563919,
          -0.015023814514279366,
          -0.04071756452322006,
          -0.004336158744990826,
          -0.0786738321185112,
          -0.016163701191544533,
          0.0017786804819479585,
          -0.020548038184642792,
          0.5926573276519775,
          -0.015603090636432171,
          0.019581396132707596,
          0.012610165402293205,
          0.010444557294249535,
          -0.00792031642049551,
          -0.04250955209136009,
          -0.0013039143523201346,
          0.01707584038376808,
          0.014726527035236359,
          0.23392851650714874,
          -0.002105374587699771,
          -0.022295428439974785,
          0.02199833281338215,
          0.042282361537218094,
          -0.0012941183522343636,
          -0.002430909313261509,
          0.010722334496676922,
          -0.015677560120821,
          -0.003181619103997946,
          0.03210333362221718,
          0.001251917565241456,
          0.007389912847429514,
          0.0024246596731245518,
          -0.0034199021756649017,
          -0.022608917206525803,
          -0.01958652399480343,
          -0.0020972052589058876,
          -0.032248806208372116,
          0.004660347476601601,
          0.019588161259889603,
          -0.010345240123569965,
          -0.010878253728151321,
          0.0087796775624156,
          -0.0006437686388380826,
          -0.04294799268245697,
          -0.04083181172609329,
          0.003774011041969061,
          0.025285212323069572,
          0.020862964913249016,
          -0.020002802833914757,
          -0.014358626678586006,
          -0.023717571049928665,
          0.008316042833030224,
          0.002922594314441085,
          0.06125495210289955,
          0.01361149549484253,
          -0.0025300050619989634,
          -0.028894666582345963,
          0.01384647935628891,
          -0.037754714488983154,
          -0.0011691220570355654,
          -0.021537456661462784,
          0.01200181432068348,
          -0.0007554555195383728,
          0.018956458196043968,
          0.10953608900308609,
          0.013417709618806839,
          0.012558714486658573,
          -0.039445552974939346,
          0.6081579327583313,
          0.054319560527801514,
          -0.044371142983436584,
          -0.00024505186593160033,
          0.009469869546592236,
          -0.056587379425764084,
          0.0008803326054476202,
          -0.023685123771429062,
          0.0015372761990875006,
          0.12706786394119263,
          -0.03842804953455925,
          0.03402235358953476,
          -0.03691692650318146,
          -0.0540403351187706,
          -0.04071914777159691,
          0.13975878059864044,
          -0.046096209436655045,
          -0.040463387966156006,
          -0.01304888166487217,
          0.01681286096572876,
          0.5031524300575256,
          -0.021163301542401314,
          -0.03510831668972969,
          -0.031245317310094833,
          0.12984246015548706,
          -0.008608960546553135,
          0.007047003600746393,
          0.003581918077543378,
          -0.008592129684984684,
          0.021801872178912163,
          0.01206980925053358,
          -0.010759091004729271,
          0.03857499733567238,
          -0.022868581116199493,
          -0.030526362359523773,
          -0.011200574226677418,
          0.012372739613056183,
          0.006321885157376528,
          -0.037481989711523056,
          -0.0261901393532753,
          -0.0582658052444458,
          -0.006352443713694811,
          0.001680647605098784,
          0.013661053031682968,
          -0.02977759763598442,
          0.0001975542400032282,
          0.01134631596505642,
          0.032597124576568604,
          -0.00705290399491787,
          0.016832569614052773,
          -0.07728163152933121,
          -0.02057351917028427,
          0.028453802689909935,
          0.16140179336071014,
          0.004545200150460005,
          0.13324537873268127,
          -0.011587477289140224,
          0.005894283764064312,
          -0.040659479796886444
        ],
        [
          0.015468391589820385,
          0.019505424425005913,
          -0.029222724959254265,
          -0.00010951839067274705,
          -0.01407511718571186,
          -0.06481517106294632,
          -0.012399275787174702,
          -0.024828525260090828,
          -0.03748026862740517,
          -0.001317366841249168,
          -0.02010355144739151,
          -0.10783430933952332,
          -0.019883733242750168,
          -0.01298670843243599,
          0.007153393235057592,
          -0.02229584939777851,
          -0.01931103691458702,
          0.030485693365335464,
          0.011549913324415684,
          -0.07806396484375,
          0.012527111917734146,
          -0.01108860969543457,
          -0.017994243651628494,
          0.4255559742450714,
          0.007854756899178028,
          0.022711003199219704,
          0.03237504884600639,
          0.006567372474819422,
          0.00781923532485962,
          -0.055972568690776825,
          0.012469751760363579,
          0.006282147020101547,
          0.00997257512062788,
          -0.11282902210950851,
          -0.0047346195206046104,
          0.03063841164112091,
          0.04540695250034332,
          -0.1320289522409439,
          -0.009630226530134678,
          -0.0010455099400132895,
          -0.008516254834830761,
          -0.0022651045583188534,
          0.00646732933819294,
          0.11251548677682877,
          0.00462047103792429,
          0.00928290095180273,
          4.094950782018714e-06,
          -0.05466187745332718,
          -0.008245010860264301,
          -0.020048310980200768,
          -0.0019243297865614295,
          -0.023745819926261902,
          0.003268980421125889,
          0.013126449659466743,
          0.00406064884737134,
          -0.0029729956295341253,
          0.0050272466614842415,
          0.0006440116558223963,
          -0.030168520286679268,
          -0.03571067377924919,
          -0.003624825505539775,
          0.007812834344804287,
          0.006762916687875986,
          -0.03836265578866005,
          0.1372600495815277,
          0.0007425793446600437,
          -0.0014822665834799409,
          0.008357161656022072,
          -0.03548193722963333,
          0.012146028690040112,
          -0.022902511060237885,
          -0.02477409318089485,
          0.020305078476667404,
          -0.017924435436725616,
          -0.010629119351506233,
          -0.035674087703228,
          0.0038030578289180994,
          -0.02033582702279091,
          -0.014622615650296211,
          0.019392263144254684,
          0.16138024628162384,
          0.013036075979471207,
          -0.03434152528643608,
          0.4710257351398468,
          0.0065743387676775455,
          -0.04516759142279625,
          -0.00359543738886714,
          0.0006915444973856211,
          -0.06063297763466835,
          -0.00022659824753645808,
          -0.020551767200231552,
          -0.002825247123837471,
          0.18092019855976105,
          -0.034431323409080505,
          0.03325127810239792,
          -0.03823560103774071,
          -0.04681970179080963,
          -0.04644162952899933,
          -0.02503334730863571,
          -0.03851770982146263,
          -0.038628797978162766,
          0.02015775628387928,
          0.005460511427372694,
          0.4206385314464569,
          -0.011441247537732124,
          -0.04862288385629654,
          -0.025823861360549927,
          0.21703064441680908,
          -0.02004058286547661,
          0.00818256288766861,
          0.001662615453824401,
          -0.0037945795338600874,
          -0.0009811574127525091,
          -0.0023889385629445314,
          0.003121620509773493,
          0.0035484102554619312,
          0.01266132015734911,
          -0.018561765551567078,
          0.034730348736047745,
          0.003427396295592189,
          0.0035533851478248835,
          -0.026319246739149094,
          -0.021958572790026665,
          -0.05889362841844559,
          -0.00651797978207469,
          0.001149984891526401,
          0.035032305866479874,
          -0.030319511890411377,
          4.305635593482293e-05,
          0.012030888348817825,
          -0.05722479149699211,
          0.003925249446183443,
          0.009409189224243164,
          -0.07739926874637604,
          -0.014561560936272144,
          0.0763043612241745,
          0.06706886738538742,
          0.01053527183830738,
          -0.009858433157205582,
          -0.013165885582566261,
          0.007007095031440258,
          -0.024269195273518562
        ],
        [
          0.005067204590886831,
          -0.01071878895163536,
          -0.02676687017083168,
          -0.016780564561486244,
          0.06237967684864998,
          -0.049131959676742554,
          -0.02399413287639618,
          -0.026252584531903267,
          -0.05502140894532204,
          0.0028873146511614323,
          -0.03174217790365219,
          -0.06982008367776871,
          -0.0282755084335804,
          0.00589856319129467,
          0.0027526698540896177,
          -0.018389351665973663,
          -0.01738438569009304,
          -0.0025174084585160017,
          -0.0037370321806520224,
          -0.03683600202202797,
          -0.027384206652641296,
          -0.010560888797044754,
          -0.020391397178173065,
          0.4052874743938446,
          0.005177095532417297,
          0.03455299511551857,
          0.014110720716416836,
          0.00781807117164135,
          0.01764351688325405,
          -0.03272027522325516,
          0.0021800894755870104,
          0.006841575726866722,
          0.006950812879949808,
          0.10288984328508377,
          0.0025398721918463707,
          0.009022969752550125,
          0.01090103480964899,
          0.08952070027589798,
          -0.010408413596451283,
          -0.007578134071081877,
          0.019195841625332832,
          -0.021732842549681664,
          -0.035318415611982346,
          0.13995422422885895,
          -0.0007539215730503201,
          0.006177924107760191,
          0.0025454701390117407,
          0.003042341908439994,
          -0.01594521850347519,
          -0.022999029606580734,
          -0.00740850530564785,
          -0.020252550020813942,
          0.004085846245288849,
          0.008335082791745663,
          0.013708620332181454,
          -0.029668143019080162,
          0.008159231394529343,
          -0.00283485883846879,
          -0.02312260866165161,
          -0.03933585807681084,
          0.006802944000810385,
          0.009402582421898842,
          0.008832015097141266,
          -0.00939511600881815,
          0.005595406051725149,
          -0.006761028431355953,
          -0.006444035097956657,
          0.0026618102565407753,
          0.1232762485742569,
          0.01925167627632618,
          -0.01028336863964796,
          -0.02788735367357731,
          -0.00647158594802022,
          -0.026717176660895348,
          -0.01590132713317871,
          -0.026532398536801338,
          0.010906614363193512,
          -0.017283445224165916,
          0.0256770309060812,
          0.03869698941707611,
          0.06653232127428055,
          0.009956209920346737,
          -0.04535502567887306,
          0.43135377764701843,
          -0.002403159160166979,
          -0.044226426631212234,
          -0.008109102956950665,
          -0.021182799711823463,
          -0.062264446169137955,
          0.0021770272869616747,
          -0.021884391084313393,
          -0.005506316665560007,
          0.026849176734685898,
          -0.012016929686069489,
          0.05881926789879799,
          -0.0077272444032132626,
          -0.051399994641542435,
          -0.037553224712610245,
          0.12954340875148773,
          -0.03148037567734718,
          -0.04033301770687103,
          0.000586520996876061,
          0.012170827016234398,
          0.3760581910610199,
          -0.032504867762327194,
          -0.0417245477437973,
          -0.023624060675501823,
          0.12250086665153503,
          -0.017660586163401604,
          0.0061968551017344,
          0.0029666859190911055,
          -0.010523227974772453,
          0.00815502554178238,
          -0.0006831736536696553,
          -0.014662251807749271,
          0.053113482892513275,
          -0.025608167052268982,
          -0.020011894404888153,
          0.02696550078690052,
          0.007408866658806801,
          0.0013889293186366558,
          -0.03171457350254059,
          -0.0255314689129591,
          -0.055271051824092865,
          -0.010850631631910801,
          0.002235368825495243,
          0.0738706886768341,
          -0.021008281037211418,
          0.00011798806372098625,
          0.0009721893002279103,
          -0.057317301630973816,
          -0.019471164792776108,
          0.017950404435396194,
          -0.043882180005311966,
          -0.018061650916934013,
          0.08153361082077026,
          -0.08851505815982819,
          0.0001074012543540448,
          0.07364039868116379,
          -0.01645785942673683,
          -0.0013860610779374838,
          -0.03670277073979378
        ],
        [
          0.037089064717292786,
          -0.012961926870048046,
          -0.016562992706894875,
          -0.011322849430143833,
          0.014745991677045822,
          -0.012101898901164532,
          -0.03539663925766945,
          -0.035709913820028305,
          -0.032524269074201584,
          0.01173744723200798,
          -0.03120788186788559,
          0.032546065747737885,
          -0.032360877841711044,
          0.008200588636100292,
          0.010145720094442368,
          -0.03810487687587738,
          -0.01335264090448618,
          0.011878089047968388,
          -0.0005886138533242047,
          -0.04317149519920349,
          -0.009633034467697144,
          0.001041169511154294,
          -0.01839165762066841,
          0.3074356019496918,
          -0.008074220269918442,
          0.010310490615665913,
          -0.0002562903391662985,
          0.00690962839871645,
          -0.004151699133217335,
          -0.004691020585596561,
          0.007533437106758356,
          0.02559412457048893,
          0.016624843701720238,
          0.06312233209609985,
          0.005863084923475981,
          -0.014830867759883404,
          0.03804875910282135,
          0.042567841708660126,
          0.00204890756867826,
          0.003453020006418228,
          0.006074575241655111,
          -0.01563434675335884,
          -0.00577155128121376,
          0.16710850596427917,
          0.004239206202328205,
          0.010958448052406311,
          -7.957568413985427e-06,
          0.07264813780784607,
          -0.022173665463924408,
          -0.00894985906779766,
          0.00036880525294691324,
          -0.03272073715925217,
          0.0014849856961518526,
          0.014740986749529839,
          -0.005836403928697109,
          -0.013527881354093552,
          0.0043074749410152435,
          0.00010575899796094745,
          -0.03659476339817047,
          -0.03302381560206413,
          -0.00041293102549389005,
          0.016096206381917,
          0.01577078178524971,
          -0.03303147852420807,
          0.019062025472521782,
          0.0011508328607305884,
          0.009864004328846931,
          0.0071541983634233475,
          0.0704873651266098,
          -0.006052747834473848,
          -0.0021062728483229876,
          -0.017244743183255196,
          0.008553724735975266,
          -0.028913676738739014,
          -0.0055181416682899,
          -0.01545601338148117,
          0.007544296327978373,
          -0.005199413280934095,
          -0.00604158965870738,
          0.022332128137350082,
          0.05173703655600548,
          0.013098273426294327,
          -0.02960197813808918,
          0.35066813230514526,
          0.03280745819211006,
          -0.05034647881984711,
          0.002075300784781575,
          -0.002500540344044566,
          -0.05216611549258232,
          -0.002401363803073764,
          -0.029919931665062904,
          0.0065696947276592255,
          0.023364635184407234,
          -0.012414656579494476,
          -0.007186749950051308,
          0.022796444594860077,
          -0.05144780874252319,
          -0.031726960092782974,
          0.15081626176834106,
          -0.004253898747265339,
          -0.03176567330956459,
          -0.004636607598513365,
          0.010431258007884026,
          0.2787517309188843,
          -0.05279332026839256,
          -0.04785638675093651,
          -0.028836671262979507,
          0.060274887830019,
          -0.02837708219885826,
          0.010084452107548714,
          0.0006060362211428583,
          -0.0014309443067759275,
          0.014232710935175419,
          0.00697863707318902,
          -0.014006533659994602,
          -0.005110731814056635,
          -0.01879522018134594,
          -0.02027588151395321,
          0.0013987116981297731,
          0.006626953836530447,
          0.011746305041015148,
          -0.025654824450612068,
          -0.015879807993769646,
          -0.04574534296989441,
          -0.006858188193291426,
          0.0006283408147282898,
          0.0243893601000309,
          -0.03374234959483147,
          -7.131749589461833e-05,
          0.01603015884757042,
          0.032268304377794266,
          -0.00728102819994092,
          0.017058568075299263,
          -0.07134543359279633,
          -0.012364930473268032,
          0.01705770567059517,
          -0.032665498554706573,
          0.009257564321160316,
          0.07578864693641663,
          -0.0068814135156571865,
          0.006697972770780325,
          -0.029634036123752594
        ],
        [
          0.014753736555576324,
          0.004205200355499983,
          -0.019718313589692116,
          -0.006827936973422766,
          0.02675357647240162,
          0.030797073617577553,
          -0.032069507986307144,
          -0.028830882161855698,
          -0.03002280183136463,
          0.008889390155673027,
          -0.024390634149312973,
          0.029678869992494583,
          -0.03203355148434639,
          -0.005872487090528011,
          0.0026141544803977013,
          -0.020673135295510292,
          -0.023770004510879517,
          -0.01607736200094223,
          0.007931680418550968,
          -0.07147674262523651,
          -0.001585161779075861,
          -0.014174784533679485,
          -0.012759760953485966,
          0.2737806439399719,
          0.008060113526880741,
          0.04764361307024956,
          0.012581851333379745,
          0.008994439616799355,
          0.02114682085812092,
          -0.022659843787550926,
          0.013556046411395073,
          0.016590647399425507,
          0.006569990888237953,
          0.1707807034254074,
          0.0020898079965263605,
          0.02323870174586773,
          0.04363864287734032,
          -0.06544136255979538,
          -0.013450784608721733,
          -0.013301365077495575,
          -0.025140982121229172,
          0.004481850191950798,
          0.005989891476929188,
          0.1065225675702095,
          -0.00048004768905229867,
          0.0032843274530023336,
          0.002541195834055543,
          0.1863209307193756,
          -0.006010311655700207,
          -0.03155379369854927,
          -0.006579442881047726,
          -0.0340791791677475,
          0.008881025947630405,
          0.0020923397969454527,
          0.012116624042391777,
          -0.003895774483680725,
          0.011147452518343925,
          -0.002544895512983203,
          -0.03354981914162636,
          -0.043654631823301315,
          0.004477385431528091,
          0.026724031195044518,
          0.01159695815294981,
          -0.02635723538696766,
          0.058304160833358765,
          0.02142091654241085,
          -0.004419309552758932,
          0.0028233006596565247,
          0.12069445103406906,
          0.006801215000450611,
          -0.017298394814133644,
          -0.022293422371149063,
          0.023578260093927383,
          -0.023644354194402695,
          -0.004267449956387281,
          -0.03333287686109543,
          0.008410777896642685,
          -0.033347226679325104,
          0.0215349979698658,
          0.06629423052072525,
          -0.08958085626363754,
          0.004938778467476368,
          -0.0521370992064476,
          0.2788545489311218,
          0.04120788350701332,
          -0.04438139498233795,
          -0.005017788615077734,
          -0.00238458882085979,
          -0.06444387137889862,
          0.005414911545813084,
          -0.04192391782999039,
          -0.011101770214736462,
          0.08987767994403839,
          -0.02289721369743347,
          0.00796158891171217,
          0.009135800413787365,
          -0.047795381397008896,
          -0.03618963807821274,
          0.07703601568937302,
          -0.03485630080103874,
          -0.049063701182603836,
          0.01645323820412159,
          0.015358364209532738,
          0.257469117641449,
          -0.015665767714381218,
          -0.04756984859704971,
          -0.028279991820454597,
          0.15872956812381744,
          -0.004874877631664276,
          0.002909757662564516,
          0.004120492376387119,
          -0.014164919964969158,
          0.01017070934176445,
          -0.010877440683543682,
          0.0005056104273535311,
          0.04242916405200958,
          0.0023635844700038433,
          -0.02531561814248562,
          0.043827421963214874,
          0.008971158415079117,
          -0.012712220661342144,
          -0.030770696699619293,
          -0.03363429382443428,
          -0.03217347711324692,
          -0.009207207709550858,
          0.002786003053188324,
          0.023165306076407433,
          -0.019797099754214287,
          0.00019828605582006276,
          0.0014869116712361574,
          0.053010232746601105,
          -0.0024127443321049213,
          0.015793198719620705,
          -0.04521940276026726,
          -0.03203462064266205,
          0.04593389108777046,
          -0.1968243420124054,
          0.004310442600399256,
          0.05519380047917366,
          -0.012266162782907486,
          0.000563852721825242,
          -0.03059406578540802
        ],
        [
          0.028377210721373558,
          -0.011866332031786442,
          -0.01815016008913517,
          -0.007692862302064896,
          0.01923026330769062,
          -0.08227931708097458,
          -0.0291450098156929,
          -0.030740508809685707,
          -0.06457621604204178,
          0.013543320819735527,
          -0.03396424651145935,
          0.08944469690322876,
          -0.027296770364046097,
          -0.0062392703257501125,
          0.007606243249028921,
          -0.025083761662244797,
          -0.018932128325104713,
          0.04674346745014191,
          0.0024096043780446053,
          -0.058027803897857666,
          -0.005780412349849939,
          -0.010597454383969307,
          -0.017303891479969025,
          0.1889093518257141,
          -0.005114291328936815,
          0.027015509083867073,
          -0.003346338402479887,
          0.00791906751692295,
          -0.0019012681441381574,
          -0.004753862973302603,
          0.007134959567338228,
          0.021703021600842476,
          0.01544889248907566,
          0.06595028936862946,
          0.010945823974907398,
          -0.0031425519846379757,
          0.01361535582691431,
          0.2210872769355774,
          -0.002739869523793459,
          -0.0027507266495376825,
          -0.002246746327728033,
          -0.0035759673919528723,
          0.006966283079236746,
          0.1417904943227768,
          0.0019439732423052192,
          0.00826836284250021,
          0.0014277402078732848,
          0.21331319212913513,
          -0.016502100974321365,
          -0.009729345329105854,
          -0.0027269672136753798,
          -0.03052874468266964,
          0.006340795196592808,
          -0.0002559670538175851,
          -0.004175964277237654,
          -0.007488167379051447,
          0.007361906114965677,
          0.0007496826583519578,
          -0.039299316704273224,
          -0.04032682999968529,
          0.0038356739096343517,
          0.00024058259441517293,
          0.009876561351120472,
          -0.010801298543810844,
          0.025019794702529907,
          0.01938261091709137,
          0.005726735573261976,
          0.007183910347521305,
          0.05810898542404175,
          0.005537779536098242,
          -0.011954271234571934,
          -0.01862589828670025,
          -0.010300200432538986,
          -0.022698966786265373,
          -0.0024226622190326452,
          -0.0227652657777071,
          0.009867573156952858,
          -0.021660977974534035,
          -0.0056824092753231525,
          0.006687983404844999,
          -0.20330733060836792,
          0.009191407822072506,
          -0.04039086773991585,
          0.2165336012840271,
          0.02868327684700489,
          -0.047056734561920166,
          -0.0004711663059424609,
          0.00822931807488203,
          -0.05818783491849899,
          0.0021614907309412956,
          -0.031637247651815414,
          -0.0022115742322057486,
          -0.009026620537042618,
          -0.04395492002367973,
          -0.016960114240646362,
          -0.08485128730535507,
          -0.05427100881934166,
          -0.03386107459664345,
          -0.0946134626865387,
          -0.010128781199455261,
          -0.04179589822888374,
          -0.0015371202025562525,
          0.01255810633301735,
          0.22647175192832947,
          -0.025481263175606728,
          -0.04874033480882645,
          -0.028765883296728134,
          0.07650266587734222,
          -0.0230155847966671,
          0.0067349146120250225,
          0.0024829444009810686,
          -0.0034179685171693563,
          0.01243785209953785,
          -0.0027129894588142633,
          -0.01133347861468792,
          0.0329919308423996,
          -0.002019466133788228,
          -0.02146928943693638,
          0.028785405680537224,
          0.005444479174911976,
          -0.001295990077778697,
          -0.0319799929857254,
          -0.01831030286848545,
          -0.011753526516258717,
          -0.006590783130377531,
          0.0011942696291953325,
          0.04003990441560745,
          -0.030059335753321648,
          0.0001481182553106919,
          0.007874373346567154,
          -0.03623710945248604,
          -0.004032372031360865,
          0.014557109214365482,
          -0.04068752005696297,
          -0.016139021143317223,
          -0.007258913945406675,
          -0.03150273486971855,
          0.007843484170734882,
          0.07551821321249008,
          -0.01112810242921114,
          0.006751320790499449,
          -0.03164101019501686
        ],
        [
          -0.016952859237790108,
          0.06179099157452583,
          -0.10294932126998901,
          0.004571818746626377,
          0.002670183777809143,
          -0.014820883981883526,
          -0.07305556535720825,
          0.09989206492900848,
          -0.023317409679293633,
          -0.021633721888065338,
          -0.09105939418077469,
          0.03540961816906929,
          -0.36499834060668945,
          0.03767944872379303,
          -0.05665317922830582,
          -0.013962782919406891,
          -0.04972029849886894,
          0.036004289984703064,
          -0.006622035056352615,
          0.014391656965017319,
          0.0016327814664691687,
          -0.041521262377500534,
          -0.11843971163034439,
          -0.04674777016043663,
          0.0651724711060524,
          0.0007104565156623721,
          -0.015812214463949203,
          -0.015995679423213005,
          -0.005373493302613497,
          -0.15961302816867828,
          -0.006988396402448416,
          -0.0037232553586363792,
          -0.0217507965862751,
          0.06470831483602524,
          0.04173244535923004,
          0.01932925544679165,
          -0.05934362858533859,
          -0.15209822356700897,
          -0.07230066508054733,
          0.02226318046450615,
          -0.029527688398957253,
          0.0028060765471309423,
          0.00419706292450428,
          -0.07360198348760605,
          -0.028664011508226395,
          -0.0008881629328243434,
          0.008114621974527836,
          -0.0061511998064816,
          0.012224525213241577,
          -0.18036788702011108,
          -0.04263398423790932,
          -0.10977844893932343,
          -0.021723130717873573,
          -0.02446531504392624,
          -0.006761579308658838,
          -0.025362206622958183,
          -0.028356973081827164,
          -0.03177148103713989,
          -0.04317234456539154,
          0.02618657611310482,
          -0.004634377080947161,
          0.001931899692863226,
          -0.046237651258707047,
          -0.1849367767572403,
          -0.004446458537131548,
          -0.06334957480430603,
          -0.05686471238732338,
          0.01510607823729515,
          0.09753627330064774,
          -0.01827862113714218,
          -0.01730189472436905,
          -0.23617257177829742,
          -0.015407712198793888,
          0.08463667333126068,
          -0.0315437987446785,
          -0.07676025480031967,
          0.02992434799671173,
          -0.033753518015146255,
          -0.055810678750276566,
          -0.02862335555255413,
          -0.023195205256342888,
          0.001592173590324819,
          -0.04335961863398552,
          0.06545642763376236,
          0.04941237345337868,
          0.022054210305213928,
          -0.0436328686773777,
          -0.06031535565853119,
          0.012697683647274971,
          0.021639840677380562,
          -0.015642056241631508,
          -0.016472242772579193,
          -0.015026520937681198,
          -0.13010132312774658,
          -0.06120868772268295,
          -0.05489753186702728,
          0.10055854171514511,
          -0.006185765843838453,
          -0.07265577465295792,
          -0.19207748770713806,
          0.00884485524147749,
          -0.023389102891087532,
          -0.022819243371486664,
          0.06751987338066101,
          -0.39438748359680176,
          0.01899731531739235,
          -0.4403492212295532,
          0.01919504627585411,
          -0.09782841056585312,
          -0.008879177272319794,
          -0.017698628827929497,
          -0.001758259953930974,
          -0.05002609267830849,
          -0.010251193307340145,
          -0.018542993813753128,
          0.01128665916621685,
          -0.038728803396224976,
          0.04469376057386398,
          0.0029933019541203976,
          -0.048078857362270355,
          0.04531193524599075,
          0.07669113576412201,
          0.040694866329431534,
          -0.44042709469795227,
          -0.03724981099367142,
          0.007936736568808556,
          0.055923596024513245,
          -0.08234699070453644,
          -0.0025105138774961233,
          -0.023791369050741196,
          -0.07456696033477783,
          0.00788140669465065,
          -0.019505316391587257,
          0.1561775952577591,
          0.03731238469481468,
          0.02857571467757225,
          0.06333586573600769,
          0.0013166212011128664,
          0.013670376501977444,
          -0.10881926119327545,
          -0.05252000689506531,
          0.07615196704864502
        ],
        [
          -0.06587545573711395,
          0.03084966167807579,
          -0.060530006885528564,
          0.007086468394845724,
          0.013699525035917759,
          -0.007028308697044849,
          0.008023718371987343,
          0.020381346344947815,
          0.1866271197795868,
          0.011952592059969902,
          0.07098933309316635,
          0.07202804088592529,
          -0.1385047435760498,
          0.028246132656931877,
          -0.03126545622944832,
          -0.057463567703962326,
          0.04416075348854065,
          0.04983113333582878,
          0.02306954935193062,
          0.04673190787434578,
          -0.032797057181596756,
          0.04620718955993652,
          -0.24828305840492249,
          0.13569770753383636,
          -0.04233674705028534,
          -0.020537497475743294,
          0.03956511244177818,
          -0.03759774938225746,
          -0.01972232200205326,
          0.11881135404109955,
          -0.05555321276187897,
          -0.026024136692285538,
          0.029622510075569153,
          0.09038610756397247,
          0.03393540903925896,
          0.023012517020106316,
          -0.01354927383363247,
          0.06265787780284882,
          -0.16651301085948944,
          -0.2520834505558014,
          0.029568953439593315,
          -0.01097157783806324,
          -0.024780631065368652,
          -0.005212619435042143,
          -0.027919160202145576,
          0.02382592298090458,
          -0.010139350779354572,
          0.03197971358895302,
          0.009705957025289536,
          -0.3834899961948395,
          -0.008589489385485649,
          -0.07659056782722473,
          -0.010258499532938004,
          0.030306536704301834,
          -0.006380015518516302,
          -0.029829775914549828,
          -0.01061258651316166,
          -0.03127516061067581,
          0.10367415100336075,
          -0.10264580696821213,
          0.007414708379656076,
          -0.003576486837118864,
          -0.010740215890109539,
          -0.013459602370858192,
          -0.03008766658604145,
          -0.011249502189457417,
          -0.1011945828795433,
          -0.00439309049397707,
          0.035106003284454346,
          0.059610623866319656,
          0.022724006325006485,
          0.07583362609148026,
          0.008595132268965244,
          -0.37041962146759033,
          0.027336454018950462,
          0.05537962168455124,
          0.020222097635269165,
          0.0788600742816925,
          0.03586957976222038,
          0.024598632007837296,
          -0.0061930101364851,
          0.04300498589873314,
          -0.19218212366104126,
          0.025195002555847168,
          -0.022596821188926697,
          0.25693657994270325,
          -0.10568883270025253,
          -0.020953726023435593,
          0.1062667965888977,
          0.005908333696424961,
          -0.057782117277383804,
          -0.15846778452396393,
          0.03772858530282974,
          -0.0239319559186697,
          0.04884648323059082,
          -0.033253345638513565,
          -0.0939176082611084,
          0.09975305199623108,
          0.0977863222360611,
          -0.14979256689548492,
          -0.011783228255808353,
          0.03285900503396988,
          -0.02786923386156559,
          -0.07901101559400558,
          0.025562215596437454,
          0.18474139273166656,
          0.07327032089233398,
          0.07982790470123291,
          0.07293859124183655,
          0.0096205472946167,
          -0.012621903792023659,
          -0.16451513767242432,
          0.015094907023012638,
          0.0213538259267807,
          0.029519693925976753,
          0.04151047021150589,
          0.03825141116976738,
          -0.23175954818725586,
          0.03955994173884392,
          -0.01923094503581524,
          -0.06336270272731781,
          -0.16925950348377228,
          -0.41455188393592834,
          -0.15685078501701355,
          -0.003196307923644781,
          -0.009459169581532478,
          0.035593099892139435,
          -0.10782232880592346,
          -0.0029767300002276897,
          -0.03941033408045769,
          0.09657711535692215,
          -0.01221533678472042,
          -0.04266004264354706,
          -0.08466588705778122,
          -0.22813314199447632,
          0.01696126163005829,
          -0.041984159499406815,
          -0.0176132433116436,
          0.009553865529596806,
          -0.20110058784484863,
          -0.05001288279891014,
          -0.10017082840204239
        ],
        [
          0.03415199741721153,
          -0.1897958368062973,
          0.0592721626162529,
          7.156710489653051e-05,
          -0.11212238669395447,
          -0.16167397797107697,
          -0.10283590853214264,
          -0.06355643272399902,
          -0.22354012727737427,
          0.004043707624077797,
          -0.0654418021440506,
          -0.08909114450216293,
          0.03344760090112686,
          -0.12236165255308151,
          -0.01683945767581463,
          -0.1859872192144394,
          -0.0003680017252918333,
          -0.29056984186172485,
          -0.0691695436835289,
          -0.15611900389194489,
          -0.10898102074861526,
          0.011839514598250389,
          0.035107143223285675,
          -0.011020638048648834,
          -0.05080580338835716,
          0.009671386331319809,
          -0.22962194681167603,
          0.024115515872836113,
          0.020526250824332237,
          -0.05243010073900223,
          0.011130241677165031,
          -0.007440757937729359,
          -0.014814203605055809,
          0.24677161872386932,
          -0.0833493322134018,
          -0.023764532059431076,
          -0.13304366171360016,
          0.187717467546463,
          0.0021712379530072212,
          -0.009731817059218884,
          0.10427982360124588,
          -0.004659267608076334,
          -0.1939990073442459,
          0.3141515851020813,
          -0.01479293592274189,
          -0.012842164374887943,
          0.024670002982020378,
          -0.0972907617688179,
          -0.023976268246769905,
          0.01312083750963211,
          -0.03763880580663681,
          -0.12549373507499695,
          0.003417899366468191,
          -0.06783141195774078,
          0.012800429947674274,
          -0.13428786396980286,
          0.007037811446934938,
          -0.018687061965465546,
          -0.037034377455711365,
          -0.026685869321227074,
          0.004220027942210436,
          -0.06537420302629471,
          0.015379343181848526,
          -0.13002701103687286,
          -0.2653883099555969,
          -0.008816398680210114,
          -0.0026712229009717703,
          0.00447042053565383,
          0.29086241126060486,
          -0.050779856741428375,
          -0.02902393415570259,
          -0.0031184246763587,
          -0.21153341233730316,
          0.028598353266716003,
          -0.03637690097093582,
          -0.03206504136323929,
          0.010406246408820152,
          -0.007077908609062433,
          -0.04286326840519905,
          -0.11815759539604187,
          0.015627311542630196,
          -0.02355899289250374,
          0.026302959769964218,
          -0.02429937571287155,
          0.15421810746192932,
          -0.18584246933460236,
          0.0016967672854661942,
          -0.005264208186417818,
          -0.021858226507902145,
          -0.009999292902648449,
          -0.21787886321544647,
          0.03670484572649002,
          -0.3052765727043152,
          -0.18353477120399475,
          -0.008993295952677727,
          -0.1308489292860031,
          -0.06939905881881714,
          0.05669248476624489,
          0.3053695857524872,
          0.07127910107374191,
          -0.029219379648566246,
          -0.16123169660568237,
          0.011211342178285122,
          0.013625242747366428,
          -0.013357212767004967,
