{
  "layers": [
    {
      "name": "hidden_layer_1",
      "type": "dense",
      "input_size": 71,
      "output_size": 142,
      "activation": "silu",
      "weights": [
        [
          -0.18113459646701813,
          -0.1354503184556961,
          0.13163438439369202,
          0.04003585875034332,
          -0.14897309243679047,
          0.09734836220741272,
          0.1286115199327469,
          -0.11866574734449387,
          -0.06636983156204224,
          -0.029367201030254364,
          -0.03475238010287285,
          -0.12010763585567474,
          -0.13958413898944855,
          0.07554282993078232,
          -0.12190920859575272,
          -0.09409450739622116,
          -0.015620156191289425,
          0.02248121052980423,
          0.10825979709625244,
          0.06137260049581528,
          -0.021001435816287994,
          -0.022952690720558167,
          -0.04808066785335541,
          -0.05554257333278656,
          -0.16435110569000244,
          -0.023135162889957428,
          -0.025742821395397186,
          0.08738871663808823,
          0.07067060470581055,
          0.03960809111595154,
          0.03841699659824371,
          0.09771712124347687,
          -0.01798119768500328,
          0.14498920738697052,
          -0.17562399804592133,
          0.18467150628566742,
          0.1017487570643425,
          0.14041483402252197,
          0.1215934008359909,
          0.10296256840229034,
          -0.12581337988376617,
          -0.06238808110356331,
          -0.16187529265880585,
          -0.11597639322280884,
          0.056474920362234116,
          0.02977716736495495,
          -0.13137765228748322,
          -0.11698908358812332,
          -0.11623308807611465,
          -0.12041475623846054,
          -0.05263339728116989,
          -0.014378651976585388,
          0.004785355180501938,
          -0.11767666041851044,
          0.15362417697906494,
          -0.061498336493968964,
          -0.046317923814058304,
          -0.12768453359603882,
          0.1406603306531906,
          0.10636606067419052,
          -0.06124536320567131,
          0.039284974336624146,
          0.09512670338153839,
          0.08491933345794678,
          -0.08179058879613876,
          -0.005516043398529291,
          0.18875591456890106,
          -0.09681104868650436,
          -0.1499607414007187,
          -0.09864270687103271,
          0.12126117199659348,
          0.17390216886997223,
          0.10397481918334961,
          -0.18109680712223053,
          0.03457185626029968,
          -0.002511407481506467,
          -0.17883053421974182,
          0.07841742038726807,
          -0.08772432804107666,
          0.03046991117298603,
          0.05588379502296448,
          0.11620660126209259,
          0.07397256791591644,
          -0.0055621895007789135,
          0.07661483436822891,
          0.10307607054710388,
          -0.021290071308612823,
          -0.09563402831554413,
          -0.05603614076972008,
          0.005462075117975473,
          -0.07641363143920898,
          -0.044226016849279404,
          0.15884363651275635,
          0.01639041118323803,
          0.08157090842723846,
          -0.02037610486149788,
          0.09250989556312561,
          0.02349899336695671,
          0.11892401427030563,
          -0.032879505306482315,
          -0.1503145396709442,
          -0.08763765543699265,
          -0.14821507036685944,
          0.04730689898133278,
          0.04932832345366478,
          -0.15963898599147797,
          -0.05810140073299408,
          0.11352834850549698,
          0.09699983149766922,
          0.07152965664863586,
          0.20713068544864655,
          -0.085963174700737,
          -0.06794881075620651,
          -0.013818055391311646,
          0.0911923199892044,
          0.0856577605009079,
          0.1380072832107544,
          -0.0015328559093177319,
          -0.20051033794879913,
          -0.1492544710636139,
          0.09986991435289383,
          0.01249968633055687,
          -0.07139438390731812,
          0.01909608393907547,
          -0.13019774854183197,
          0.04299215227365494,
          -0.06931380927562714,
          0.1039101853966713,
          0.11103074997663498,
          -0.15745270252227783,
          0.1233845055103302,
          0.12394540011882782,
          0.011268267408013344,
          -0.045577459037303925,
          -0.08256655186414719,
          0.03335754573345184,
          0.10440615564584732,
          0.036970898509025574,
          0.06047147139906883,
          -0.06893362104892731,
          0.08248862624168396,
          0.002314814366400242
        ],
        [
          0.1462336778640747,
          0.06746171414852142,
          0.14638738334178925,
          -0.010808948427438736,
          -0.058538906276226044,
          0.0012664153473451734,
          -0.06910652667284012,
          0.10583241283893585,
          0.13668203353881836,
          -0.10019891709089279,
          0.02759365364909172,
          -0.05727814510464668,
          -0.05725649744272232,
          -0.07860138267278671,
          -0.008082288317382336,
          0.0709318295121193,
          -0.05137119069695473,
          -0.06123599782586098,
          0.10084141045808792,
          0.09726116806268692,
          -0.033262480050325394,
          0.1545693576335907,
          -0.062149059027433395,
          0.07945922762155533,
          0.10498430579900742,
          0.07579876482486725,
          0.07207652926445007,
          0.02442532777786255,
          -0.10580168664455414,
          0.0037575294263660908,
          -0.007993901148438454,
          0.16082647442817688,
          -0.05226270109415054,
          0.08087514340877533,
          0.09597156196832657,
          -0.0897727981209755,
          -0.14977242052555084,
          0.032572563737630844,
          -0.05054328963160515,
          0.048752572387456894,
          -0.12361995130777359,
          0.03645724803209305,
          0.07404933869838715,
          0.07011917233467102,
          -0.07446853071451187,
          -0.07077232748270035,
          0.06127827987074852,
          -0.10584839433431625,
          -0.0367659330368042,
          0.11211530864238739,
          -0.031828854233026505,
          -0.14092522859573364,
          -0.08205379545688629,
          0.048532214015722275,
          -0.057687707245349884,
          -0.037819575518369675,
          -0.10456030070781708,
          0.1262311041355133,
          -0.1339145451784134,
          0.08845628052949905,
          -0.07493149489164352,
          0.09390080720186234,
          -0.04528190195560455,
          -0.05086560547351837,
          -0.08346179872751236,
          0.025709008798003197,
          -0.09623322635889053,
          0.1384449005126953,
          0.08674289286136627,
          -0.06762120872735977,
          -0.04398955777287483,
          -0.04856502637267113,
          0.04966077581048012,
          0.09946948289871216,
          0.044573426246643066,
          -0.04234245419502258,
          0.020007124170660973,
          -0.025733530521392822,
          0.08763761818408966,
          -0.1419183760881424,
          0.021042389795184135,
          -0.10628044605255127,
          0.061130013316869736,
          0.059155259281396866,
          -0.07402177155017853,
          -0.14006876945495605,
          -0.0007305995095521212,
          -0.11465072631835938,
          -0.006419308949261904,
          -0.062216516584157944,
          -0.0064864568412303925,
          -0.08096285164356232,
          0.049129683524370193,
          0.14221274852752686,
          -0.11776890605688095,
          -0.11407715827226639,
          -0.0970180332660675,
          0.13865181803703308,
          -0.14739350974559784,
          -0.09661365300416946,
          -0.03438524901866913,
          0.0419914647936821,
          -0.06703825294971466,
          0.15007169544696808,
          0.10789965838193893,
          0.004103865008801222,
          -0.03435074910521507,
          0.1216367781162262,
          0.128697469830513,
          0.009149186313152313,
          0.1664198935031891,
          0.1116134449839592,
          -0.17473283410072327,
          -0.027428027242422104,
          -0.1344882994890213,
          0.07701520621776581,
          -0.12968876957893372,
          0.09162408113479614,
          -0.13016650080680847,
          -0.046183209866285324,
          0.04084490239620209,
          -0.11546662449836731,
          0.03257496654987335,
          -0.012291583232581615,
          -0.09987525641918182,
          -0.09720198810100555,
          -0.034001052379608154,
          0.10189248621463776,
          -0.12328444421291351,
          0.07889284193515778,
          -0.13750581443309784,
          0.1389935463666916,
          -0.021252017468214035,
          -0.08517447113990784,
          0.004316100850701332,
          0.1193571537733078,
          0.03063383884727955,
          0.00959044136106968,
          0.05979336425662041,
          0.13818348944187164,
          -0.09104882925748825,
          0.16791780292987823
        ],
        [
          0.029084445908665657,
          -0.10083239525556564,
          -0.025729840621352196,
          0.049702003598213196,
          -0.028682172298431396,
          -0.1239418014883995,
          -0.07089988887310028,
          -0.06049449369311333,
          -0.15884101390838623,
          -0.0965648964047432,
          -0.06543323397636414,
          -0.10127256065607071,
          0.08856001496315002,
          0.03104253113269806,
          -0.013148626312613487,
          0.12998752295970917,
          -0.04670459404587746,
          0.13590581715106964,
          -0.1389751136302948,
          -0.01341475360095501,
          -0.08704805374145508,
          -0.13112960755825043,
          -0.1041160523891449,
          0.05740776285529137,
          -0.014221999794244766,
          0.06574279069900513,
          -0.1100461483001709,
          -0.09437654912471771,
          -0.08491842448711395,
          0.02718982845544815,
          -0.12753096222877502,
          0.04097854346036911,
          0.0011107961181551218,
          0.06541051715612411,
          0.12013550102710724,
          0.040187813341617584,
          0.111570343375206,
          -0.024207329377532005,
          -0.1693529337644577,
          -0.03147942200303078,
          -0.058083780109882355,
          -0.04956388100981712,
          0.14993390440940857,
          0.14465971291065216,
          -0.0031085736118257046,
          0.15275061130523682,
          0.13502681255340576,
          0.04664282128214836,
          -0.08498560637235641,
          0.1437147855758667,
          -0.0631391778588295,
          0.0035497841890901327,
          -0.020747782662510872,
          0.0697273463010788,
          0.0743546262383461,
          -0.07327151298522949,
          0.02460354007780552,
          -0.13053123652935028,
          0.1275319904088974,
          0.12558722496032715,
          -0.015658684074878693,
          0.062454789876937866,
          0.15284499526023865,
          -0.1274224817752838,
          0.08716072142124176,
          0.08768255263566971,
          0.15616154670715332,
          -0.08722822368144989,
          -0.1729286015033722,
          -0.1308993399143219,
          0.08931566774845123,
          0.03854774683713913,
          0.1319112330675125,
          0.041600074619054794,
          -0.04508165270090103,
          -0.030467595905065536,
          -0.12078683078289032,
          0.03978414461016655,
          0.056498199701309204,
          0.11587843298912048,
          0.1406533271074295,
          0.026791496202349663,
          0.03356087580323219,
          0.03385253623127937,
          0.08667587488889694,
          -0.11975610256195068,
          0.1057371124625206,
          -0.0971018597483635,
          -0.09169894456863403,
          0.15724994242191315,
          0.06321589648723602,
          0.044685374945402145,
          0.08540693670511246,
          -0.0051449923776090145,
          0.07466680556535721,
          0.15694008767604828,
          -0.0184871107339859,
          0.06019918993115425,
          -0.03719579055905342,
          0.11747513711452484,
          -0.03353642299771309,
          0.13715742528438568,
          -0.12240835279226303,
          -0.1235981285572052,
          -0.02503775805234909,
          -0.08821099996566772,
          0.046691928058862686,
          -0.02996305748820305,
          -0.09035608172416687,
          -0.017585597932338715,
          -0.021211277693510056,
          -0.09204570204019547,
          -0.12492441385984421,
          -0.11975054442882538,
          -0.09421789646148682,
          -0.07387728244066238,
          0.020001301541924477,
          -0.03665603697299957,
          -0.052113667130470276,
          0.1425689160823822,
          0.06845314800739288,
          0.029848407953977585,
          -0.1361038088798523,
          0.009024353697896004,
          0.17801827192306519,
          0.1269359588623047,
          0.060401491820812225,
          -0.14718300104141235,
          0.10735273361206055,
          -0.030892716720700264,
          0.1336878538131714,
          0.08890081942081451,
          0.10236642509698868,
          -0.06089237332344055,
          -0.07174992561340332,
          -0.08210799843072891,
          0.024699179455637932,
          -0.02578696608543396,
          0.06545881181955338,
          0.09152145683765411,
          0.08636122941970825,
          -0.09670896828174591
        ],
        [
          -0.08156176656484604,
          0.1576155722141266,
          -0.09127966314554214,
          0.09437988698482513,
          -0.12229202687740326,
          -0.05055367574095726,
          0.013155522756278515,
          -0.006411280017346144,
          -0.16197332739830017,
          -0.14098989963531494,
          -0.12923572957515717,
          0.052265577018260956,
          0.05665562301874161,
          -0.11198381334543228,
          0.1765434443950653,
          -0.1413097083568573,
          -0.09470245242118835,
          -0.0072183748707175255,
          0.10732090473175049,
          -0.1494208127260208,
          -0.10709164291620255,
          0.03603143244981766,
          -0.0334634892642498,
          0.08325597643852234,
          -0.1475543975830078,
          -0.07063179463148117,
          -0.1327115148305893,
          0.11038406193256378,
          0.1255008727312088,
          0.11659952253103256,
          0.07414066791534424,
          -0.16283872723579407,
          -0.014120795764029026,
          0.05255689471960068,
          -0.01175712514668703,
          0.1307060569524765,
          0.09266868233680725,
          -0.005454867612570524,
          -0.12140113115310669,
          0.1475927084684372,
          0.09117402136325836,
          -0.05778706446290016,
          0.13096824288368225,
          -0.056522320955991745,
          -0.042409881949424744,
          0.15485167503356934,
          0.010116600431501865,
          0.07968098670244217,
          -0.05220422148704529,
          -0.07821387052536011,
          -0.09604141116142273,
          0.04772331193089485,
          0.08237138390541077,
          0.12245126813650131,
          0.01680622808635235,
          -0.007932992652058601,
          0.15503409504890442,
          -0.17376157641410828,
          -0.011597810313105583,
          0.016117863357067108,
          0.11104699969291687,
          0.09290467947721481,
          0.07224796712398529,
          0.05836188793182373,
          0.03955734521150589,
          -0.11822354793548584,
          -0.006167013198137283,
          0.05781153589487076,
          0.004560552071779966,
          -0.015286436304450035,
          -0.00254431483335793,
          -0.12090219557285309,
          0.0036506413016468287,
          -0.1475548893213272,
          0.01172188762575388,
          -0.11374729871749878,
          -0.14585629105567932,
          -0.1150532141327858,
          0.08314193040132523,
          0.13313059508800507,
          0.03204212710261345,
          0.0636681392788887,
          0.11779846251010895,
          -0.06291066110134125,
          0.0063466583378612995,
          -0.01105754915624857,
          0.11946184188127518,
          0.008948852308094501,
          -0.015017054043710232,
          -0.03253411129117012,
          0.0786273255944252,
          -0.04990797117352486,
          -0.17596164345741272,
          -0.1285863071680069,
          0.10163360834121704,
          -0.16018858551979065,
          -0.143246591091156,
          -0.15108026564121246,
          -0.13453200459480286,
          -0.08831845223903656,
          -0.01688261516392231,
          0.052987612783908844,
          -0.019689273089170456,
          -0.025825563818216324,
          -0.12390244007110596,
          -0.08996117115020752,
          -0.03363290801644325,
          0.1586504727602005,
          0.014516054652631283,
          0.0024772449396550655,
          -0.14773961901664734,
          0.051942188292741776,
          0.007524666376411915,
          0.0355752594769001,
          -0.02773396112024784,
          0.03260768949985504,
          0.14413993060588837,
          0.11605242639780045,
          -0.15109241008758545,
          0.036542005836963654,
          -0.035297948867082596,
          0.1371646225452423,
          -0.13489983975887299,
          -0.07808215171098709,
          -0.14517253637313843,
          0.10257163643836975,
          -0.0006660026265308261,
          0.0612935833632946,
          -0.07664697617292404,
          0.11776595562696457,
          0.18104678392410278,
          -0.06276965141296387,
          0.10435393452644348,
          0.056240346282720566,
          -0.021313536912202835,
          0.043787095695734024,
          -0.1116209626197815,
          0.09227965027093887,
          0.08591610193252563,
          -0.08250889927148819,
          -0.1290161907672882,
          -0.11472051590681076
        ],
        [
          -0.04622937738895416,
          0.10070754587650299,
          -0.07260777801275253,
          -0.03280012682080269,
          -0.1591215282678604,
          -0.1543208360671997,
          0.10607335716485977,
          0.0031679607927799225,
          -0.16883613169193268,
          0.040366239845752716,
          0.1395816057920456,
          0.0972176045179367,
          0.1220155730843544,
          -0.026185646653175354,
          0.08198294788599014,
          -0.1227571964263916,
          0.09859912842512131,
          0.010604162700474262,
          -0.11685287207365036,
          0.019345637410879135,
          -0.013902910053730011,
          -0.152694970369339,
          -0.11821167916059494,
          -0.13008436560630798,
          0.1490679383277893,
          -0.12036185711622238,
          0.04657670855522156,
          0.0077336435206234455,
          0.07668725401163101,
          0.1356368064880371,
          0.05147340148687363,
          -0.028992371633648872,
          0.09663894027471542,
          0.13656120002269745,
          -0.1677209734916687,
          0.012749007903039455,
          0.05733613297343254,
          0.10253478586673737,
          0.068751759827137,
          0.021725820377469063,
          0.09403397887945175,
          0.005431359633803368,
          0.13603785634040833,
          0.08302684128284454,
          0.04043857753276825,
          0.07186447829008102,
          0.09760332107543945,
          0.10648807138204575,
          -0.08051496744155884,
          -0.01750238984823227,
          -0.1657179743051529,
          0.09060847759246826,
          0.050644196569919586,
          -0.10367324948310852,
          -0.14266890287399292,
          -0.03708101063966751,
          -0.15938596427440643,
          -0.16584643721580505,
          0.06896742433309555,
          0.05386221408843994,
          0.023167071864008904,
          0.16460804641246796,
          -0.08940016478300095,
          -0.1244431659579277,
          -0.01544105913490057,
          0.12368698418140411,
          0.11760775744915009,
          -0.02985088713467121,
          -0.11442941427230835,
          -0.05438072606921196,
          0.038022201508283615,
          0.16155293583869934,
          0.15440358221530914,
          -0.09895170480012894,
          0.09771484136581421,
          -0.01063260156661272,
          0.07311588525772095,
          -0.1054723709821701,
          -0.01376295369118452,
          -0.0543413907289505,
          -0.08259903639554977,
          0.1510716676712036,
          0.09778785705566406,
          -0.11767233163118362,
          -0.1052267774939537,
          -0.09720493108034134,
          -0.08934326469898224,
          -0.10428091883659363,
          -0.14014405012130737,
          -0.12706683576107025,
          0.13643750548362732,
          -0.09154632687568665,
          0.07094073295593262,
          -0.0871131494641304,
          -0.013902470469474792,
          0.024754347279667854,
          -0.003185934154316783,
          -0.11752662062644958,
          0.1259946972131729,
          0.1602664291858673,
          -0.004161544609814882,
          0.05693779140710831,
          -0.01804199442267418,
          -0.11546172946691513,
          0.13259124755859375,
          0.1326299011707306,
          -0.01173489261418581,
          0.07039207965135574,
          0.11111031472682953,
          0.08098090440034866,
          0.1196574941277504,
          -0.09043415635824203,
          0.05398279055953026,
          0.13743533194065094,
          0.04870501533150673,
          -0.08453948050737381,
          0.004318869207054377,
          -0.07893253117799759,
          0.013696917332708836,
          0.0958406925201416,
          0.07559700310230255,
          -0.005551294889301062,
          0.02649758942425251,
          0.10055367648601532,
          0.11160334944725037,
          -0.004622966982424259,
          0.061723656952381134,
          0.16560570895671844,
          0.059453997761011124,
          -0.18447941541671753,
          0.008051356300711632,
          -0.046992041170597076,
          0.06591108441352844,
          0.07862434536218643,
          0.04664104804396629,
          0.14338429272174835,
          -0.10552660375833511,
          -0.03733110800385475,
          -0.06559819728136063,
          -0.10621702671051025,
          0.04211921989917755,
          -0.016354765743017197
        ],
        [
          -0.0858614519238472,
          0.12131902575492859,
          -0.1124904453754425,
          0.13653795421123505,
          -0.07446158677339554,
          0.11092568933963776,
          0.16774871945381165,
          0.023627663031220436,
          0.01582762971520424,
          -0.08345917612314224,
          0.12654227018356323,
          0.018803026527166367,
          0.14267849922180176,
          0.11513274163007736,
          -0.13553328812122345,
          -0.14306655526161194,
          0.02293350361287594,
          -0.0819900706410408,
          0.03184371069073677,
          0.07613914459943771,
          -0.1426861435174942,
          0.061809707432985306,
          -0.029627669602632523,
          -1.380925823468715e-05,
          0.05737686529755592,
          -0.16155125200748444,
          0.10159234702587128,
          0.0882130116224289,
          0.0425589457154274,
          -0.1362762749195099,
          0.09126465767621994,
          -0.08267027139663696,
          -0.0817641094326973,
          0.025107575580477715,
          0.06146586313843727,
          0.06068931892514229,
          0.046846527606248856,
          0.10658078640699387,
          0.12413883954286575,
          -0.05871376767754555,
          0.07260247319936752,
          0.01512119360268116,
          -0.029870720580220222,
          -0.12465068697929382,
          -0.12712600827217102,
          0.007702432572841644,
          0.08687514811754227,
          -0.0010461676865816116,
          0.08879445493221283,
          0.0808907225728035,
          0.004666544962674379,
          0.0945243388414383,
          0.1475612074136734,
          0.036417052149772644,
          -0.16255725920200348,
          0.07832349836826324,
          -0.11457918584346771,
          -0.030323991551995277,
          -0.0664101094007492,
          -0.08296260237693787,
          -0.10911473631858826,
          0.13460934162139893,
          -0.15796037018299103,
          0.0786096453666687,
          -0.05886233225464821,
          -0.14813420176506042,
          0.06988207995891571,
          0.0848754346370697,
          0.03587291017174721,
          -0.15315993130207062,
          -0.0633120983839035,
          -0.12362596392631531,
          -0.11682264506816864,
          0.05986957997083664,
          0.08929714560508728,
          0.07447513937950134,
          0.0068579367361962795,
          -0.07003379613161087,
          0.11639907211065292,
          -0.007354521192610264,
          -0.10529004782438278,
          -0.01011708378791809,
          0.07216604799032211,
          -0.14055538177490234,
          -0.15078376233577728,
          -0.09134741127490997,
          -0.04702780395746231,
          -0.06238023191690445,
          -0.1548783779144287,
          0.04819619655609131,
          0.11715070903301239,
          0.12100992351770401,
          -0.14733724296092987,
          0.07044397294521332,
          0.15285059809684753,
          -0.02730524353682995,
          -0.09597016125917435,
          -0.07906998693943024,
          0.07634386420249939,
          0.018453797325491905,
          -0.03527841344475746,
          -0.07137375324964523,
          0.16894038021564484,
          -0.0014714631251990795,
          -0.06445220857858658,
          0.16711483895778656,
          0.08907698839902878,
          0.04047011956572533,
          -0.06138255074620247,
          -0.16788461804389954,
          -0.14329607784748077,
          -0.11553061753511429,
          -0.06692592799663544,
          -0.15419548749923706,
          -0.05930791050195694,
          -0.026405993849039078,
          -0.048394475132226944,
          0.0508560985326767,
          0.13328179717063904,
          -0.12189046293497086,
          0.14610393345355988,
          0.061777085065841675,
          0.12424077093601227,
          0.14328914880752563,
          0.1630822718143463,
          0.10352964699268341,
          -0.1507955640554428,
          -0.0984855592250824,
          0.031157219782471657,
          0.055596645921468735,
          -0.0820060521364212,
          0.04910915344953537,
          0.16467611491680145,
          0.16718757152557373,
          -0.13939328491687775,
          0.16078586876392365,
          0.017739664763212204,
          -0.15036749839782715,
          -0.13106292486190796,
          0.17127439379692078,
          0.07330765575170517,
          -0.019364289939403534
        ],
        [
          0.051876187324523926,
          0.13625742495059967,
          -0.10855864733457565,
          0.06463596969842911,
          -0.022695546969771385,
          0.15725362300872803,
          0.04828330874443054,
          0.1566249430179596,
          -0.11262877285480499,
          0.09081889688968658,
          -0.09023764729499817,
          0.055562280118465424,
          -0.12146537005901337,
          0.004563810303807259,
          -0.16537106037139893,
          -0.10054183751344681,
          0.15497414767742157,
          0.09404051303863525,
          -0.05519746616482735,
          -0.02267896756529808,
          -0.009419148787856102,
          -0.07638943195343018,
          0.17309105396270752,
          0.1529545933008194,
          0.1339588612318039,
          0.01614532433450222,
          -0.01763327047228813,
          -0.041253652423620224,
          -0.12904934585094452,
          -0.15816429257392883,
          0.08899275958538055,
          -0.04170246422290802,
          0.08181718736886978,
          -0.15173232555389404,
          0.00029945006826892495,
          0.09465968608856201,
          0.10756631195545197,
          -0.13297709822654724,
          -0.00044510941370390356,
          0.08329278975725174,
          -0.027027880772948265,
          -0.11712823063135147,
          0.09541013091802597,
          -0.17776744067668915,
          0.03494798764586449,
          0.09820406883955002,
          0.031472474336624146,
          0.08883630484342575,
          -0.11336314678192139,
          0.06185268238186836,
          0.1408098191022873,
          0.017856113612651825,
          -0.16353802382946014,
          -0.056879181414842606,
          0.113152876496315,
          0.11225848644971848,
          0.1375426948070526,
          0.08379609882831573,
          -0.06549543142318726,
          -0.1358288824558258,
          0.10241977125406265,
          0.11690730601549149,
          0.07049649953842163,
          -0.11732912808656693,
          -0.04727688804268837,
          0.16159039735794067,
          -0.10709696263074875,
          -0.01923377998173237,
          0.12848268449306488,
          -0.17329376935958862,
          -0.11917048692703247,
          0.09450998902320862,
          0.05952408164739609,
          -0.049059975892305374,
          0.03969646990299225,
          -0.015549966134130955,
          -0.09624239802360535,
          -0.0586828887462616,
          0.14794860780239105,
          -0.02406153827905655,
          -0.06094452738761902,
          0.10721360146999359,
          0.02593337930738926,
          0.13990601897239685,
          -0.1530136615037918,
          0.022068887948989868,
          -0.12977373600006104,
          0.13136377930641174,
          -0.05520230531692505,
          0.12849624454975128,
          0.007913763634860516,
          0.06818374991416931,
          0.02071257494390011,
          0.08639658987522125,
          -0.05099257081747055,
          -0.12876752018928528,
          0.07227323204278946,
          0.07430516183376312,
          -0.07686825841665268,
          0.04950447380542755,
          -0.09014306217432022,
          0.17091666162014008,
          0.161459818482399,
          0.03514206036925316,
          -0.06279449909925461,
          0.022349422797560692,
          -0.052318938076496124,
          0.06501936167478561,
          -0.11140532046556473,
          0.1677013337612152,
          -0.09613596647977829,
          -0.13961806893348694,
          0.06140340119600296,
          -0.1361941695213318,
          0.06848468631505966,
          0.1250881850719452,
          -0.13197410106658936,
          0.1464923769235611,
          -0.07444209605455399,
          0.0024176042061299086,
          0.04548421874642372,
          -0.0545717217028141,
          -0.13169904053211212,
          -0.07139112800359726,
          0.09827229380607605,
          0.06803347915410995,
          -0.16379845142364502,
          -0.1680113971233368,
          0.07509750127792358,
          0.025828460231423378,
          0.03698926791548729,
          0.15634432435035706,
          0.09884357452392578,
          0.05725407972931862,
          0.07543296366930008,
          -0.10568886995315552,
          -0.06717947870492935,
          -0.045935988426208496,
          -0.05719736963510513,
          0.0490926094353199,
          0.043850645422935486,
          -0.15461622178554535
        ],
        [
          -0.11256492882966995,
          0.17355285584926605,
          -0.032874856144189835,
          0.08802832663059235,
          -0.03652891889214516,
          0.12007176131010056,
          -0.07569825649261475,
          0.12318675220012665,
          -0.062370169907808304,
          0.14874127507209778,
          0.10079467296600342,
          0.062119077891111374,
          0.08049783855676651,
          -0.14586877822875977,
          0.0016057380707934499,
          0.13954846560955048,
          0.14014320075511932,
          -0.0650784894824028,
          -0.06058618053793907,
          -0.005269136745482683,
          0.10630407929420471,
          0.1656274050474167,
          0.15918274223804474,
          -0.012967746704816818,
          -0.08788220584392548,
          -0.0025829721707850695,
          -0.08912694454193115,
          0.03159411996603012,
          0.12099646031856537,
          0.1255161017179489,
          0.02471652254462242,
          0.08523323386907578,
          -0.14153654873371124,
          -0.10488516837358475,
          -0.021991554647684097,
          0.1040673777461052,
          0.09952890872955322,
          -0.06009194999933243,
          0.007359331473708153,
          0.1292187124490738,
          0.14873605966567993,
          -0.047037456184625626,
          0.10482912510633469,
          -0.1433984935283661,
          0.035341642796993256,
          0.04029075801372528,
          0.013567689806222916,
          -0.17300096154212952,
          0.01281505823135376,
          0.13860058784484863,
          0.1483820676803589,
          -0.10592731833457947,
          0.0567670576274395,
          0.061386264860630035,
          -0.1071787029504776,
          -0.07192380726337433,
          -0.16192524135112762,
          -0.08338826149702072,
          -0.01337241381406784,
          0.17408926784992218,
          -0.14100244641304016,
          0.1612287312746048,
          0.02799058146774769,
          -0.15243038535118103,
          -0.08377654105424881,
          0.0668361708521843,
          0.13991421461105347,
          -0.10665348172187805,
          0.11874803155660629,
          0.057221706956624985,
          0.15963755548000336,
          0.10083720088005066,
          0.1766079217195511,
          0.0825720950961113,
          0.1249108836054802,
          -0.062293946743011475,
          0.1177876740694046,
          -0.13442794978618622,
          0.04408342391252518,
          -0.08634601533412933,
          0.13563230633735657,
          0.12839697301387787,
          -0.024295002222061157,
          0.160635307431221,
          0.06804021447896957,
          0.06563504785299301,
          -0.1620151251554489,
          -0.03392737731337547,
          -0.0496094711124897,
          -0.08153941482305527,
          -0.10240023583173752,
          -0.13326798379421234,
          -0.10419059544801712,
          0.07580874115228653,
          0.16094937920570374,
          0.02098308876156807,
          -0.07522456347942352,
          0.08495721220970154,
          0.1179613471031189,
          -0.17297561466693878,
          0.15366928279399872,
          0.14140570163726807,
          0.08516401052474976,
          0.06144825369119644,
          -0.16940715909004211,
          0.02447751723229885,
          0.04146987199783325,
          -0.10609596967697144,
          0.14138716459274292,
          -0.01933886855840683,
          -0.14230291545391083,
          -0.03505363315343857,
          -0.0960971862077713,
          -0.020948221907019615,
          -0.15301482379436493,
          0.05248558893799782,
          0.1199624091386795,
          0.1284724771976471,
          -0.03457045182585716,
          0.1205710619688034,
          -0.06932197511196136,
          -0.057826437056064606,
          0.03049270622432232,
          -0.09892585128545761,
          -0.05250559374690056,
          -0.013104958459734917,
          -0.13690482079982758,
          -0.01653381995856762,
          0.12694291770458221,
          -0.03988908976316452,
          -0.07957001030445099,
          -0.16455525159835815,
          0.09304945915937424,
          0.13706906139850616,
          0.0299910269677639,
          0.16525349020957947,
          0.15163902938365936,
          0.10398571938276291,
          0.1000591441988945,
          0.07203053683042526,
          -0.043180059641599655,
          0.1353226602077484
        ],
        [
          -0.05305909365415573,
          -0.09891023486852646,
          0.05893804132938385,
          0.0532524511218071,
          -0.09636130183935165,
          -0.11615362018346786,
          -0.008003941737115383,
          -0.08087202161550522,
          -0.033983439207077026,
          -0.14050495624542236,
          -0.003119036788120866,
          0.07471788674592972,
          0.0758514329791069,
          -0.15838851034641266,
          -0.1535910665988922,
          0.059779733419418335,
          -0.08591288328170776,
          -0.1487029492855072,
          -0.012514390051364899,
          -0.12459751963615417,
          0.1205122098326683,
          -0.09702276438474655,
          -0.11510872095823288,
          0.16070368885993958,
          -0.12360502034425735,
          0.12175928056240082,
          0.0033014430664479733,
          -0.14500942826271057,
          -0.004269065335392952,
          0.03614779934287071,
          -0.14544756710529327,
          0.07158023118972778,
          -0.07264921814203262,
          0.09793779999017715,
          0.00746634928509593,
          0.08774150907993317,
          -0.11102034896612167,
          0.013721042312681675,
          0.02877034805715084,
          0.005538961384445429,
          -0.11610416322946548,
          0.13721619546413422,
          0.04696154221892357,
          -0.1844022423028946,
          0.021760866045951843,
          0.03913472592830658,
          0.06309524923563004,
          -0.11309371143579483,
          -0.14858368039131165,
          -0.07522939145565033,
          0.07374423742294312,
          0.08338567614555359,
          0.07880033552646637,
          -0.10807657241821289,
          -0.09822147339582443,
          -0.09147421270608902,
          0.11540990322828293,
          -0.007676942273974419,
          0.0690905749797821,
          0.08083771169185638,
          0.09167990833520889,
          0.0733337253332138,
          0.014312224462628365,
          0.06926596164703369,
          -0.052083298563957214,
          -0.03770450875163078,
          -0.13853445649147034,
          0.13013173639774323,
          -0.14528675377368927,
          0.08542118221521378,
          -0.12345955520868301,
          -0.056612350046634674,
          -0.0016322322189807892,
          -0.03190094232559204,
          -0.09298642724752426,
          0.0071520088240504265,
          0.08464749902486801,
          0.19021086394786835,
          -0.062377188354730606,
          0.04503258690237999,
          0.030442962422966957,
          0.0589522086083889,
          -0.11064379662275314,
          -0.15547169744968414,
          -0.09182336926460266,
          -0.11030665785074234,
          0.148689404129982,
          0.1783791333436966,
          -0.03912649676203728,
          -0.07627047598361969,
          0.1030077263712883,
          0.13642549514770508,
          -0.09129607677459717,
          0.10847873240709305,
          0.02429497241973877,
          0.1472293883562088,
          0.1298258900642395,
          0.12119212001562119,
          -0.14853253960609436,
          -0.18339495360851288,
          -0.1324324756860733,
          0.061527226120233536,
          -0.02431987039744854,
          -0.0183000136166811,
          0.01996529847383499,
          -0.007897666655480862,
          -0.10829758644104004,
          -0.0269217099994421,
          0.16830338537693024,
          0.01848541758954525,
          -0.06244352459907532,
          0.15117651224136353,
          -0.002170680556446314,
          0.14570491015911102,
          0.10276612639427185,
          0.0842592790722847,
          0.16364967823028564,
          -0.09697190672159195,
          -0.12898066639900208,
          -0.1342451274394989,
          -0.10809525102376938,
          -0.15483185648918152,
          -0.04164377599954605,
          -0.1673215925693512,
          0.04797743260860443,
          -0.010240169242024422,
          0.04955470934510231,
          -0.06692462414503098,
          -0.006195100024342537,
          -0.07556957006454468,
          0.05752810463309288,
          -0.011514555662870407,
          0.15288132429122925,
          0.17394879460334778,
          0.03143397718667984,
          -0.08032219856977463,
          0.0828612670302391,
          -0.10716919600963593,
          -0.12101475894451141,
          -0.10980183631181717,
          -0.12981387972831726,
          -0.04346511885523796
        ],
        [
          -0.09278541058301926,
          0.09773266315460205,
          -0.11018066853284836,
          -0.03616916388273239,
          -0.08799368888139725,
          -0.019719000905752182,
          -0.15089072287082672,
          0.018815087154507637,
          -0.13003721833229065,
          0.12870106101036072,
          -0.03085996024310589,
          0.009268529713153839,
          -0.12274889647960663,
          -0.06268841028213501,
          -0.10123142600059509,
          -0.17072094976902008,
          0.019844068214297295,
          0.16223464906215668,
          0.033737972378730774,
          0.08159578591585159,
          0.13357505202293396,
          0.011565440334379673,
          0.17684802412986755,
          0.08903948217630386,
          0.12260107696056366,
          -0.1614028811454773,
          0.10517790913581848,
          0.16755759716033936,
          -0.1606435477733612,
          -0.1817314326763153,
          -0.08621349185705185,
          0.12161958962678909,
          0.09485257416963577,
          0.029241381213068962,
          -0.1380978226661682,
          -0.06400849670171738,
          -0.09827858954668045,
          0.11140480637550354,
          0.08664350211620331,
          -0.1223207488656044,
          -0.07850436866283417,
          0.05580487474799156,
          0.16531963646411896,
          -0.15494050085544586,
          -0.043500907719135284,
          0.019425692036747932,
          0.0763670951128006,
          0.005132349673658609,
          -0.027141112834215164,
          0.04592780023813248,
          -0.11935921013355255,
          -0.148387148976326,
          0.12198388576507568,
          0.04119541123509407,
          0.13047362864017487,
          -0.07496916502714157,
          -0.1734735667705536,
          0.049303919076919556,
          0.09383811056613922,
          0.09620494395494461,
          0.01590322144329548,
          0.0011274470016360283,
          0.13837532699108124,
          -0.12203148752450943,
          -0.02534499578177929,
          -0.03297056257724762,
          -0.07942182570695877,
          0.08090299367904663,
          -0.08387551456689835,
          0.1296176165342331,
          0.07724236696958542,
          0.12471591681241989,
          0.14042982459068298,
          -0.07400953769683838,
          0.015865346416831017,
          0.17331624031066895,
          -0.0521211102604866,
          -0.14501695334911346,
          -0.054013848304748535,
          0.03785722330212593,
          0.062408097088336945,
          0.012618509121239185,
          -0.011163818649947643,
          0.09741754084825516,
          -0.07843033969402313,
          0.13064326345920563,
          -0.1166643425822258,
          0.07144387066364288,
          -0.12069541215896606,
          -0.03463726118206978,
          0.11741960048675537,
          -0.011521761305630207,
          0.15954524278640747,
          -0.03672182559967041,
          -0.02129027433693409,
          0.04401601478457451,
          0.09249164164066315,
          -0.03401804715394974,
          -0.01324529480189085,
          0.04462141543626785,
          -0.12599803507328033,
          0.18177427351474762,
          -0.1384684443473816,
          -0.06748121976852417,
          0.014958898536860943,
          0.004358431790024042,
          -0.12022927403450012,
          -0.07285401970148087,
          -0.0758497565984726,
          -0.03339948505163193,
          -0.07999446243047714,
          -0.045140430331230164,
          0.15096205472946167,
          -0.14385643601417542,
          0.006636780221015215,
          0.0069546811282634735,
          -0.10912380367517471,
          0.06073964759707451,
          0.08773935586214066,
          0.14806552231311798,
          0.06687409430742264,
          -0.014304121024906635,
          -0.13541671633720398,
          0.025230901315808296,
          -0.11560284346342087,
          0.07961968332529068,
          0.09246429800987244,
          0.13166993856430054,
          -0.010504929348826408,
          -0.036785975098609924,
          -0.02263600006699562,
          -0.17002978920936584,
          0.019426271319389343,
          0.11485281586647034,
          -0.17329449951648712,
          -0.028275389224290848,
          -0.15328794717788696,
          -0.10852458328008652,
          -0.10884283483028412,
          0.007182114291936159,
          0.1287323534488678,
          -0.1573488563299179
        ],
        [
          0.06614667922258377,
          -0.12712924182415009,
          -0.12410929054021835,
          0.0793033316731453,
          -0.06773338466882706,
          0.07764028012752533,
          0.0836990475654602,
          0.1201476901769638,
          0.1323380023241043,
          0.04100735858082771,
          0.07853017747402191,
          0.1564483344554901,
          0.17039404809474945,
          -0.12162905931472778,
          -0.0020414795726537704,
          -0.02279828116297722,
          -0.09720084816217422,
          0.009288315661251545,
          0.11591169983148575,
          0.11739245802164078,
          0.09204325824975967,
          -0.1292996108531952,
          -0.04839101806282997,
          -0.12127824872732162,
          0.002094005700200796,
          0.03219132870435715,
          -0.1602085530757904,
          0.02017856016755104,
          0.04823712632060051,
          -0.15509401261806488,
          -0.1455189287662506,
          -0.09407183527946472,
          -0.05776523798704147,
          -0.051451850682497025,
          0.1308032125234604,
          0.0646197646856308,
          0.03734457120299339,
          -0.13592594861984253,
          -0.14273056387901306,
          0.012629983015358448,
          0.05907631665468216,
          -0.09951870888471603,
          0.17210619151592255,
          -0.19172120094299316,
          -0.03102187253534794,
          -0.01030733436346054,
          -0.107598215341568,
          0.1412210464477539,
          0.06278233975172043,
          0.17102903127670288,
          0.08415285497903824,
          -0.06847354769706726,
          0.08552473038434982,
          0.14403246343135834,
          -0.0704803466796875,
          0.10123001039028168,
          -0.009614783339202404,
          0.15840062499046326,
          0.09410474449396133,
          -0.050120316445827484,
          0.1343497931957245,
          -0.028439413756132126,
          0.09460023045539856,
          0.1433919221162796,
          -0.10038682073354721,
          0.12781675159931183,
          0.08814098685979843,
          0.0018092880491167307,
          0.15354371070861816,
          -0.027678679674863815,
          -0.06476026028394699,
          -0.007940344512462616,
          0.14988453686237335,
          0.057293716818094254,
          0.04895435646176338,
          -0.014097270555794239,
          0.005684756673872471,
          0.09755533933639526,
          -0.031283266842365265,
          0.11830633133649826,
          -0.1481180191040039,
          0.11246547102928162,
          -0.13806447386741638,
          -0.1152837723493576,
          0.007374937646090984,
          -0.10969118028879166,
          0.14206990599632263,
          0.09881629049777985,
          0.08717747777700424,
          0.11549989879131317,
          0.1180611327290535,
          0.06289941072463989,
          -0.04795008525252342,
          0.06616373360157013,
          0.05752771347761154,
          -0.15742118656635284,
          0.013516494072973728,
          0.017741378396749496,
          0.06601987779140472,
          0.09358381479978561,
          -0.059204284101724625,
          0.06807849556207657,
          -0.011432438157498837,
          -0.11675967276096344,
          -0.1561238318681717,
          0.03094968944787979,
          -0.09648237377405167,
          0.08328942954540253,
          -0.13644066452980042,
          -0.04155176132917404,
          -0.06109055131673813,
          -0.07611886411905289,
          -0.0006982305785641074,
          0.12021589279174805,
          -0.06419733911752701,
          0.008969967253506184,
          0.1644539088010788,
          0.13676898181438446,
          0.04371486231684685,
          0.07291381061077118,
          -0.019296493381261826,
          -0.06827773153781891,
          0.14110535383224487,
          -0.022389037534594536,
          0.08624488860368729,
          -0.095403753221035,
          -0.046910177916288376,
          0.043467000126838684,
          -0.011964112520217896,
          0.034105781465768814,
          0.14138774573802948,
          0.11605293303728104,
          0.061364274471998215,
          -0.0024934455286711454,
          0.03371407836675644,
          -0.14071641862392426,
          0.011151379905641079,
          -0.11257157474756241,
          -0.09579663723707199,
          0.15713968873023987,
          0.014128506183624268,
          -0.05585283413529396
        ],
        [
          -0.06479809433221817,
          0.11985509842634201,
          -0.0978756919503212,
          0.024079415947198868,
          -0.05374273285269737,
          0.07879958301782608,
          0.13052280247211456,
          0.0311511792242527,
          0.14074496924877167,
          0.1538771390914917,
          0.11634308099746704,
          -0.09222512692213058,
          -0.05033976584672928,
          -0.03398147597908974,
          -0.14824701845645905,
          0.139814093708992,
          0.09147398173809052,
          0.08215532451868057,
          0.010868350975215435,
          0.028168566524982452,
          -0.04283918812870979,
          -0.1691300868988037,
          0.03661808371543884,
          0.11537975817918777,
          -0.019099025055766106,
          0.16433708369731903,
          -0.010160509496927261,
          -0.07287583500146866,
          -0.1792968064546585,
          0.15457464754581451,
          -0.1505499631166458,
          0.06505990028381348,
          0.04666482284665108,
          -0.07737528532743454,
          -0.05272187665104866,
          0.15672267973423004,
          0.017973819747567177,
          0.018933352082967758,
          -0.06639988720417023,
          0.04357089102268219,
          0.0582038015127182,
          0.1403808891773224,
          -0.005991538055241108,
          0.07876283675432205,
          0.13005343079566956,
          0.09385943412780762,
          0.050264351069927216,
          -0.15638794004917145,
          -0.13027004897594452,
          0.05141343176364899,
          0.1507602035999298,
          -0.11800412088632584,
          -0.11838940531015396,
          -0.12480064481496811,
          0.12564851343631744,
          -0.09108312427997589,
          -0.02533637546002865,
          -0.08963800221681595,
          -0.07624782621860504,
          -0.16647900640964508,
          0.07937128096818924,
          0.11970605701208115,
          0.005568142980337143,
          0.0216043833643198,
          -0.13851630687713623,
          0.14810793101787567,
          0.12269837409257889,
          0.03675062209367752,
          0.08715204149484634,
          -0.05628487467765808,
          -0.07031866908073425,
          0.0053526549600064754,
          0.07067377865314484,
          -0.16185304522514343,
          -0.12858986854553223,
          -0.0039397552609443665,
          0.016604728996753693,
          0.04957544058561325,
          0.16081881523132324,
          0.1369168758392334,
          -0.1557055413722992,
          -0.03956659138202667,
          -0.014923088252544403,
          0.10819641500711441,
          -0.09655382484197617,
          -0.06420926749706268,
          -0.10402640700340271,
          0.043332915753126144,
          0.15766213834285736,
          0.005114343483000994,
          0.061223167926073074,
          -0.06660620123147964,
          0.12383904308080673,
          -0.06598439067602158,
          0.12628547847270966,
          0.07626347988843918,
          -0.15317466855049133,
          0.0038260358851403,
          0.056775063276290894,
          0.16121116280555725,
          0.16839826107025146,
          0.05136318877339363,
          -0.10102695226669312,
          0.03392058238387108,
          0.11521979421377182,
          -0.1319633275270462,
          0.017776062712073326,
          0.11588448286056519,
          0.06266999244689941,
          0.021522771567106247,
          0.05924859270453453,
          0.07939518243074417,
          -0.01801307126879692,
          0.060608476400375366,
          -0.15548983216285706,
          -7.384309719782323e-05,
          0.1631615161895752,
          0.09210243821144104,
          -0.09957980364561081,
          0.15824028849601746,
          -0.09506666660308838,
          -0.12434753030538559,
          -0.15153005719184875,
          -0.10961966216564178,
          0.13504451513290405,
          0.08619748800992966,
          0.08683428168296814,
          -0.10702808946371078,
          0.0781322717666626,
          0.07955648750066757,
          -0.09868564456701279,
          0.0988202840089798,
          0.0711369663476944,
          0.09084854274988174,
          -0.16522912681102753,
          -0.11812146008014679,
          0.11959867924451828,
          -0.1745092123746872,
          -0.14347393810749054,
          0.042424749583005905,
          0.10668202489614487,
          -0.16251103579998016
        ],
        [
          0.15694116055965424,
          0.07140743732452393,
          0.1406610608100891,
          0.12209489196538925,
          -0.09256956726312637,
          0.09719953685998917,
          0.12261142581701279,
          0.05919447913765907,
          0.055271346122026443,
          0.11753998696804047,
          -0.04112565517425537,
          -0.13691461086273193,
          -0.029610993340611458,
          -0.1732046753168106,
          -0.03233921155333519,
          -0.09547635167837143,
          -0.038909073919057846,
          0.0117317084223032,
          -0.12969166040420532,
          0.07592316716909409,
          0.01460764929652214,
          -0.1293868124485016,
          0.11432546377182007,
          0.08022751659154892,
          0.1571146845817566,
          0.13151906430721283,
          -0.09424156695604324,
          -0.1293926239013672,
          -0.07544182986021042,
          -0.11150717735290527,
          0.020264891907572746,
          -0.05210375040769577,
          -0.13917331397533417,
          0.002131188055500388,
          0.17182891070842743,
          0.09769727289676666,
          0.1627895087003708,
          0.05843018367886543,
          0.13666531443595886,
          0.05971338599920273,
          -0.04509272053837776,
          -0.1623276025056839,
          0.0905868262052536,
          0.11652055382728577,
          -0.01958906650543213,
          0.10085851699113846,
          0.05470506101846695,
          0.06192942336201668,
          0.10652825981378555,
          -0.16408395767211914,
          -0.04493055120110512,
          -0.12422175705432892,
          -0.10149300843477249,
          -0.02999868243932724,
          0.02729853056371212,
          -0.09507334232330322,
          -0.05310438573360443,
          0.13832101225852966,
          0.17072825133800507,
          0.008724428713321686,
          -0.14982916414737701,
          0.060519102960824966,
          0.11187966167926788,
          0.08941672742366791,
          0.12509685754776,
          -0.022485634312033653,
          0.006246184930205345,
          -0.030724767595529556,
          0.11227625608444214,
          0.007475007325410843,
          0.05009707063436508,
          -0.034324441105127335,
          -0.09457431733608246,
          -0.03126148506999016,
          0.04542634263634682,
          0.12927916646003723,
          0.15705274045467377,
          -0.14114324748516083,
          0.008138635195791721,
          -0.07724569737911224,
          -0.09757104516029358,
          -0.06771054863929749,
          0.08224891871213913,
          -0.03985568881034851,
          0.10357066243886948,
          0.15999719500541687,
          0.12174901366233826,
          -0.04967260733246803,
          0.1431165337562561,
          -0.086277075111866,
          -0.1564812809228897,
          0.078028604388237,
          -0.13491860032081604,
          -0.1027277410030365,
          0.15395626425743103,
          -0.02636525221168995,
          0.17352168262004852,
          0.15837611258029938,
          0.12753595411777496,
          0.01822677068412304,
          0.06365785747766495,
          -0.08782857656478882,
          0.08300698548555374,
          -0.08749015629291534,
          -0.14350254833698273,
          -0.16055002808570862,
          -0.05939481779932976,
          0.03996464982628822,
          0.10118583589792252,
          -0.14924103021621704,
          -0.03611808270215988,
          -0.09681955724954605,
          0.04674858599901199,
          -0.15157034993171692,
          -0.16671264171600342,
          0.13922803103923798,
          -0.014325911179184914,
          0.02801244892179966,
          -0.02033097669482231,
          -0.11988485604524612,
          -0.035138942301273346,
          0.069827139377594,
          -0.10213099420070648,
          -0.052440058439970016,
          -0.13579441606998444,
          -0.06119675934314728,
          -0.1809384524822235,
          -0.03812960907816887,
          0.08362403512001038,
          0.07420221716165543,
          -0.032913289964199066,
          0.11511532962322235,
          0.027299968525767326,
          0.14119523763656616,
          0.045955389738082886,
          -0.11520698666572571,
          -0.03790421783924103,
          -0.05794558674097061,
          -0.1584135740995407,
          -0.05784532427787781,
          -0.11554305255413055,
          0.016136623919010162
        ],
        [
          0.04687284305691719,
          -0.031771220266819,
          -0.03328732028603554,
          0.019271714612841606,
          -0.15251314640045166,
          0.15098418295383453,
          0.02809079736471176,
          -0.015730785205960274,
          -0.09539882838726044,
          -0.12688159942626953,
          -0.01690003089606762,
          -0.1520296335220337,
          -0.026833565905690193,
          0.05652900040149689,
          0.14215506613254547,
          -0.005470058415085077,
          -0.06381317228078842,
          0.020479029044508934,
          -0.004499910864979029,
          0.12295382469892502,
          -0.14656834304332733,
          -0.07479167729616165,
          0.18192508816719055,
          -0.012372949160635471,
          -0.07904868572950363,
          -0.06386762857437134,
          0.13721413910388947,
          0.16929292678833008,
          -0.13345199823379517,
          0.10326935350894928,
          0.10773559659719467,
          0.1393072009086609,
          0.032244935631752014,
          0.1249823346734047,
          0.1678091585636139,
          -0.1209583654999733,
          0.09044729918241501,
          0.1371929794549942,
          0.011972418054938316,
          -0.08241098374128342,
          0.13496041297912598,
          0.06816781312227249,
          -0.1290629506111145,
          -0.13029330968856812,
          0.05832966789603233,
          0.028707174584269524,
          -0.1685764640569687,
          0.1340426355600357,
          -0.10354360938072205,
          -0.04432235658168793,
          0.13911007344722748,
          -0.08656176924705505,
          0.02870030514895916,
          -0.011319391429424286,
          0.02646968699991703,
          -0.08180048316717148,
          -0.08120433241128922,
          -0.07786908745765686,
          -0.111565001308918,
          0.04430360347032547,
          -0.061663612723350525,
          0.08487093448638916,
          -0.14774025976657867,
          0.1284690797328949,
          -0.03939909115433693,
          0.13544045388698578,
          -0.10297556221485138,
          -0.10095680505037308,
          -0.09333095699548721,
          -0.08167119324207306,
          -0.05912967026233673,
          -0.02532588690519333,
          -0.09634475409984589,
          -0.019313976168632507,
          -0.09603404998779297,
          -0.1078685000538826,
          -0.06469528377056122,
          0.08472584187984467,
          0.13051587343215942,
          -0.12764210999011993,
          -0.10453341156244278,
          -0.11989308893680573,
          0.04319947212934494,
          -0.08308577537536621,
          0.07588575035333633,
          -0.09795215725898743,
          0.06259457767009735,
          0.13172361254692078,
          -0.0021727464627474546,
          -0.1771722435951233,
          -0.05590848624706268,
          -0.06107234209775925,
          -0.09591922909021378,
          -0.05660124868154526,
          0.12091090530157089,
          0.03883836045861244,
          -0.12303992360830307,
          0.10709410905838013,
          -0.14161069691181183,
          0.056355614215135574,
          0.18267767131328583,
          0.07796810567378998,
          -0.009586797095835209,
          0.11161672323942184,
          0.06527294218540192,
          0.10148447006940842,
          0.09854260087013245,
          0.040046993643045425,
          -0.008754189126193523,
          -0.008361119776964188,
          0.11793750524520874,
          -0.11033551394939423,
          0.10287326574325562,
          -0.021828528493642807,
          -0.023299699649214745,
          0.14555224776268005,
          -0.0209171362221241,
          0.11547601222991943,
          -0.09297865629196167,
          0.028734613209962845,
          -0.06620460748672485,
          0.08607815206050873,
          -0.014867570251226425,
          0.10379455983638763,
          0.10114289075136185,
          -0.033015746623277664,
          0.037430014461278915,
          -0.16448946297168732,
          -0.031121620908379555,
          0.138961523771286,
          0.08537008613348007,
          0.08625263720750809,
          0.12326536327600479,
          -0.01909620501101017,
          0.021099595353007317,
          0.09270946681499481,
          -0.09436631202697754,
          -0.17720292508602142,
          0.0699126124382019,
          -0.07129284739494324,
          0.12722760438919067,
          -0.09484515339136124
        ],
        [
          0.10325731337070465,
          -0.10753005743026733,
          -0.048366859555244446,
          0.0664035752415657,
          -0.07713170349597931,
          -0.15038861334323883,
          -0.09923692792654037,
          -0.091526560485363,
          0.06507273763418198,
          -0.09253072738647461,
          -0.05262872949242592,
          -0.08182015269994736,
          0.14631551504135132,
          -0.13077330589294434,
          -0.06747771799564362,
          -0.043600790202617645,
          0.04077663645148277,
          -0.06500841677188873,
          -0.13811270892620087,
          -0.08167824894189835,
          -0.13143351674079895,
          -0.10399118065834045,
          0.11002889275550842,
          0.0650845393538475,
          -0.037088535726070404,
          0.07950881868600845,
          -0.15808095037937164,
          -0.12403270602226257,
          0.008355052210390568,
          0.09539912641048431,
          0.16192284226417542,
          0.13436348736286163,
          0.17042423784732819,
          0.017183665186166763,
          -0.12641935050487518,
          -0.12259028851985931,
          0.12897340953350067,
          -0.03960845246911049,
          -0.10433834046125412,
          0.13445360958576202,
          -0.12575171887874603,
          -0.09988328814506531,
          -0.0671003982424736,
          -0.10695906728506088,
          0.17094919085502625,
          -0.04604332521557808,
          0.07514992356300354,
          -0.07290337979793549,
          -0.1416102647781372,
          -0.13665850460529327,
          -0.044144850224256516,
          -0.012200151570141315,
          0.14725586771965027,
          0.036203350871801376,
          -0.11553823202848434,
          0.07541371881961823,
          0.01082850992679596,
          0.16069813072681427,
          -0.08172259479761124,
          0.14641033113002777,
          -0.012864869087934494,
          0.009860485792160034,
          0.11632604151964188,
          -0.16198492050170898,
          -0.006819374393671751,
          -0.05291866511106491,
          0.08089935779571533,
          -0.17631608247756958,
          -0.14579719305038452,
          0.15048444271087646,
          0.10503778606653214,
          0.12154489010572433,
          0.0642661526799202,
          -0.15241411328315735,
          -0.0025483963545411825,
          0.18160976469516754,
          0.06885922700166702,
          -0.04740580543875694,
          -0.06721377372741699,
          -0.0491020493209362,
          -0.16250331699848175,
          -0.052533119916915894,
          0.14026442170143127,
          -0.11886553466320038,
          0.07624225318431854,
          -0.1565573513507843,
          -0.06439342349767685,
          -0.01412853505462408,
          0.06329138576984406,
          -0.1617748886346817,
          -0.14068368077278137,
          -0.1309739351272583,
          -0.11380748450756073,
          0.02022184059023857,
          -0.08024454861879349,
          0.09582900255918503,
          0.014348475262522697,
          0.09367305040359497,
          0.12880167365074158,
          -0.11292575299739838,
          0.12695683538913727,
          -0.07644960284233093,
          0.0067391605116426945,
          0.14895230531692505,
          -0.04671751335263252,
          -0.09870459884405136,
          -0.1131577342748642,
          0.025962717831134796,
          0.1266142725944519,
          0.0009559885947965086,
          0.023676831275224686,
          -0.08698311448097229,
          0.037004727870225906,
          0.1102680191397667,
          -0.0015473205130547285,
          0.08367075771093369,
          0.07435893267393112,
          0.10503450036048889,
          -0.12744984030723572,
          0.048276305198669434,
          0.09371369332075119,
          -0.07953193783760071,
          -0.132735013961792,
          -0.11235448718070984,
          -0.1257389783859253,
          0.13062787055969238,
          0.14150889217853546,
          -0.09323355555534363,
          -0.1675059050321579,
          0.05944715440273285,
          -0.03339001536369324,
          -0.16763906180858612,
          0.12421421706676483,
          -0.018796613439917564,
          0.0026659700088202953,
          -0.1612130105495453,
          -0.03716384246945381,
          -0.1002391055226326,
          0.027729004621505737,
          0.04247415065765381,
          0.16405527293682098,
          -0.11444205790758133
        ],
        [
          0.055534616112709045,
          -0.15131127834320068,
          0.07053010910749435,
          -0.03627477586269379,
          0.05547597259283066,
          -0.06043006852269173,
          0.09674941003322601,
          -0.13637258112430573,
          -0.051429104059934616,
          0.0060386075638234615,
          -0.08386765420436859,
          -0.15301580727100372,
          0.07607073336839676,
          -0.09440415352582932,
          0.15031810104846954,
          0.03555947542190552,
          0.07936523109674454,
          -0.13900518417358398,
          0.12280979752540588,
          -0.1068904921412468,
          -0.0712820440530777,
          0.10569608211517334,
          -0.01682230643928051,
          -0.037012919783592224,
          -0.09036082774400711,
          0.14000310003757477,
          0.09661455452442169,
          -0.04861070588231087,
          -0.008589662611484528,
          0.06833589822053909,
          -0.057816699147224426,
          -0.026807477697730064,
          -0.07061959058046341,
          0.05625450611114502,
          0.09443242102861404,
          0.09050283581018448,
          -0.14728346467018127,
          0.09154779464006424,
          -0.12950517237186432,
          -0.12156563997268677,
          0.025192614644765854,
          -0.0952029824256897,
          -0.05078805610537529,
          -0.03752931207418442,
          -0.051898036152124405,
          -0.07937417924404144,
          -0.08160095661878586,
          0.029186446219682693,
          -0.05093532055616379,
          0.11728464812040329,
          0.15383057296276093,
          -0.14244957268238068,
          -0.07979810982942581,
          0.07285238057374954,
          -0.023858580738306046,
          0.15064692497253418,
          0.11179541051387787,
          -0.14302198588848114,
          -0.012586094439029694,
          0.03361749276518822,
          0.041874513030052185,
          0.09164056926965714,
          0.1548474282026291,
          0.10995155572891235,
          0.0167512409389019,
          0.09717966616153717,
          -0.14581067860126495,
          -0.03822396323084831,
          0.08109885454177856,
          -0.030647331848740578,
          0.07956970483064651,
          -0.04645879566669464,
          0.06631872802972794,
          0.042826708406209946,
          0.07267804443836212,
          -0.07362665981054306,
          -0.09770704060792923,
          -0.006029923912137747,
          -0.12169550359249115,
          -0.07759494334459305,
          -0.04066937789320946,
          0.08321819454431534,
          -0.12023425102233887,
          0.005818177480250597,
          -0.0442887507379055,
          0.05862535163760185,
          -0.04316818714141846,
          0.006744547747075558,
          0.07457751035690308,
          -0.03923758491873741,
          0.03665478900074959,
          0.034933481365442276,
          -0.11321090161800385,
          0.04051191359758377,
          0.15536420047283173,
          -0.05441414564847946,
          0.009426183998584747,
          0.1187712773680687,
          -0.13102611899375916,
          0.1450803428888321,
          -0.15505483746528625,
          -0.032860204577445984,
          0.10635748505592346,
          -0.06968609988689423,
          -0.11082801967859268,
          0.17391222715377808,
          -0.02842666395008564,
          0.13982553780078888,
          0.15369196236133575,
          0.0959303006529808,
          0.08852728456258774,
          0.017456945031881332,
          -0.0423673614859581,
          -0.09926649183034897,
          0.10582264512777328,
          0.062450289726257324,
          0.11374837160110474,
          0.017262259498238564,
          0.1530657261610031,
          0.07810409367084503,
          -0.10741882026195526,
          -0.05089736357331276,
          0.041178032755851746,
          0.1564888209104538,
          0.07912558317184448,
          0.10340788960456848,
          0.05346722900867462,
          0.06836642324924469,
          -0.0027695251628756523,
          -0.12586188316345215,
          -0.03692597895860672,
          0.07024529576301575,
          -0.05241715535521507,
          0.08839166164398193,
          0.025074899196624756,
          -0.11760496348142624,
          0.056975021958351135,
          -0.048120878636837006,
          0.0736980065703392,
          -0.05791550129652023,
          0.02942240610718727,
          -0.15531162917613983
        ],
        [
          0.0591045506298542,
          0.16151174902915955,
          -0.046116989105939865,
          -0.13367058336734772,
          0.02566947229206562,
          0.10328751057386398,
          -0.050083618611097336,
          -0.0977301374077797,
          0.1124652698636055,
          0.15760664641857147,
          -0.10681184381246567,
          0.09708874672651291,
          -0.16006629168987274,
          -0.06849993020296097,
          -0.053724173456430435,
          -0.1795748621225357,
          0.022494159638881683,
          0.12935784459114075,
          -0.017659179866313934,
          0.05162756145000458,
          0.07506000250577927,
          0.08952069282531738,
          0.030918370932340622,
          0.06401785463094711,
          -0.11889328807592392,
          0.13802188634872437,
          -0.1481684148311615,
          0.1531035602092743,
          -0.16928192973136902,
          -0.04828248918056488,
          -0.03055431880056858,
          0.053822025656700134,
          0.1658768355846405,
          -0.01910165511071682,
          0.10376916080713272,
          -0.006232542917132378,
          0.18274302780628204,
          -0.15154188871383667,
          -0.1323179453611374,
          -0.12866099178791046,
          0.11108235269784927,
          0.1732938140630722,
          -0.1158333346247673,
          -0.16110634803771973,
          -0.009857177734375,
          -0.11895287781953812,
          0.10454653203487396,
          0.09975962340831757,
          -0.08713919669389725,
          0.05109113082289696,
          -0.1433793157339096,
          0.10864903777837753,
          -0.018056102097034454,
          -0.0340140275657177,
          0.02381768450140953,
          0.03500537946820259,
          0.07376138865947723,
          0.11911825835704803,
          -0.07892179489135742,
          -0.010701754130423069,
          -0.033668264746665955,
          -0.09863796830177307,
          -0.02826245315372944,
          0.01819043979048729,
          0.06003150716423988,
          0.05810888484120369,
          -0.16656115651130676,
          0.10658751428127289,
          -0.0574556328356266,
          -0.0006688692956231534,
          -0.015475904569029808,
          0.14475151896476746,
          -0.12347826361656189,
          0.14788304269313812,
          -0.02626335620880127,
          0.17036210000514984,
          0.008696183562278748,
          -0.0014158200938254595,
          -0.0669715479016304,
          -0.16019131243228912,
          -0.026785973459482193,
          0.1616591215133667,
          -0.17836059629917145,
          0.03279010206460953,
          0.11468902975320816,
          -0.02637837827205658,
          0.013348984532058239,
          0.18352946639060974,
          0.07920615375041962,
          0.12698571383953094,
          -0.15313227474689484,
          0.13506059348583221,
          -0.15011930465698242,
          0.0859234407544136,
          -0.03039688803255558,
          -0.12879304587841034,
          -0.05181041359901428,
          0.07239672541618347,
          0.07787085324525833,
          -0.13172650337219238,
          0.13196450471878052,
          -0.1501135528087616,
          0.007335138041526079,
          0.021602850407361984,
          0.0010646488517522812,
          -0.14313079416751862,
          -0.06765890121459961,
          -0.17136181890964508,
          -0.018666507676243782,
          -0.15125885605812073,
          0.12063836306333542,
          0.12746599316596985,
          0.15327762067317963,
          0.05398279428482056,
          0.07137210667133331,
          0.09725131839513779,
          -0.1446114331483841,
          -0.10633599013090134,
          0.027503635734319687,
          0.033913832157850266,
          0.1652541160583496,
          -0.0635605901479721,
          0.009146184660494328,
          -0.0496068075299263,
          -0.14279426634311676,
          -0.04035843908786774,
          0.04442818835377693,
          -0.1356445848941803,
          0.14590482413768768,
          -0.03002972900867462,
          -0.06800489127635956,
          -0.16193711757659912,
          0.15468160808086395,
          0.16691520810127258,
          -0.08018820732831955,
          0.054077595472335815,
          -0.15319114923477173,
          -0.10498231649398804,
          -0.01693795807659626,
          0.11212752759456635,
          0.09440620988607407,
          0.11538579314947128
        ],
        [
          -0.022725241258740425,
          0.024716010317206383,
          -0.01595642790198326,
          0.11091345548629761,
          -0.10960400104522705,
          -0.060593247413635254,
          -0.01777995564043522,
          0.05810259282588959,
          0.12415646761655807,
          -0.1453467756509781,
          -0.05031983181834221,
          0.04720759019255638,
          -0.007475360296666622,
          0.12744984030723572,
          -0.09671995788812637,
          -0.11941830813884735,
          -0.04200129583477974,
          -0.1054309532046318,
          -0.1069922149181366,
          -0.14781492948532104,
          -0.14101648330688477,
          0.07953216135501862,
          -0.13124766945838928,
          -0.0900067612528801,
          -0.14987890422344208,
          0.13056680560112,
          0.12461499124765396,
          0.1758604347705841,
          0.10436207056045532,
          0.1345665007829666,
          0.03343698009848595,
          -0.08865340054035187,
          -0.14813806116580963,
          0.07903283834457397,
          0.12565948069095612,
          -0.06516390293836594,
          0.13887223601341248,
          -0.10387348383665085,
          -0.13788968324661255,
          -0.1447238326072693,
          0.11302855610847473,
          0.13459135591983795,
          0.1362551599740982,
          0.12790614366531372,
          -0.12527304887771606,
          -0.13223733007907867,
          -0.0909932553768158,
          -0.01615373231470585,
          0.16742530465126038,
          -0.08906397223472595,
          0.061943694949150085,
          0.011514225043356419,
          0.12320670485496521,
          0.09894397854804993,
          -0.05615859851241112,
          0.12360208481550217,
          -0.15022005140781403,
          0.09569114446640015,
          -0.0657806321978569,
          -0.10584045201539993,
          0.01075364463031292,
          -0.05784233286976814,
          0.09131597727537155,
          -0.12563422322273254,
          0.017473984509706497,
          0.1448964625597,
          0.10673918575048447,
          -0.009144971147179604,
          -0.10505937784910202,
          0.10761758685112,
          0.0466231070458889,
          0.10012061893939972,
          -0.08481158316135406,
          0.009404445067048073,
          -0.1241101324558258,
          -0.02893136255443096,
          0.06983724236488342,
          0.10545816272497177,
          0.02389329858124256,
          -0.039871443063020706,
          -0.06205238029360771,
          0.14604249596595764,
          -0.09743989259004593,
          0.04332747310400009,
          -0.08198226243257523,
          -0.14803512394428253,
          -0.05185902491211891,
          0.11657921224832535,
          -0.05958472192287445,
          -0.060859452933073044,
          -0.1253681629896164,
          0.016092384234070778,
          -0.10099141299724579,
          0.14176249504089355,
          0.0909038856625557,
          0.09356275200843811,
          0.020362338051199913,
          -0.016210516914725304,
          0.07488849759101868,
          -0.13117122650146484,
          -0.05165507271885872,
          -0.01639065146446228,
          -0.0452628917992115,
          0.03590188920497894,
          0.062606580555439,
          0.048469267785549164,
          0.14664959907531738,
          -0.01769908145070076,
          -0.03964269906282425,
          0.07432413101196289,
          -0.09146120399236679,
          -0.07954878360033035,
          -0.05112490803003311,
          0.0719769075512886,
          0.0008072639466263354,
          -0.049054451286792755,
          -0.12988659739494324,
          0.157975435256958,
          -0.05089060589671135,
          0.10881547629833221,
          0.11181411147117615,
          0.08614010363817215,
          -0.06330955773591995,
          0.012276493944227695,
          -0.0977533832192421,
          0.123059943318367,
          0.11588889360427856,
          -0.01727985218167305,
          0.13893449306488037,
          0.06898514181375504,
          -0.14453981816768646,
          -0.11910513043403625,
          -0.1506219208240509,
          -0.03495737165212631,
          0.1220918521285057,
          0.10868764668703079,
          0.07787635177373886,
          -0.0320250540971756,
          0.028190303593873978,
          0.16292206943035126,
          -0.05105289816856384,
          -0.16845062375068665
        ],
        [
          -0.03305855765938759,
          0.08828264474868774,
          0.0701284408569336,
          0.15238603949546814,
          -0.16598224639892578,
          0.06901364773511887,
          0.06407881528139114,
          -0.09757015854120255,
          0.0009779867250472307,
          0.10985646396875381,
          -0.049697063863277435,
          0.020200414583086967,
          0.09709951281547546,
          -0.11210863292217255,
          0.08551595360040665,
          -0.14535538852214813,
          -0.13464291393756866,
          0.0033546388149261475,
          -0.1291779726743698,
          -0.13258565962314606,
          0.17261862754821777,
          0.1552877426147461,
          -0.004226607736200094,
          -0.09241096675395966,
          -0.011896357871592045,
          -0.04438864067196846,
          0.07559216022491455,
          0.1347339004278183,
          -0.18517953157424927,
          0.0925082340836525,
          0.046408623456954956,
          0.10333927720785141,
          0.14751137793064117,
          -0.1049632728099823,
          -0.05199406296014786,
          0.14150755107402802,
          -0.13851125538349152,
          0.0037523694336414337,
          0.11755312234163284,
          0.17649857699871063,
          0.11275747418403625,
          0.08004658669233322,
          -0.12348916381597519,
          0.05521584302186966,
          0.16016829013824463,
          0.08341110497713089,
          -0.09258659183979034,
          0.06201885640621185,
          -0.04817436262965202,
          -0.058788005262613297,
          0.09332515299320221,
          -0.021254917606711388,
          -0.14563407003879547,
          -0.11169929802417755,
          -0.1679190695285797,
          0.15117278695106506,
          -0.1272536665201187,
          0.11449889093637466,
          0.08242349326610565,
          -0.11676199734210968,
          0.13613583147525787,
          0.03696788102388382,
          0.1551116704940796,
          -0.0751628577709198,
          -0.17799586057662964,
          -0.14112702012062073,
          0.05312514677643776,
          -0.11511944979429245,
          0.13743774592876434,
          0.09360717236995697,
          -0.1016954630613327,
          0.03561574965715408,
          0.0215956699103117,
          0.04035484790802002,
          -0.03673829883337021,
          -0.16217957437038422,
          0.1098148301243782,
          -0.0698934867978096,
          0.1075158566236496,
          0.15530061721801758,
          0.058564476668834686,
          -0.12416843324899673,
          -0.030023405328392982,
          -0.05202119052410126,
          0.11198333650827408,
          0.021851683035492897,
          -0.08675149828195572,
          -0.14856991171836853,
          0.10423851758241653,
          0.06010860577225685,
          0.12975050508975983,
          -0.13458946347236633,
          0.14151491224765778,
          0.07589416205883026,
          0.06053309142589569,
          0.047615379095077515,
          -0.06054682284593582,
          -0.059292227029800415,
          0.10782976448535919,
          -0.13389109075069427,
          -0.14592760801315308,
          0.07434339821338654,
          -0.08355344086885452,
          0.06422190368175507,
          -0.09890313446521759,
          0.1336662322282791,
          0.0939607322216034,
          -0.03328442573547363,
          0.02800007164478302,
          0.11556960642337799,
          0.14237846434116364,
          0.12774042785167694,
          0.07769729942083359,
          -0.1099945530295372,
          -0.06109399348497391,
          0.0993141233921051,
          -0.09950774908065796,
          0.13500197231769562,
          0.057794954627752304,
          0.044680867344141006,
          0.1383390575647354,
          0.049780528992414474,
          -0.13853715360164642,
          -0.14687782526016235,
          0.1332966834306717,
          0.0006069678347557783,
          -0.025467483326792717,
          0.039791230112314224,
          -0.17176546156406403,
          -0.10670296847820282,
          -0.12282053381204605,
          -0.03251580148935318,
          0.07287131249904633,
          -0.1484057754278183,
          -0.11143467575311661,
          0.1615932583808899,
          0.06596840173006058,
          -0.17309948801994324,
          0.04744577407836914,
          -0.0021766501013189554,
          0.05867312476038933,
          0.1277906894683838
        ],
        [
          0.0483563095331192,
          -0.08494043350219727,
          0.11399879306554794,
          0.16792476177215576,
          0.029848303645849228,
          0.16635455191135406,
          0.12133459746837616,
          -0.09530924260616302,
          -0.12022452801465988,
          -0.04769758880138397,
          -0.11955618113279343,
          -0.02645714208483696,
          0.01789984665811062,
          0.07946448773145676,
          0.023513177409768105,
          0.049241676926612854,
          -0.010851184837520123,
          0.017748557031154633,
          -0.07028310000896454,
          -0.020927412435412407,
          0.04903530701994896,
          -0.17328830063343048,
          -0.05662574991583824,
          -0.07502009719610214,
          -0.027719004079699516,
          0.05876155570149422,
          -0.06205259636044502,
          0.11858456581830978,
          -0.14256221055984497,
          0.12249432504177094,
          -0.1071062684059143,
          -0.10278069972991943,
          -0.047409091144800186,
          -0.048461832106113434,
          0.13427722454071045,
          0.14333397150039673,
          0.14634187519550323,
          -0.09961625188589096,
          0.13273625075817108,
          0.10726873576641083,
          0.01277841255068779,
          -0.08048544824123383,
          0.07221320271492004,
          -0.09034984558820724,
          0.05864276736974716,
          -0.0056490786373615265,
          0.14832212030887604,
          -0.12192345410585403,
          0.04066511243581772,
          0.04350975155830383,
          -0.03522992134094238,
          -0.07051357626914978,
          0.06209077686071396,
          0.16402877867221832,
          0.05945579335093498,
          -0.0249777901917696,
          -0.1111278086900711,
          0.14804507791996002,
          0.1536635458469391,
          0.006969625595957041,
          0.14630043506622314,
          0.11358984559774399,
          0.16962650418281555,
          -0.07062181085348129,
          0.12450046092271805,
          -0.0786735936999321,
          0.1345047950744629,
          -0.05911232903599739,
          -0.04109225794672966,
          -0.032918527722358704,
          0.06775276362895966,
          -0.0039837253279984,
          -0.16907374560832977,
          0.05245158448815346,
          -0.006997345946729183,
          -0.02916777692735195,
          0.04193119332194328,
          0.10740074515342712,
          0.1240786612033844,
          -0.014156735502183437,
          -0.11564265191555023,
          -0.027659455314278603,
          0.14539660513401031,
          -0.11604336649179459,
          -0.15021313726902008,
          -0.14450830221176147,
          -0.07126352936029434,
          0.1227891817688942,
          -0.12001436948776245,
          0.03757939487695694,
          -0.02918018028140068,
          0.00021750276209786534,
          0.03131159022450447,
          0.023582633584737778,
          -0.15490594506263733,
          -0.0549561083316803,
          0.16100268065929413,
          -0.01634175144135952,
          0.15736491978168488,
          0.04932716488838196,
          -0.0855928361415863,
          0.013265857473015785,
          -0.040828071534633636,
          0.14415614306926727,
          0.12953072786331177,
          -0.027603037655353546,
          0.011191688477993011,
          0.16120296716690063,
          0.07250132411718369,
          -0.15597650408744812,
          0.05233580246567726,
          0.11938749998807907,
          0.11611746996641159,
          0.09921672940254211,
          0.040059711784124374,
          0.08667193353176117,
          0.06123367324471474,
          -0.001684778369963169,
          0.016507958993315697,
          0.04153774678707123,
          0.044460512697696686,
          0.1329035609960556,
          -0.051856208592653275,
          -0.05974167212843895,
          0.07226298004388809,
          0.13516828417778015,
          -0.09697957336902618,
          -0.03897722437977791,
          -0.14918196201324463,
          0.14975383877754211,
          -0.08797350525856018,
          0.01190175861120224,
          -0.06885473430156708,
          0.11538409441709518,
          0.05542077124118805,
          0.027184221893548965,
          -0.022588210180401802,
          -0.09371206164360046,
          -0.09829308837652206,
          0.12175191938877106,
          -0.12000390887260437,
          0.014694680459797382
        ],
        [
          -0.021694183349609375,
          0.12803812325000763,
          -0.1492938995361328,
          -0.1422041952610016,
          -0.11783206462860107,
          0.1381690800189972,
          -0.06120877340435982,
          -0.06303727626800537,
          0.14264440536499023,
          -0.16097794473171234,
          0.048247773200273514,
          0.11457109451293945,
          0.06251908093690872,
          -0.0892116129398346,
          0.0950608104467392,
          0.051394276320934296,
          -0.12879586219787598,
          0.11717922985553741,
          0.1094098836183548,
          -0.012895382940769196,
          -0.1354401707649231,
          -0.08713275194168091,
          -0.09078538417816162,
          0.02927231416106224,
          -0.026529962196946144,
          -0.1568944901227951,
          -0.07257354259490967,
          0.08474244177341461,
          -0.11104302853345871,
          0.010649201460182667,
          0.13954070210456848,
          -0.12314461171627045,
          0.09481029212474823,
          -0.05869908630847931,
          0.11928724497556686,
          0.08836299180984497,
          0.12647199630737305,
          -0.140724778175354,
          -0.13337983191013336,
          -0.040542516857385635,
          -0.0009216678445227444,
          0.03598511591553688,
          -0.00379425217397511,
          0.05403396487236023,
          0.15378253161907196,
          0.0642189085483551,
          0.0034427184145897627,
          -0.0858803391456604,
          -0.03453180938959122,
          -0.16884680092334747,
          -0.018445802852511406,
          -0.1279025673866272,
          -0.11361430585384369,
          -0.12665985524654388,
          0.11926515400409698,
          -0.05420839041471481,
          0.022060075774788857,
          -0.08112673461437225,
          0.14122658967971802,
          -0.12457489967346191,
          0.13763774931430817,
          0.1412936896085739,
          -0.0841100737452507,
          -0.12848521769046783,
          -0.1254507452249527,
          0.1604893058538437,
          0.010897046886384487,
          0.02934962883591652,
          -0.013578358106315136,
          -0.15884087979793549,
          0.11935286223888397,
          0.013576877303421497,
          0.03425529599189758,
          0.13379941880702972,
          0.07797590643167496,
          -0.11489249765872955,
          -0.07942406833171844,
          0.10587885975837708,
          -0.08082316070795059,
          -0.10654201358556747,
          -0.0438542477786541,
          -0.11706093698740005,
          -0.061520207673311234,
          0.012436536140739918,
          -0.03443138673901558,
          -0.09707973897457123,
          0.037998348474502563,
          -0.09703874588012695,
          0.009301853366196156,
          2.0307372324168682e-05,
          -0.06467598676681519,
          -0.07556139677762985,
          -0.04182790592312813,
          -0.15641486644744873,
          -0.0854378342628479,
          -0.022923141717910767,
          0.09503189474344254,
          -0.11008791625499725,
          -0.13349226117134094,
          0.010851860046386719,
          -0.011398890987038612,
          0.09938383847475052,
          0.056729111820459366,
          0.02210254780948162,
          0.11763478815555573,
          -0.0848827064037323,
          -0.028203988447785378,
          -0.014828059822320938,
          -0.14706280827522278,
          0.12175676971673965,
          -0.06437844038009644,
          -0.11285533010959625,
          -0.11283978074789047,
          -0.11777477711439133,
          0.01926560141146183,
          0.02919570356607437,
          -0.028345758095383644,
          -0.10527629405260086,
          -0.08049163222312927,
          0.14918801188468933,
          0.010324761271476746,
          -0.13775195181369781,
          0.024599174037575722,
          -0.06802146881818771,
          -0.02982315607368946,
          0.1028008908033371,
          0.058361027389764786,
          0.10402549803256989,
          0.07288917154073715,
          0.11128906160593033,
          0.07546288520097733,
          0.10180164128541946,
          -0.09943801164627075,
          -0.002348865382373333,
          0.05589285120368004,
          0.026209475472569466,
          0.051412638276815414,
          -0.045773304998874664,
          0.0031620487570762634,
          0.0717782974243164,
          0.09076950699090958,
          0.11932854354381561
        ],
        [
          0.06857762485742569,
          0.10295535624027252,
          -0.034970033913850784,
          -0.14021576941013336,
          -0.04828355461359024,
          -0.013071928173303604,
          -0.14290401339530945,
          0.0108207231387496,
          0.07156830281019211,
          -0.025377120822668076,
          0.001279316609725356,
          -0.028264405205845833,
          0.03771943226456642,
          0.11778239905834198,
          0.05059577524662018,
          0.06249486282467842,
          -0.13021010160446167,
          0.13524141907691956,
          0.06845533847808838,
          -0.030481819063425064,
          -0.12824688851833344,
          0.1092967763543129,
          0.020933395251631737,
          0.09769994020462036,
          -0.015347767621278763,
          0.049690332263708115,
          0.015753410756587982,
          0.051857221871614456,
          0.10067731887102127,
          -0.15047720074653625,
          -0.14212855696678162,
          -0.002625657944008708,
          0.1557133048772812,
          -0.0926661565899849,
          -0.13164837658405304,
          -0.1088680773973465,
          -0.09751887619495392,
          -0.15153232216835022,
          -0.060471463948488235,
          0.10438894480466843,
          0.13688772916793823,
          0.06251626461744308,
          -0.10027071833610535,
          0.14532560110092163,
          -0.09659900516271591,
          -0.0031866508070379496,
          0.14041449129581451,
          0.15118466317653656,
          -0.1194969043135643,
          -0.15364159643650055,
          -0.0665540099143982,
          -0.02055289037525654,
          -0.12393607199192047,
          0.016364365816116333,
          -0.052596207708120346,
          -0.17854809761047363,
          0.13305701315402985,
          -0.0808626040816307,
          0.14635694026947021,
          -0.07990506291389465,
          0.1115199476480484,
          -0.07012312859296799,
          -0.0070064011961221695,
          1.0958334314636886e-05,
          -0.11213844269514084,
          0.13868901133537292,
          -0.022459829226136208,
          0.05698453634977341,
          -0.05278501287102699,
          -0.013158428482711315,
          -0.04387238994240761,
          -0.06716140359640121,
          -0.10310006886720657,
          -0.07997435331344604,
          -0.09221106767654419,
          0.16687652468681335,
          -0.014698287472128868,
          0.07196792215108871,
          -0.030491743236780167,
          -0.170535147190094,
          0.04933417588472366,
          0.08971022069454193,
          -0.014520198106765747,
          0.14828038215637207,
          -0.1314420849084854,
          -0.1065366342663765,
          -0.05704868584871292,
          0.17387282848358154,
          0.061188437044620514,
          -0.08647597581148148,
          -0.10410470515489578,
          -0.01820848137140274,
          0.14208774268627167,
          0.15495675802230835,
          0.10816416144371033,
          0.019428800791502,
          -0.1659681349992752,
          -0.08378329873085022,
          0.06330528110265732,
          -0.04584238678216934,
          -0.04434728994965553,
          -0.06814747303724289,
          -0.012761997990310192,
          -0.16745910048484802,
          -0.15295398235321045,
          0.038156602531671524,
          0.1115722730755806,
          -0.060695890337228775,
          0.009927806444466114,
          -0.01185775175690651,
          -0.08008410036563873,
          0.09620672464370728,
          -0.1410239189863205,
          -0.06044298782944679,
          0.05212213471531868,
          -0.13356709480285645,
          0.08037658780813217,
          0.13643483817577362,
          -0.12237458676099777,
          -0.015775907784700394,
          -0.04696093127131462,
          -0.10983244329690933,
          -0.07024087756872177,
          -0.08341851830482483,
          -0.05303546413779259,
          -0.0024521697778254747,
          -0.04742569103837013,
          -0.05959600955247879,
          0.09751866012811661,
          0.08265886455774307,
          0.15153269469738007,
          0.09314742684364319,
          0.038125328719615936,
          0.1260407567024231,
          0.03943530470132828,
          -0.0891840010881424,
          -0.11246556043624878,
          0.13551495969295502,
          0.08612217754125595,
          0.18433690071105957,
          0.06829614192247391,
          -0.03660674765706062
        ],
        [
          0.10826842486858368,
          -0.10611224174499512,
          0.0989231988787651,
          0.04376722127199173,
          0.1219634935259819,
          0.1509341597557068,
          -0.17403167486190796,
          -0.09662027657032013,
          0.05635368078947067,
          -0.12403687089681625,
          -0.11250106990337372,
          -0.0008206288912333548,
          0.005129010882228613,
          -0.08908617496490479,
          0.06735128164291382,
          -0.13674746453762054,
          -0.13180802762508392,
          0.11018233001232147,
          -0.05640941113233566,
          -0.059074774384498596,
          0.017211586236953735,
          0.029237760230898857,
          0.09840653091669083,
          0.07324698567390442,
          -0.05557558685541153,
